{"layers": [{"act": "tanh", "type": "gcn", "W": [[0.4773029118608162, 0.3574842653244068, 0.2302199221974615, 1.4806562760563413, 0.013423202557975602, 0.03703154864437074, 0.04040958239476014, 0.13695430200269454, 0.0941945652309849, 0.17401491298294433, -0.08956304081270453, -0.21598415515513025, 0.5333276418847052, -0.22975123597950475, -0.17944434244809873, 0.02796572576211682, -0.24941482720196745, 0.23319572609104824, 0.02807417049377058, -0.3553482589456581, -0.5093897374015036], [0.041094535745197, -0.21364259096763696, 0.22206583419517242, -0.8505116043787292, -0.28300784374111904, 0.11067822632055006, 0.029199333003049104, -0.06352808305915873, 0.3543335024769366, 0.16517820720562196, -0.49786291913623937, 0.11336543218028984, -0.15184560566203223, -0.4493454103777569, 0.31322139522962816, -0.18636440188016948, -0.11074462914769241, 0.33673737687421457, 0.18501128601288672, 0.1793492849863702, 0.2476256200555597], [-0.033707820399724364, -0.19584627845325048, 0.3222644919971208, 1.437240563326202, -0.09861295342802612, -0.041586119792208866, 0.03806376928473509, -0.046642792612135484, 0.27968198102607345, -0.1392225107078462, -0.011507158280251667, 0.01093938071455239, 0.3967632081755271, -0.1606168128396203, -0.10701509299220952, -0.2831497574015465, 0.29062863069494704, 0.033877551971812844, 0.4077439366149844, -0.34876325150050785, 0.02137003491159848], [-0.16294518797054935, 0.33258929980533214, 0.09588228783926438, 0.34586401570086245, -0.017788733319408553, -0.25056520080973216, -0.22964948042098085, -0.08895081549687439, 0.03200569746154677, 0.14943851758689727, 0.2673274693798854, -0.1585496493009855, -0.2525525654769478, -0.38236808397030625, -0.09517085323636504, -0.15613629024290365, 0.1355561722995548, 0.07804882523673895, 0.2812267882855331, 0.3868130321271646, 0.030360949775765395], [0.4686122570600143, -0.08253514216282387, -0.1037015829479898, -0.45151002321427725, 0.1250424684289219, -0.019046990263394025, 0.02467072048811333, -0.3378730074809467, 0.24382774754865702, 0.07225137074412291, 0.13061769723143077, 0.21619733979972783, -0.24381872069031116, 0.25916701574442397, 0.1947579814321847, 0.29522555443218396, -0.0386357653649818, 0.35060723348959033, -0.2614333940308744, 0.013470489316069164, -0.3202628047945508], [-0.23765620515155264, -0.06417800428972947, -0.12029062731311839, -0.6975743749746962, -0.19458035080165123, 0.10328502427284507, -0.4243864963802309, 0.15473770245395735, -0.2071027934715709, -0.049137362167119565, -0.2980630220596733, -0.203990489135368, -0.06413352977999617, 0.2320929613814679, 0.12292921184395875, 0.17892366371407087, 0.022834661863031527, 0.22588021753573861, 0.879964522000144, -0.3147926251156088, -0.3714483532094626], [0.3344046562813406, -0.19174558843963935, 0.2587795584463681, -0.675047418614588, 0.21861263626361563, 0.1415447121563209, -0.0925739392433993, 0.10961939365666847, -0.24811782990778528, -0.1021287484280778, -0.16722959672840473, 0.2077129624951116, 0.22908892293674746, -0.3166800925583598, 0.1345334787170732, -0.08808245321345204, 0.31186733168246616, -0.3972448066362207, 0.1885989048145574, 0.38416705869551265, 0.18435249801135126], [0.025399913413665008, 0.389866284925596, 0.10475063234151555, 0.9231149613186093, 0.31525887168096894, -0.08619778956566035, 0.14928179595315713, -0.3088248553481848, 0.26625123087091696, 0.08175865988989121, 0.26284732723454673, 0.20208439741563533, -0.14606502989842207, 0.2102878875338537, -0.06394245950155532, 0.1250236189396913, 0.033875930338379816, 0.13345023456735847, 1.327956003054398, -1.170393115764425, 0.21429523434816053], [0.2285752119147595, -0.46199568234755956, -0.003440796011808478, -0.9606639386966614, -0.20929160484185413, 0.11120731454649532, 0.23658738851377561, -0.3223412066079194, -0.04094911389241218, 0.3841291629706493, 0.1413281157660171, -0.3255540753721482, -0.1323011562761135, -0.15069618633431986, 0.07338120560232875, 0.03119060993259685, -0.05067600779599926, -0.1535943376291743, 0.22715843787187537, -0.31667601280568325, 0.12195557290633102], [0.045418363178132665, -0.28051537563065804, 0.23707686454297447, -0.6004493676777547, -0.17976703623327073, -0.21493650251747734, 0.13320198971734903, 0.2789367521159477, 0.2981475912118245, 0.25965934249884803, 0.16070769190752557, 0.10290316704974214, -0.24674611967903815, -0.1327895907329261, 0.14185192654693557, 0.039349497828613356, -0.13370062966214047, 0.34715441093686056, 0.15928891917381904, 0.16198094231626417, -0.3331442721169829], [0.03411360563854348, 0.46075216219737, 0.12430866070590366, -0.6701651105371254, -0.2695367709876115, 0.048862912483167216, -0.08988140388881526, 0.07717772913882197, -0.15214728317489412, 0.14459177603579906, 0.049418255346699524, 0.19457169090511756, -0.28359633464906775, 0.31956674091567183, 0.14901438940923023, -0.3416103867310023, -0.004710657312758374, 0.05791700877914563, -0.013037725179525814, -0.16301765893244913, -0.1575573141680082], [0.4714792825020138, -0.006094284201802981, 0.1828722729048603, 0.11460628514342999, -0.2701111467212651, -0.089740856484591, -0.19820546549361293, 0.16331754197034978, -0.11268741098255754, -0.08293649285917166, -0.2724914805153291, -0.004542862104358191, 0.15850797536342429, -0.25088380694267537, -0.018613124589542323, -0.3860893841325504, 0.2841617221790235, 0.16202686521201437, -0.973787504470583, 0.5667263233074571, -0.05082616988489783], [-0.48033491015901864, 0.055577058507058456, 0.007671992190109813, -0.13421279288762528, -0.16010801650561118, 0.10819422532319668, -0.05422708590541723, -0.28903146326936197, -0.21768228488758481, 0.033937783983459, 0.1073039003522424, -0.3266618970953025, 0.22797662173055336, -0.2682090014073487, 0.22008392308719765, -0.2246537947609641, -0.01734487841572211, 0.17186691087886416, 0.48121534149267486, 0.49368441706729355, 0.07634650792818702], [0.13557517484476567, -0.24317458281409854, 0.13992158745683853, -0.4682295847942146, 0.012378722806202818, -0.11192584228462293, 0.3981295497249266, 0.012252739826500929, -0.05715779162304365, -0.23257919159828078, 0.13045720214222606, -0.14346607232260009, 0.3368351923200261, 0.17243865951507767, -0.08806210902548159, 0.4722755418121263, -0.2104848042552091, -0.06412095523731642, 0.09742197829438694, 0.3281874079945686, -0.23791410501868332], [0.08542357878066169, -0.39770121393599894, -0.1213022463960535, -0.0847588513076709, 0.037206958531764096, -0.16524168905350992, 0.233428389199032, 0.17597005068154453, 0.13350650638619055, -0.021903709243346836, 0.3633727319700437, -0.2340088675166144, 0.26093671443584937, -0.033438336629933986, -0.16547127843055848, -0.09013937467436482, -0.31410398164625725, 0.21450287074127838, 0.550438376982799, -0.41633936144662576, -0.26371191401010335], [-0.08192721146931005, -0.030140795336151733, -0.35872131403111773, 0.8397191581661565, -0.26380243171644197, -0.1924029464059559, 0.40159927464196404, -0.4060942578585244, -0.1290969672517396, 0.08445147513078992, -0.12755998081468842, -0.0902404302830415, 0.2550002779011729, 0.0978492839294159, -0.14117060912550963, 0.20330495666262421, 0.09161781090333534, 0.0759081569595726, -0.5246779242643538, -0.38211325950639363, 0.35323426146567777], [-0.13529620692295036, 0.1367092483566043, -0.25629248498395135, 0.0470854728515087, -0.3379090848572795, 0.07962028542269634, -0.17972148548510936, -0.16321966662212214, -0.12522958845875196, 0.037122153572104626, -0.29524221335371, -0.007812114825020778, -0.23763072196709673, 0.13635442557146882, -0.028894529196728257, -0.1486099930967774, -0.20633609600564018, -0.3441150400140032, -0.12780442810149262, -0.390736921278443, -0.25857578242262486], [0.10785449968521844, 0.05684023959365146, -0.199408071462879, -0.5389825368851915, 0.08148033283599534, 0.0020954093121109134, 0.19313650737308716, 0.27008138247627245, -0.10677003415874999, 0.0686644163726113, -0.39405395911230096, 0.3357269616422825, -0.03112580238028031, 0.32193726253244537, 0.005441674753209443, -0.21892833020097688, 0.36088114316759623, -0.3023680851107057, -0.28093962621968466, -0.04992682912417819, -0.10511314793887952], [-0.22677364235497938, -0.07420515043595087, 0.25511266194047855, 0.3193432819631564, 0.0922036935594575, 0.12717796613012863, -0.19807505952907864, -0.0887015718217846, -0.19612336451919476, 0.022325179025724073, 0.15282444766306771, -0.34903915128839164, -0.028716676504411724, -0.17406841334149303, -0.09022180389776688, -0.08675329246936653, -0.2070017618523429, 0.017489400554580932, 0.2747630281036306, 0.004831525243315274, 0.17817744102958494], [-0.11201247350556819, -0.3679747995081461, -0.06584459692625673, 0.32200591885319435, 0.056797175927450434, 0.001068093420891254, -0.12395386496272778, 0.2849328925169557, -0.48997307116318983, 0.27691425451347956, -0.38157117710695015, 0.3204860812345809, 0.27077030738322455, -0.07060089973868931, 0.2046778029108381, -0.17175962220089944, 0.05034840729320276, -0.3687339156322604, -0.10791740434510702, -0.19950435820572263, 0.20986035684007828], [-0.14647925736461453, 0.3524238211694235, 0.1863315958904777, 0.3684530398037094, 0.19073259067719062, 0.04854310383117584, 0.3433321960553783, -0.030220700892435965, 0.15448697157952102, 0.1356754413074177, 0.29628427331244545, -0.10249511019879266, -0.1786451110652938, -0.29401552052225766, -0.0503086865377679, 0.04308381446949637, 0.07834023608403497, -0.06473467997458622, -0.9814872438205936, 0.7232460480732698, 0.047009573513692456], [0.13499257742838208, -0.37710366980749305, 0.009603413410509984, -0.261606355003327, -0.0304581754509703, -0.13898130807101722, -0.32379587568268187, 0.24780740652815475, 0.2729493436055489, -0.11557108930408971, 0.18147362426748234, -0.012486599086034111, -0.20179766264782534, 0.4495563099660559, 0.1626623929494845, 0.16012861765675157, -0.11716828304725205, -0.011864954547375807, -0.3576548591088733, -0.1753600530399178, 0.16140452688738272], [-0.31732332466304486, 0.5246215987892918, 0.027794663758417416, 0.2870988701315555, 0.16117157266542714, -0.18392188204937165, -0.13801293048676333, 0.026682148565635718, -0.09166150036322998, 0.26449188964737175, -0.1265108081689969, 0.08561022645714064, -0.22663441710757332, -0.2636531272986069, -0.18269234568315668, -0.34297689535975984, 0.08006888206935582, -0.08017471673953461, 0.01949859695276579, 0.3178720224487697, -0.22647323716810439], [-0.05687403284021686, -0.28023373789439726, -0.2913239035691876, 0.8248910574767673, 0.05900421752303241, 0.15071971000175416, 0.24587939751367646, -0.17454727221786134, -0.08907642275356707, -0.22431075304160342, -0.010361738872904695, 0.2218743633781029, -0.11689118396747135, -0.07843179953260279, -0.1437670229241701, 0.31472472766369547, 0.014672538420574262, -0.16986037105583537, -0.4287668158059669, -0.4541233229240742, 0.3411260729276778], [-0.3889381730275235, 0.016775454404971555, 0.22966232709264603, 0.01932369464594749, 0.18070093007332738, -0.05732615114463629, -0.3124726374521468, 0.35889845759584127, -0.3767420868040559, -0.2642620909645187, 0.09725436731107377, -0.1511026064672057, -0.07717141299155186, -0.01744297108931979, -0.26639457558800095, -0.15825652481294716, 0.09670627953217814, -0.13780152002587276, 0.4437058372799665, 0.04456752719899935, 0.22899796871112013], [-0.33020532767141847, -0.4219378383704168, 0.12491712213352382, 0.5206452228226929, 0.06407413450371197, -0.27027982610341844, -0.2717028149691414, 0.0782937477954185, 0.051879212984918766, 0.22703842872537638, 0.2534760857728714, -0.24022329057944558, -0.08039267869404214, 0.14989402736762747, -0.27435970860684505, -0.24924489889458556, -0.22650112078045928, 0.315689489970088, -0.06887102347396676, 0.027017764747248194, 0.3198568766042395], [-0.3740221199856229, -0.007293191684814924, 0.0872067839687653, -0.39232007083878, -0.010738287692005797, -0.034531223523927755, -0.031009822673927656, -0.3182124133935727, 0.02111652914515446, -0.23215438633959595, -0.10279554858704675, -0.3495283163976248, -0.17954796736290463, 0.30701259560669675, -0.13961293676763756, 0.12499404156021322, -0.02768721424939352, 0.2979230624817952, -0.0062851510755160085, 0.2841582483853847, 0.37636457565329867], [-0.18900853420127348, -0.140286645110284, -0.29203400795467094, -0.12829106899399537, 0.01595748973760102, 0.0604050193621236, 0.08517662579502405, -0.010884366682729307, -0.21041191391099343, 0.09022676811014099, -0.4437071920869859, 0.3602693075862672, 0.2550427090536919, -0.03388850644107565, -0.10377468507510058, -0.279158504507071, -0.26279516999813124, 0.1427185458744679, 0.5573586474234805, -0.35960010160631617, -0.021864723563986665], [0.0025079745312444482, 0.40304796291119865, -0.19681966059030073, 0.37038592635133255, -0.1947033460315658, 0.19432715692636324, -0.07592627621860024, 0.3085218841629099, -0.15806778981873734, 0.20478106019583373, 0.09779911234770498, -0.020669527740402188, -0.06471912617834921, -0.2512691775065045, -0.08618976810944427, -0.05748241391535944, 0.37076123324109844, -0.08225275292584598, -0.6699933088108152, 0.7259198283729459, 0.04216386756174912], [0.012653008094142179, 0.5152992066907277, 0.04267206995461869, 0.2199896341696545, -0.07282465341457103, -0.1957837130402179, 0.3038295875461367, -0.09854023950540892, -0.3522889810114659, -0.03515982929939039, -0.010632308811185511, -0.1599447961542753, -0.044191013493778866, 0.3038372581255274, -0.1838186091373887, 0.26197719884077186, 0.0753354873045093, -0.28936508767898755, -0.12716877096709608, -0.08114802245440746, -0.1342747250230626], [0.40535514567131664, -0.16125972904487024, 0.07704057471470192, 1.176569074087311, 0.25140128705725456, 0.08353648459248739, 0.2904249392699234, -0.14177139817484058, 0.3512445885033849, 0.02466958419873095, -0.007094379256075184, -0.002493068835094285, -0.03918544621667192, -0.16628594338016447, -0.08469040459251055, -0.16707891662855992, -0.09292018064771038, 0.2960102158875697, -0.4045282518342254, 0.7104861956257149, -0.33463521182565825], [0.08967989317379256, 0.334965722320113, 0.08541055390122804, 0.33636929861596443, 0.21571444958065178, -0.12167834591250398, -0.00611138808406938, 0.05122449637867128, 0.29392496759519476, -0.013489434188104074, -0.21097845374841753, -0.06033431478996318, 0.029024490802562666, -0.5286634195792395, 0.27262017022100204, -0.34117149187669776, 0.20911169065109936, 0.23101363594160018, 0.8795451812992638, -0.34119025275047, -0.04446934253315525], [-0.18386381496202744, 0.34333596192423715, -0.08183964159182278, -0.21127631774259945, 0.013672533418569034, 0.010401798305915028, 0.3467269020791954, 0.12611041361886802, -0.2144277245267763, -0.07631553034372869, -0.03683858399485748, -0.30283494569258307, -0.1891167116206291, -0.12628423374133108, -0.20544306507890067, 0.10327628316834163, 0.052232992004974374, -0.2752710134252446, 0.11964976376957503, 0.16914679052177112, 0.15401386803828862], [0.24139601914449935, 0.018645705244217128, 0.3128808159233309, -0.08669907986088582, 0.2890105996842783, -0.2616541824780308, 0.0609453139100384, -0.026897545412791737, 0.31205781154571915, -0.09540338788797338, 0.4710550031127689, -0.4158989805329999, -0.04526944000965135, -0.19736885004955287, 0.11454670739641837, -0.1304567246015626, -0.14427334877921866, 0.0947719698423032, 0.24928850812996814, 0.2773511948218701, -0.18717756514625553], [-0.10210258735113913, 0.4308927968189122, -0.2537106096305441, 0.7800864094023686, 0.13641619401822405, 0.21681656608964878, -0.17855080888420358, -0.045912022911602256, -0.03354815660037835, -0.06600444999144686, -0.08613227454623792, 0.3967782915497085, 0.3071206848474758, 0.2762823901197345, -0.3230861171730775, -0.18090163876457563, 0.019692784314771745, 0.2381738174148581, -0.36176220217545674, 0.08932175204717728, 0.3006483681086549], [-0.0915854425826404, -0.5119479686362227, 0.07674990983428663, -0.1775212959545865, 0.10075465138719295, 0.2508196927921812, 0.09023002426228156, 0.09945707471179101, 0.2508401785469674, 0.2226531513402557, 0.3205547298659853, -0.3224452483972252, -0.04204794238987889, 0.13577951510258265, -0.09306788322546712, 0.2057354617351974, -0.09049741068207173, -0.004199781598981981, -0.07116191922841796, -0.10928000797830456, -0.3909911495839048], [0.1672919545335397, -0.22625995467490007, 0.2182927131898927, -0.34771453776013084, -0.029751641759031236, 0.21696258614794559, 0.3572513492436505, 0.14410936515666764, 0.10658490816790091, 0.17298922401507077, 0.4568694806389149, 0.08559424457899376, 0.04918790730206313, 0.24945597439803552, 0.3132868730607475, 0.08084879512102965, 0.10611677149526563, 0.38573540906149356, -1.4573220415063304, 1.3319733779720966, 0.08703044519675238], [-0.17811066277945037, -0.21708265885077774, -0.14991294282370457, -0.7433244474700531, -0.25250733787413304, -0.013572339228193836, -0.026785697539419756, 0.07265275602916829, -0.07544733160679466, 0.031912458544236626, -0.22833495546068566, 0.35177947439157253, -0.21549301511956473, 0.35029386569623067, 0.10288910573469433, 0.3198851349397565, -0.1823401433915683, -0.2778287338608975, 0.008851312454913902, 0.6662394696312837, 0.018833247863827503], [0.307076523701584, -0.04087317276000418, 0.03396768919437406, -0.28859426418869727, 0.051178879449252784, 0.1802974265396756, 0.030173764326722235, -0.06588067035334502, -0.26859801056487825, -0.18271220849773112, -0.29496768524059924, 0.1715762324874733, 0.08813518982114939, 0.10567376656800669, -0.18906273671892554, 0.061358684168343, -0.02209719442852302, -0.07366292717559503, -0.8223303878311974, 0.2843466892732435, 0.1672467977326606], [0.3434080842865144, 0.5053950895732113, 0.1829030492469225, 0.6730426659785856, 0.03713402673912128, 0.13731811409636227, -0.0834019755806685, -0.21282581513550206, -0.19225456672008343, 0.22002619790315905, -0.13832321978146436, 0.0007023640725262504, 0.17570211769913632, -0.3683037759691773, -0.21499716557922546, 0.06812922338694298, 0.31860436709225004, -0.2764840509205607, -0.23169698611480513, -0.03505889462594114, -0.1023649325237213], [-0.37530715663826775, -0.4817568511919432, -0.24078979617583365, 0.4554613257012474, -0.22382221230848937, 0.08438707068463194, -0.2956001488444877, 0.2537678644857672, 0.25362015524595644, -0.36233787558154273, 0.25314788534798144, 0.18608612092006793, 0.20378130484278745, -0.1262142876090645, 0.07668828751285667, 0.26439375718559227, -0.1316948741188693, -0.11571463188439958, 0.18386328470123725, 0.35561823673324255, 0.22731082489103224], [-0.24933506966960572, 0.060479618836811404, 0.24940837020884166, -0.3403800831882414, 0.06300208384054329, 0.26668662592297254, -0.02585594561234617, -0.14340068514157325, -0.28298569451663347, -0.2579563376078086, 0.4437798805936086, -0.1175143139412916, -0.021948111875512436, -0.16592263445676142, -0.13603549159456205, 0.008146030477782047, -0.1645656194996641, -0.2934922052511916, 0.1958171480884387, -0.032751720013547675, 0.19585334493439824], [0.22101852742760414, 0.3212570638578908, -0.24952949946767122, 0.2493580571760125, 0.23293039788190367, -0.03189106104695089, 0.2176745568575561, -0.24376458029702036, -0.11812394089855996, -0.06489043161154122, 0.1653462575155624, -0.12406666933944617, -0.30654575442673476, 0.36079246523886027, 0.15599918687990963, 0.2644818226117869, -0.10456650956643802, -0.2818841857449039, -0.418385016049897, -0.0569186047694826, -0.09616593184863811], [0.14936806854731244, -0.37385219675856557, 0.019094210975760566, -0.7127221411703745, 0.3294001657757411, -0.042927227973269345, 0.01305321030420333, 0.12321832123234344, 0.31931258895888054, 0.13439829200614167, -0.020759238783388506, -0.21924735237969822, -0.03417072897861052, 0.25095550280482126, 0.005265605450388662, -0.1793830815782523, 0.06625362398748282, 0.22829611757292173, -0.19467588380028883, 0.5018448437300127, -0.40009643451127325], [0.4035108495309095, -0.4323180782144129, 0.1160578849222846, 0.2870460463154365, -0.13897278072152022, -0.10106262329332164, 0.1630053188608075, 0.1841477226888123, -0.026239058627376133, 0.2742583569379387, 0.04666176103354584, 0.3343099279791973, -0.07676062721222822, 0.15715762312178488, -0.00793706740214774, -0.07642759579981727, 0.17954225625710132, -0.12603817011285653, -0.012209655470279109, -0.3062471804351032, -0.2543318812515432], [0.17595593836959525, -0.29512504564175546, 0.13808263096046447, 1.1124004321553944, -0.06689189734184267, 0.05294413993172483, 0.3915639454740774, 0.15229674452834913, -0.3514718958497792, -0.3062544190172813, -0.010656150930334061, -0.23957491908318204, 0.027762539149398396, 0.38628421958482223, -0.3263124557676649, 0.3913293174149398, -0.03969915186087539, -0.31074526396997326, -0.17204026200896, -0.2924344923582306, 0.22142304138342642], [0.038012863412720074, 0.29573025786576573, -0.21788395861960339, -1.7017657315814665, -0.030670272141477186, 0.07985163674675758, 0.43021637935840096, -0.31079929975013687, -0.264214142220762, 0.3116344892379185, 0.07081543569219287, -0.0839674160069464, -0.32780487060827984, 0.1580826175729792, 0.3097959866479206, 0.2757305111045543, -0.10657799414116534, -0.45387025083854293, 0.3364078459935913, 0.29160059949277134, 0.02122728318604725], [-0.244714342984784, -0.04668435459757808, -0.053690399877442674, 0.3368158756200655, 0.1619757723090388, -0.1599611107532464, -0.4460383116661924, 0.10081639962607797, 0.15506522689925942, 0.0717496527298855, 0.22092622212921226, -0.022754780957597864, 0.06197609523161762, 0.19094649345843764, -0.17967157513909415, 0.0677338081220124, 0.07854894346499373, -0.23450524772537437, 0.2592702187993455, 0.25744097350530304, 0.06078919009690395], [-0.35413857326270204, 0.1479824169172626, -0.021384950534581844, 0.12055599841924804, 0.20960913905095319, -0.2647766067264665, 0.003251467701518833, -0.2970032733535767, -0.20009950204811833, 0.24072821540494804, 0.1789050309480987, -0.3129262930820349, -0.14959058890137442, 0.014158674657108454, -0.16878467168149972, 0.09430239308819723, -0.21383363867650126, 0.10602597490825004, 0.3214209487259781, 0.13790450122786949, 0.15219190930658416], [0.31031277934045226, 0.2572864816822955, -0.14907001990720126, -0.4587891295338146, -0.1772805666178419, -0.15450022257758997, -0.03208187261997137, -0.10667095631721672, -0.2011523192840241, 0.12868794002648185, -0.22012308353581317, -0.03400931523522202, -0.27910343734088766, -0.018959575816688164, 0.04818331460841882, 0.17718602902583022, 0.05189438078057882, 0.14115897360270957, 1.5109009968973226, -2.092881860643623, 0.04885527579868373], [0.2827368560625881, 0.4467651872352092, -0.07661825026663989, -0.850939711344777, 0.18603689231151324, -0.10763520200171624, -0.14441925087639354, 0.22590049625791847, 0.19182154129280085, 0.3023320850432639, -0.1213764633334057, -0.0186270744365221, -0.22533489589291308, -0.2733634560570891, 0.19194747898068817, 0.018721272343516504, 0.03720836209106662, 0.1314439732862853, 0.07747568059843556, -0.13375245410342768, -0.3581290310601571], [0.38477571269368127, 0.006806516288810668, -0.1492757448176639, -0.254207465435389, -0.07057685528413866, 0.09520865365883839, 0.32967252707504624, 0.1345520638244115, -0.23031389241299485, 0.12460713385812795, -0.2268701782970768, 0.3005898297271301, 0.23656219978747892, 0.189496260540594, -0.3222265627552334, -0.015031866291469407, 0.041819800037803855, 0.2270529466382518, -0.46626761758592944, -0.3764450767440321, 0.08917026818514294], [-0.27479921060375484, -0.5267970428665625, -0.100441604945206, 0.06708963249195243, -0.16362527545549196, 0.06251069179692828, -0.0071626623831079084, 0.11400468465797775, -0.08502867555562893, 0.028134778035121766, 0.37514712435203024, 0.027482724252312008, 0.0012461253510574948, 0.34982956713596536, -0.20278555089981104, -0.0009226126937255038, -0.02352342551900141, 0.05048661196287245, 0.31978512376360524, 0.13186631869426582, -0.00765980709315179], [0.4045763054772442, 0.34834967404258393, -0.20385592159917973, 0.585233925866464, -0.22932274386621682, 0.22507975309325343, 0.2193574236865133, -0.39122916069157126, 0.0040147038521198535, 0.18534840454163914, 0.12495951151606927, -0.0844376256301422, 0.032685307706180146, 0.2118893936998868, -0.03271045885486855, 0.008240939316498502, -0.040425625900510784, -0.1290339646516416, -0.16748152523596588, -0.3551289153159882, -0.04092365043243988], [-0.11235304153904316, 0.4754974453000279, -0.05287342215898107, -0.007726209641474504, -0.24894786890805506, -0.022803330961040643, -0.1619174210055953, -0.07146393060405759, 0.3226658679886091, -0.2851945664372628, -0.33903985004466364, 0.32763951075770437, 0.0429709034895184, 0.0868472528779859, -0.24557496907988052, -0.026587806183713814, 0.20078925299396325, 0.14870616573526804, 0.08724292902778424, -0.08642744936509063, -0.25987811234678637], [-0.1703901475461219, -0.3953904505944562, -0.06428446571816207, -0.5678799328577889, -0.1422626956173975, -0.06094738753505886, 0.11419604531477265, 0.24766966059392775, 0.1390080905822727, -0.10721784964136899, 0.09045594301342345, 0.2654622072096419, 0.2847128455326397, -0.046382985455358745, -0.03250506601564171, 0.013298920857830883, -0.1420026746005703, 0.2789475179580661, 0.27455757631098615, 0.23224465195575228, -0.13128224194768798], [-0.22427229390546954, 0.09943861710874216, 0.004152113893674838, -0.42949815104062394, 0.011161425378946559, -0.10336656906045882, 0.41145538648407154, -0.29172023480525766, 0.0012607220947820632, -0.13159796719848152, -0.17980298103918155, -0.23129534058454698, -0.19080834185233714, -0.1702876761305417, 0.2577549279970592, 0.38535195434157854, -0.303836037272639, -0.303981011694664, 0.01461788680528146, 0.11229427725147761, 0.45977657579624087], [-0.5624168467469949, 0.47882678669014334, -0.06328833419864457, 0.2813878325027159, -0.2492348589245376, 0.21992490867060946, -0.2689936985836662, 0.004469709981694888, -0.06837266773096067, -0.19821093061131403, 0.15147123191059828, 0.05113038106251716, -0.0669158618677562, -0.22779333171348234, 0.08254303958538999, -0.18741567715545462, -0.24481718694057883, -0.234155700505886, 0.2876281497546029, 0.19864325142928382, 0.1338685073099479], [-0.01768081196124031, -0.33542712979071054, -0.09578110441542104, -0.504720748214067, -0.005299251229287514, 0.10993565971315383, 0.2778890073228213, -0.10987997884311948, 0.1564214514666133, 0.22536003155910528, -0.39829021294818123, 0.2650094864446423, 0.17231333944667832, 0.08862797549352151, 0.1539199774022865, 0.13384702893131353, -0.2204278208328496, 0.12204635013871672, -0.41888953295011977, -0.2796792691305615, -0.2107335875601717], [-0.06377155756637094, 0.010295527195487066, 0.10065749424220427, -0.4726960945959068, 0.05107761265539022, 0.059011642351162415, -0.3140954092481423, 0.2610903790247543, -0.06792853237101651, -0.1694072893890926, 0.0711378559964144, 0.27520984811810584, -0.2365785009503897, 0.1525657070152316, 0.08844014273385484, 0.31943413058891396, 0.02961187448151501, -0.19669079245040055, -0.22614029595771667, -0.07563678490703316, -0.19584518119064956], [0.11991673038211273, -0.5560047696104952, 0.09156411360488556, 0.5581037973529485, 0.34011707713933265, 0.03787124915726867, 0.19078976843921777, -0.13407844198555838, -0.16855955218880436, 0.15520750051446613, 0.014071315729559277, -0.10472279176955965, 0.16627332498412756, -0.09274348606911853, -0.0144676077262514, -0.2537017231568873, -0.09568167884768278, 0.229229419473717, 0.16267411152680955, 0.2502015914075665, 0.15694413113771466], [0.49880634189539275, -0.19617596799776052, 0.08018072271989789, 0.811888038638764, 0.17235919673258568, -0.12423086709101998, 0.34169472520514527, 0.18598613047797025, 0.10815806325089457, 0.11397381565318354, 0.34065780492932274, 0.1710737691160455, -0.06784454221330377, 0.442611092725523, 0.13984702957110962, 0.10394005176137443, 0.17463129684815634, -0.1444050258814139, 1.15779458974035, -1.351755591607259, -0.01031992273442964], [-0.48934806580776713, -0.22220156193774482, 0.08043659928540753, -0.7245484490172979, 0.09302959345761418, -0.2383677950308207, -0.05307573235269828, 0.028869098210082753, -0.05440203552176533, 0.28375974422753275, -0.13721673359800104, -0.3233541487627052, -0.09455856697279223, -0.20730013086161428, 0.1259851468142429, 0.14424486581117396, -0.16897047221302786, -0.05574065153529224, 0.36296633035867365, 0.2889298468559184, 0.37727096898765694], [-0.07176040906682411, -0.3806532208533441, -0.03916523205085661, 0.35998128767012005, -0.28905186845067793, -0.14784694007993066, -0.06002115493686998, -0.3691520095081966, 0.039338076296821796, 0.027566237900387463, 0.17602476624491803, -0.11937963293292156, -0.25080682672916976, 0.023710775224908966, -0.1814795195206682, -0.17339060457743385, -0.11729840271152536, -0.32031518798731073, 0.3966031107110319, -0.45721246696693363, -0.3543302973945301]], "b": [0.3139733804199646, -0.16010502224535048, -0.07863539827868501, -0.058895632926676884, 0.15909595819255437, -0.05316384929836998, -0.007281556088971109, -0.028806981310606265, 0.0009443337861930949, 0.10684621049436074, 0.04490110876477941, 0.10873171447447724, -0.11630020485728654, 0.07803318395143168, -0.02833014833628164, 0.050226594618864126, 0.04224093898039631, 0.0840335226541553, -0.13679867048119995, -0.02323302472639203, 0.05362180614356666, 0.12047827296101285, -0.06322845121983933, 0.09772753186770533, -0.11613002267099129, -0.08560464985046179, -0.11713954225154986, -0.07596102075633664, -0.017047321823400064, 0.01067684731494676, 0.15170220830568723, -0.026858635581982253, -0.10225110466979988, -0.009506843643607774, -0.02759384559608892, 0.07924218444588015, 0.130894325942515, -0.028267831514461734, -0.0280912933193751, 0.030946498122771667, -0.028629718960461285, -0.15217352612809554, 0.0831230084705271, 0.03657221760001203, 0.07919458191790667, 0.04846315810591919, -0.04194470787274801, 0.03908104284138905, -0.09005498117286247, 0.1417738980012226, 0.05004686718116488, 0.13267596802646073, 0.007513998067776531, 0.09818253032974816, -0.027195611188646062, 0.007972603755103938, -0.10218423868267897, -0.1695017944202347, 0.11958135751328802, 0.10080579312251028, 0.011677968839403004, 0.2481714143464463, -0.17648387883269312, 0.07559181138278874]}, {"act": "tanh", "type": "gcn", "W": [[-0.21149245776235037, 0.6453280570246428, 0.026322765083997345, -0.5493396914307085, 1.8475558109072994, -0.3612058690916433, -0.8370002350277909, 0.25468442928790047, 0.07862791331866728, 0.49878744942739456, 0.008508939649480176, -0.0035858793475381148, -0.6698287098502074, 0.5366666391093994, 0.058937801795561705, 0.9373722941606968, -0.15423291555983248, -0.003630943129226268, -0.39697223367773266, -1.255014523198788, 0.2560934443010296, 1.0072361588420664, -0.06492992725512436, 0.5407486928385877, -1.7716790176787365, -0.5085880966766518, 0.5396172996409017, -0.17982274892115907, -0.4697771610965489, 0.07020307770128437, 0.0409876655503051, -0.11540084777402486, -0.046240204468096326, 0.15061909287313985, 0.042234269973082085, 0.3474075550702252, 0.1694823640749203, 0.03164186750310131, 0.14099303281323464, -0.23063765602970046, -0.487920458169935, -0.3005596915285659, 0.5255483710190574, 0.13049722407814351, 0.32936553434477767, 0.11246689808546519, 0.26177627544545257, -0.2147127296671954, -0.41781113502447426, 0.3463235059651739, -0.05066255159073248, 0.4362207507260475, -0.17041518201178574, 1.324412976794925, -0.7857177839324687, 0.043080766663081034, 0.5850142938007609, -0.6297415332750937, 1.3344381447706914, -0.39691018056782035, 0.29015578752472965, 0.18959573064636212, -0.6743511001706325, 0.055723383440078066], [-0.6084957357062462, -1.162878000259825, -0.060364853956121775, 0.21221152203797888, -0.44245683998139956, -0.12564475289475818, -0.1531619903001497, 0.18594873759085612, -0.11316066777001905, -0.08168342630548246, 0.12539539352509532, -0.45310461955909626, 0.38917050815536486, 0.19780787894767177, 0.09120794407411033, 0.1962107843192314, -0.08518016261079814, -0.3585367405963717, 0.23240619786852032, -0.44617283777471467, 0.10020479988235989, -0.31595695429767373, -0.2939021918906996, 0.3796572883432934, 0.5036655158144157, -0.7458160659885646, 0.07933325358725349, -0.18669708376892677, 0.07735722029145578, 1.067783542602776, -0.3156438025649241, 0.09238642065956779, 0.424174797673511, 0.47221958776194467, 0.13889834596435902, -0.24660840004363305, 0.24988202175150476, 0.17673922490208097, -0.027090543327426716, -0.24240441375883814, -0.1772118968894075, 1.1906727996557465, 0.6950333597561912, -0.3935761230425802, -0.20440900239519522, 0.9196427998736957, 0.5176325511935198, -0.016423372899586855, 0.5102573254954949, 0.17384084522322849, -0.6602825930947451, 0.060155870728367325, 0.6305602482880716, 0.37853036883557023, -0.239019616211018, -0.24652044180433136, 0.8952025084415126, 0.34395885908530294, -0.8536093547469088, 0.17067446918490936, -0.6920102958728163, -0.16121740420755304, -0.055953561274575965, -0.20641060102318623], [0.6192226092351832, 2.1553222808441763, 0.8429644198695049, -0.2954844654366186, 0.4982094232225567, 0.2054835757072267, -0.841370302337577, 0.13748233305673743, -0.2879320948658922, 0.911340703677941, 0.7118895868996085, -0.8902285719369735, 0.6541850657074608, -0.22658919232505684, 0.39245151834142744, -0.9957622799579972, -0.44857360617593517, -0.7904718291551693, 0.13505868008130928, -1.084154043563617, -0.28286714081965414, -0.6110317857198223, -0.2792169459258577, -1.0145845815041483, -0.11737210654093101, -0.2604713062449557, 0.2828716929914417, 0.4929743858456078, -0.38088576071435865, -1.1339923052114707, 0.02446864173331783, 1.3573628697711646, -0.6409617397543261, 2.1832452721903497, 0.055477924474610064, 1.9301015078429473, 0.07881280381065195, -1.401431437657513, -1.7761586810735073, -1.975827039924446, -0.009554811611659516, -0.3772317686757869, -1.5559987474062542, -0.3018335071704228, 0.0497893816405049, -1.1867905855747771, 0.26030360484123155, 0.31032600166959096, 0.5657147906083725, 1.151098581884325, 1.2884390341629846, 0.00949900054618396, 0.5427210425264495, 0.14994550880266808, 0.10350244820894569, 0.6379660054531476, 0.2845339304731665, -0.04075196086390754, 0.6651821891764307, -0.31528619936493996, 0.8391838200456372, -0.5429333676626862, 2.395791916350903, -0.3869792829814025], [1.3262650732664132, -3.084131826011731, 0.30052090715889473, 0.439693286614963, -1.123036703479907, 2.986480604608188, -0.9684728407145425, -0.18613229704929005, 0.2870856881182406, -0.28168584226228327, -0.2432427151564479, -0.39180325023776363, -0.045136853497938195, -0.2902755401300781, 1.2036063692498267, -0.26634673105752704, 0.5669401327636612, -1.4955321831631563, 1.3274892357584824, 0.48504800955603183, -1.082947822096907, -0.1968764044031456, 0.342640418850553, 0.5052064631283587, 1.3973342019404098, -0.24142621917387605, -1.3579167829861098, 1.536569933060985, -1.1943800752493263, 0.6446849238239593, -0.22517619528290833, 0.03052037537822425, 0.32541831172083074, 0.44536338694009586, -1.333572429103458, 0.09732579674830821, -0.18114116072038997, 0.08336790016461704, -0.016165057523964403, 0.012068808963598791, -0.17675128625495834, 1.0367904892856936, 0.1524175456011269, -0.03734814997634802, 1.0309692107747557, 2.064566798490462, 0.05636232635801432, -0.283841351712358, 2.257005984863351, 0.34444158252612017, 0.27346556856246595, -0.3230847158207683, 0.4105938715807165, 1.660805875964984, -0.25004940578013163, -0.2931600873836398, -0.1467146311319795, 0.6570563482316952, -1.609998410596838, -0.2582097693633699, -0.9010554132481756, 0.08234262138894562, -0.853768409218117, 0.39564830685884766], [-1.8245734152497703, -0.9015312222464941, -0.15811399829174877, -0.6392313026861656, -1.022247470322425, 0.15825966336258823, 0.6422293777135194, 0.021317183749048906, 0.018660546095390924, -0.44213860254877013, 0.3821943808413883, -0.3003478468534403, -0.23692227400572935, 0.4891893190360275, -0.1345109010077323, 0.6293104693602852, -0.04349088333583765, 1.0619810442958773, -0.04913100149574141, 1.1109532258371169, 0.0897658603442774, 0.26813742791023454, 0.02306415691883894, 0.8623000706212919, 0.6912468040099417, 0.011294196682983138, 0.6428546075814279, -0.011858900349681005, -0.08773748930160877, 1.5988415743175375, -0.6935510273148563, -0.43795087002554145, 0.48593000246566237, -4.328121018044741, 0.13446674590184, -0.3499229478005373, 0.19546202816622216, 0.6150224790111817, 0.40885139492051525, -0.9729518068685771, -0.5325682148321812, 1.3332722311171017, 0.6613702919815014, -0.5819325639527836, -0.12428487152506938, 2.5541939131640334, 1.509734999496379, 0.07998199025594092, 0.6058770369946307, 0.610935189188018, -1.2372776856273335, 0.3522135648102263, 1.3311596350529422, 0.05081168449882953, -0.881677719524818, -0.3038910420828638, 1.8840395201629194, 0.08114036376519386, -0.28746826121564467, 0.07418112564381392, -0.41778597504159887, -0.16986754456228056, 2.385907312169981, -0.2366060401726456], [-0.20432031747489082, 0.8048759203841619, 0.33255464815248487, 0.3434748495959946, -0.834356806169344, -0.11092514585067909, 1.0938514514237971, 0.057022159767727676, -0.08626846708230283, 0.0009509690953474427, 0.14951723265409295, 0.10123086104738496, 0.3795665648029119, -1.1951242063116918, -0.2647826540595657, -0.5645735035696272, -0.046204969519554294, 0.8784031617684948, -0.005151300369456212, 1.5080675967214485, 0.22092911523970202, -0.11283245950819519, 0.34207437194257573, -0.19212810682145845, 0.6989094548100523, 0.3958426442811643, -0.3259211647075608, 0.09110951518803698, 0.48317257163495053, -0.4377944194011646, -0.09471191011800055, 0.5072593334963051, 0.04150924102150572, -0.585266413930155, -0.010903087490593094, -0.7071516319454101, -0.1048762735942367, -0.3282546975237622, 0.06417599309709829, 0.3652246933875828, -0.02118624320527758, -0.129794644045412, -0.44545400671230756, 0.028561311775443136, 0.43089905202062967, -0.8678004511547771, -0.5021193861708625, 0.09686223185664435, -0.2917090873326189, -0.40100943001621925, 0.06316759366577518, -0.1791430304095531, -0.5125350253420132, -0.6426218289358333, 0.06079828277209418, -0.3230625792597794, -0.4994949394459051, 0.4074390446801497, -0.4901312874486655, -0.2908532329921108, 0.7652021159552278, 0.23926779858852715, 0.4102926460456155, -0.10742242836463717], [-0.0927288203571347, -2.7858592324787534, -1.5569389225469539, 0.5002677433569032, 0.8018391468353385, 0.16423380372586133, 0.06355952120785718, -1.0329696058319329, 0.26875433246136865, 0.3158499479990602, 0.811557871145512, 1.6741058513170495, -0.38510756069368407, 0.3030603826989058, -0.07758915441370548, -0.7732495260125177, 0.20483584859197446, 0.5936174241726354, -0.20413888909369773, -0.9305319629716043, -0.3836205354230884, 0.7143580429704842, 0.5932402893172821, -0.7759835513636468, -0.45553065419435634, -1.003490019317781, -0.05904630046761744, -0.2739033586103684, -0.08767464413374099, 1.2599848823525097, 0.5476767272629206, -0.5556688287506563, 0.2063632705037162, 2.4854276300800553, -0.41095890598503704, 0.873862448487641, -0.2555230992948848, 0.5840684820324755, 0.39414462346235996, 0.7792288104926999, -0.4132258814788403, -0.28256224483835407, 2.3661412176470527, 1.8552589415006007, 0.3971154692698352, -0.7209279376214952, 0.15003904351514882, -0.24575574733528288, -0.23769492168080122, -0.16350525571680627, 0.4912004194290189, -0.20705977031002487, -0.08598225119174172, 0.25715237988790146, -0.15135166426184307, -0.28159028956128557, -1.4066513696954162, -0.09997581741966154, -0.5979254419444221, 0.38316027257705737, -0.49985413032817166, -0.49493259488968705, -3.205045743447055, 0.5053981809464397], [-0.27253429303939875, 1.469064745220812, -0.2693120184057374, 0.14987952300095145, 0.2536233262653061, 0.1404137568270265, 0.08301048765276381, -0.4738598971947617, -0.22385889960848368, 0.671104341467401, 0.41966721382514255, -0.07132300118213492, 0.21472582872546078, -0.20373282606912763, -0.048992030190669326, -1.3993771093382312, -0.08166786893109439, -0.17434655610984776, -0.11887185121221416, -0.6784096301798925, -0.13566632487186966, 0.6270628501660517, 0.16150781429294986, -0.9835475318936336, -0.023614970046140684, 0.09768806909258866, 0.09862076239480241, -0.2864229855961696, -0.30473256247771774, -1.2986276722201315, -0.21541951190545966, 0.22513774790641383, -0.16294145363536355, 1.7246085607779729, 0.0559779363276495, 0.6503641652136924, 0.3154713986010221, -0.290231673712731, -0.17856312441185784, -0.8220319080453383, 0.12905364431050462, -0.23578734779794155, -0.7168353113330159, 0.25143656979713846, -0.38223169071693186, -2.412548269024941, 0.12366478453012494, 0.19554032373929556, -0.10377275822292219, 0.580392506961608, 0.9356249790930394, -0.07873978232097449, 0.011575145804301308, -0.8608967861214978, 0.13530582611918415, 0.47204528795236494, -0.11593835224368572, -0.07773514988479419, -0.022035972420586223, 0.1393585326049389, -0.3241353427219129, -0.43351381407905537, 2.0152918045389536, -0.35795453658507553], [-1.0134650373126448, -1.5670610629940611, -0.36674622673184626, -0.15479348380415398, 0.2578864246817082, -0.7575615129236565, 0.9037210109548839, 0.05919629242358275, -0.15630983150685906, -0.2917684622451676, -0.02729880574011068, -0.38626330235907025, -0.22910375940090205, 1.51186878891705, -0.9539101238578246, 0.23530647918472475, -0.16826278364546216, 1.259173724269289, -0.3770963457691089, -0.6191456028990524, 0.6789975630160054, 0.058292525721090956, -0.363230870380336, -0.21370650072983988, 0.08582481467673476, -0.1598531212275301, 2.0699290889478994, -0.9982346739599284, 0.9374695702697393, 1.1915867118614571, 0.22938110561384822, -0.37209787446978, 0.1942433605446718, 0.36533320902781935, 0.21146123095732844, 0.1718194621528993, 0.03716080680725747, 0.30685371478902873, -0.14539205309515685, -0.0389366308973515, 0.7940133663889236, 0.2975469022363707, 0.955299643166245, 0.09120046941500841, -0.7308666658413303, 1.4352912529241038, 0.035702079350313706, 0.26223384616611, 0.04184316097458408, -0.4508812071814332, -0.9354900393573747, 0.25399513387187794, 0.6097914502058488, -0.85696450314487, -1.5429994662228996, 0.19160610657571225, 0.4954444554785805, 0.008840047021030344, -0.24930120072646952, 1.07189787884065, 0.170857945035958, -0.0619442217378817, 0.22395253104440876, -0.021802621189149288], [0.7293190364346743, -3.64020904519561, 0.23691336418017003, 0.01381026263182157, -0.16472192588612908, 0.464114793607472, -0.814353701250172, -0.19183830450013298, 0.15024708891427666, 0.1261107926713422, -0.13754105290145247, -0.181360171223562, -0.05704741993651479, 1.1266046476117375, 0.6532209231381451, -0.03749973412186988, 0.24263401790812722, -1.3575042014059293, 0.6022132894769622, -1.205405117704449, -0.6815035335965745, -0.210443134192757, -0.03275184012615909, 0.327234562023547, 0.7056206701453476, 0.26458007291509783, -0.575335071453402, -0.09879043395699307, -0.3117574967428835, 1.345239680732102, 0.3061095193467295, 0.0661057040218724, 0.352570602275365, 1.578681891487751, -0.5334828492706742, 0.6992970865778687, -0.9730281345971105, 0.18003164418934123, 0.11421857628555698, 0.3027276534665809, 0.46929346649178005, 0.541610591280327, 0.37096125229454785, 0.3031723485627531, 0.5854645320367765, 2.2696441016724225, 0.22352862360658693, -0.03294155930876164, 1.3953923696331954, -0.1401915136807465, -0.3939485169937578, -0.39830474160718904, 0.7079196444665721, 1.0739708055166282, -0.7831487064589704, 0.06149024325167423, -0.2562412294543378, -0.041963070068436255, -1.0664876263561547, 0.04991264405463251, 0.23059672296267014, -0.18789695783869392, -1.2841113648523312, 0.39882370908035186], [-2.869908009630949, -0.4477533696679895, -1.5351117249262296, -0.9008843779173725, 1.8319552292468282, -0.3444805268957348, -1.4229291473525312, -0.21483064456563522, 0.01444430355506574, -0.004174769423174852, 0.10274502595750491, -0.13379080224358655, -1.0623201841423187, 2.048477524187887, 0.31389608898130167, 0.8905502715670034, 0.01845619069105416, 0.7120412925379969, -0.043840590723108176, -1.1971486000177098, 0.2478187048720128, 2.5089106407898543, -0.17342930918970897, 0.5537729120820344, -0.29103666018630225, 0.6357440837785756, 1.8337820086446859, -0.3545659342878802, -0.32290913661027737, 1.08463409614666, -0.2286274167693569, -1.0964732243659043, -0.025647056736118477, -0.4743472692762734, -0.14720992026692806, 1.1777074786135706, 0.027444505044724826, 0.8842825678695441, 0.2929930703120418, -1.902259608628846, -0.2611215493930184, 0.4992531144370873, 1.341372847009145, 0.31705634790483805, -0.1573950743332403, 1.7186570293809147, 0.8635926712926045, -0.06560428398847852, -0.02407895403299575, -0.6656474759458311, -1.4619449813041514, 0.2393649032446887, 1.3878116307100306, 0.38565582066039794, -0.6841384991321583, 0.13645789448787576, 1.0930712777541263, -0.4690823061094958, 0.6026527079264318, 0.4920827959686433, -0.6706344433830544, -0.0715543343903578, 0.4491056070799771, 0.032415441893135215], [0.19702972164840385, -1.1525807519424962, 0.2803321173537139, -0.1872396609685388, -0.29140460473060326, -0.40320999428921406, 0.9260936231247353, 0.00013677387830185087, 0.28525922912484797, -0.017030626860665758, -0.35481004841900016, -0.1583186095780518, -0.15760095424500692, 1.1313138762321304, -0.011045878965192246, -0.0732217057671843, -0.19197277951117078, -0.06217154859469732, -0.0028707079732002254, 0.3838356521305419, 0.37233821653513255, 0.16690467875579937, -0.10939045987832059, -0.04317066332285537, 0.20196105697427438, 0.16272167217731862, -0.19236817775455198, -0.39896360061623015, -0.15335492777207083, 0.1749363590823578, 0.04325477951327538, -0.2027531055943637, 0.227422713390415, 1.5134529959082055, -0.31658444020512216, 0.8422559633902466, 0.19036804616877784, -0.12848646146557552, 0.016741382106051497, 0.347674726400564, -0.16686016346377097, 0.2834159296464066, 0.2940785079912773, -0.0052001175351249285, 0.585364201677139, 1.6227252307460418, 0.010367698581113556, 0.038040723346848514, -0.029859093808382677, 0.31531303153581963, -0.6954970117041597, 0.17081946658357489, 0.5818440903440062, 0.32913368873093446, -2.8267175954085992, -0.15870051957778766, -0.0618213087950546, -0.6880004898189414, 0.14446241127934648, -0.03992091955598169, 0.9539962447225235, -0.27420763862278397, 0.3242137832476798, 0.026356548024181956], [-0.8865942953950312, -1.6493112968674744, -0.6310520289947588, -0.3877589780038634, -0.5484209911981003, 0.28518759126665005, 0.32854819084179326, -0.4803026176948967, 0.1250930443022575, -0.8282498935592972, -0.5282267531618102, -0.1054960197731255, 0.3474535759127659, 1.1819566019387013, 0.26054574324153207, 1.2748563833008442, 0.11674199969956534, 0.10528127407126654, 0.21743892554926866, -0.12074462573182651, 0.0757637680840353, -0.9929316284421972, 0.021675693510526846, 0.6437110067911821, 0.5321742221135407, 0.030686363943944448, 0.5854772307374847, 0.40738155801097403, -0.5149876733304926, 1.8506422766208397, -0.4276168809488131, -0.24608586112197733, 0.868113436254204, -2.07672943932366, 0.17751737962630504, -0.5515492670303499, -0.07039544450050074, 0.9981190906875762, 0.09541510019461562, 0.39877842189943347, 0.48796734988567003, 0.9181919420812409, 0.5438175921107216, 0.13925097914832413, -0.4847026287015301, 1.6470504298997084, 1.1764438564693485, 0.10642393236296059, 0.8980248433939395, 0.9069177739246447, -1.3587328013331288, -0.022280802672945337, 0.5947936201481144, -0.13742822496616297, 0.3514740543546634, 0.13762770042373132, 1.8717353307441045, 0.2029505589258013, 0.16675605257848247, -0.22258576473056738, -0.1548840175234107, -0.1216157105941806, 1.2567597107691189, -0.13517382060085759], [-0.3582730675292341, -0.06805106769986427, -0.2480203249012787, 0.6694328041073191, -0.7909072770008827, 0.06317376681606873, 0.20036813985785093, 0.10840762554829583, 0.13757028197277324, -0.2693353452418075, 0.044525612808116705, 0.21258828814714908, 0.8333105749609513, -0.35657357957241825, -0.49233677648475127, -0.09938869293043723, 0.09930401250362764, 0.08608776925791296, 0.18979711497213622, 0.35073784471554964, 0.023148764244385677, -0.7088122895526252, 0.26792660646963684, -0.2440377356605768, 0.6901687608808631, -0.3398731028354026, 0.20235800824515365, -0.03639747082822155, 0.476326822965504, 0.5379289019084424, 0.11849113242993829, 0.28095570801845027, 0.18050023613569027, -0.4360949972780318, -0.03788013373252632, -1.0602775460684777, 0.19956221806188792, 0.1887322471175416, -0.12233804411679783, 0.5968755185264838, -0.12347707218261024, 0.14000465979093826, -0.006429901644156356, -0.25014858830277925, -0.5048845270768044, -0.4631991967669299, 0.16795126897337942, 0.16287250325987201, 0.1757252117666743, -0.12553010542301843, -0.13191955575782702, -0.22247719297124355, -0.34090731349344255, -0.4648464143409419, 0.8231209193740229, -0.19383083754107544, 0.13189452257374634, 0.4684991644622234, -0.8151752173844825, -0.09643063336779749, -0.6718263306957662, -0.05699770407878882, 0.44417061126078083, -0.1749224408079631], [-0.4793008282874928, -0.07543885849303944, -0.5269204278600708, -0.5249792533521062, 1.3151457182561361, 0.2886909955544463, -1.321810198516295, -0.02485279020798655, 0.04200147059040313, 0.4590227315146902, 0.07447254482509112, -0.5942162077760843, -0.48264946273735465, 0.9249129526062041, 0.5386307783357465, -0.3747848826905767, -0.03525385969037051, -0.4193150722685898, -0.18324625696333735, -1.108882729960263, -0.2513910610505256, 0.6933241202401899, -0.0694889170187643, -0.007543941418736956, -0.2879108537272948, -0.1507977736566736, 0.20642673224107908, 0.1295240098133495, -0.4985151050184762, 0.47302468501407263, -0.12323704008687149, -0.45048145556112806, -0.08467803566834757, 0.722404872487059, -0.1945391130803918, 0.9686904419472759, -0.2563195388933091, 0.5396465538954525, 0.16881509075201628, -1.1926942804061775, 0.06089438493816681, -0.08650823228296502, 0.5794961474841904, 0.32341943230819503, 0.31704024317719415, 0.4157194971204727, 1.5266605258998043, 0.13859691858144213, 0.31024040455614743, 0.19197144485852027, 0.0352732527731839, 0.007590839578212764, 0.6679815460838966, 0.5510382741963045, -0.16428234472750503, 0.06164315731066426, 0.6122707345047234, -0.2251256560301549, 0.6477161630487167, 0.16509305758434195, -0.2490183749271942, 0.2655826189373381, 0.20257198264202814, 0.1580506151509092], [-0.7404589191636742, -0.3536920426377999, -1.4076301344539106, -0.003014841887811284, 0.1625886782956165, -0.06795515930393105, 0.7120090193135313, 0.23071339181950104, 0.1952267876920505, -0.01995392141511235, 0.25122494990096866, -0.3609987557949811, 0.8966423075302045, 0.4439993602867054, -0.4285514857820887, -0.2922855371413318, 0.07486793653237371, 0.23898001614920253, -0.08804553916116452, 0.021215691809039473, 0.1504675955766584, 0.10823287404973674, 0.1573371220355145, -0.43976552495279, -0.39653932074090675, -1.1283481902566985, 0.17849198510374856, -0.05499063724585055, 0.6558106669026246, 1.5200266233806174, 0.4588395918491655, -0.8092142729267229, 0.3702919685056998, -0.9917377566535642, 0.10766388834624677, 0.25579810764203187, -0.11095185441662313, 1.368086072693048, 0.21221234685254906, 0.8201071683225065, -0.05466041371111139, 0.08279204334873518, 1.9481306870204314, 0.6745057725404509, -0.3693669333690543, -0.2464358041765533, 1.2877733523557875, -0.1754206040151385, 0.24960804251914742, -0.5826024874449004, 0.4278080866124381, -0.2371993224691823, -0.6729558829835545, -0.1268113058699998, -0.4069028022455561, 0.0002062991526357316, 1.0744154690156307, 0.36072207476037166, -0.09502988547059552, 0.5483401672785109, -0.7930270693948688, 0.17931285269968905, 1.3344776176473836, 0.13868001486728804], [-0.5963367921210582, -0.010428264658453864, 0.006398046915606779, 0.469361134820883, 0.29020615333085814, 0.6642381643931005, 0.19632568112737617, 0.31788005796095437, -0.054874493226625874, 0.1846742692875057, 0.4705165644267521, -0.06073214286229334, 0.4251698630149617, -0.1141603778907863, -0.09337016144549452, -1.548069582600318, 0.04172225514927525, 0.45349874755298836, 0.23800610685198556, 0.006200207470013546, -0.3082915131328857, 0.446453240587493, 0.2826096697282997, -0.6917633488877502, 0.8693098920488938, -0.03340780923596735, -0.09436948637974214, -0.24399268309823802, 0.2218865174979578, -0.3134892698099412, 0.2187767763354915, 0.09156524479184885, 0.2028009356986075, 0.47066561685422226, -0.47163596539137737, 0.29641616134294757, -0.28132284267586954, 0.27362192615927616, -0.0702486834698544, -0.679144231787138, 0.2789083173508256, -0.10554020895166587, -0.22661876688074384, 0.2601491117298641, 0.45035292992602843, -0.6598129874135721, 0.9464210239342933, 0.17705198408198566, -0.13743285572018113, -0.3576304281829319, 0.08403241116720685, -0.5959453777483656, 0.47068386768227244, -0.9562510276588317, 0.46999072400582104, 0.2783208724126648, -0.1098757975602107, 0.26178008862199514, -0.5137021554098546, 1.03505261893435, -0.26036601168589296, 0.17693041603534626, 0.2528725111229091, 0.3103208822530971], [0.28812504732560434, 1.3520755795068586, 0.26467247127153665, 0.2978457121619383, -0.059986186024194796, 0.0719367360723197, 0.31043970843268465, 0.11165358635898173, 0.19269688780502864, 0.35580488538408567, -0.14338810774848046, 0.16940381354881054, 0.46891843459925353, -0.17533174763269146, 0.09597236329369689, -0.6546966949211563, -0.16885084557585345, -0.5763639055737583, 0.20828641626393052, -0.31227414222408945, 0.3631971682179044, 0.1054418781236146, 0.23400839623591924, -0.3687952694007524, 0.07237691501863772, -0.18938936887297989, -0.25106751245668213, -0.3192816237882513, -0.1528049860608338, -1.0639395858287806, -0.08293539944688658, 0.5560456897058085, -0.11926018146808699, 1.4230046876141782, -0.2644059975608876, 0.1724774374670045, 0.3371648079309777, -0.33848622956912494, -0.16903458343105318, -0.1647548835898269, 0.18123974375271057, -0.12356455474182906, -0.3851988884775002, -0.12605020124714267, 0.028191609630679973, -1.431730071993737, 0.2298640201968243, -0.14107025571247805, 0.15356419398169993, -0.0682874286566155, 0.9661009997200156, -0.30859582408278674, -0.1667502884952643, -0.39098970571349045, -0.21186965605123417, 0.10289042124675016, -0.12503504931815454, -0.12377093833223596, 0.09114411783807184, -0.20240093513561822, 0.015507502074184935, -0.303913397343647, 0.7563143740219432, -0.11650495439298014], [0.11775974599851834, 1.3317590842805036, -0.394832827640135, 0.00697247410843044, 0.9227398134645478, -0.1897238693159924, 1.1038881409629306, -0.3446809967174328, 0.09053317773285348, 0.5500553983164412, 0.3726858385983029, 0.5005669045608001, -0.2944303812419628, 0.35166968517207486, 0.026854624786456293, -0.3012367595500155, -0.117459101465997, 1.0435902693057164, -0.3267732604571817, -0.48570923468892785, -0.029769824464218216, -0.2627130807010337, 0.0372640693434439, -0.7629121763555862, -1.3941974259990273, -1.1698481727313834, -0.07675291630234315, -0.1743476386575636, 0.1617883347606722, -0.33628991231206484, 0.13850424461999197, -0.08206056046406919, 0.03982072170266323, 1.229288451430791, -0.21842626011246138, 0.37347241770422956, -0.007863956716136034, -0.13036053844658788, 0.08846525439339961, 0.3457467910375728, -0.9768717152205589, -0.6125234023273819, -0.10179817062936404, 0.2633767090333899, 0.188413220842284, -1.9291014637564377, 0.6824089020109891, 0.04068145728566905, -0.6087466152642584, 0.28094269036301656, 1.2864506795908508, 0.3514677546453147, -1.0407934507763563, 0.25480367229032636, -0.6797192316889884, 0.20012645668207732, 0.31702470216483636, -0.5907928464407451, 0.5713665842691128, 0.2831884026169192, 0.12136750641558268, 0.0005914055144477439, 0.0728972619459808, -0.22038340946946383], [-0.8839130586791776, 0.27052725819856843, 0.047458187573174215, -0.23035680420034002, 0.13785822295993924, 0.3222933761534515, 0.6563939409347488, -0.015365636365499043, 0.3252696565941669, 0.17625691838456564, -0.2248477567479501, -0.08766377540077028, 0.09699977910678373, 0.4507103513322143, -0.1404926913523592, -0.4256765458875891, -0.032484515684109164, 0.4940644481674695, -0.067786537032272, 0.633058340867183, 0.011601852860256596, 1.2680493214808388, -0.25973292238992135, 0.01504962889726934, 0.13567021146883287, 1.0564731384049755, 0.04881282691786473, 0.10130438406953601, -0.18705586313086003, -0.7322277768468435, -0.022834780091691934, -0.4637127362651576, -0.35082910508371457, 0.15906954064453604, -0.33117124391961283, 0.9206449826282297, 0.23008933815845223, 0.5293388941220343, 0.08398176611481444, -1.0594827703960568, 0.278311783594891, -0.4115757323740466, -0.3453678825336394, 0.4665318683158968, 0.8396634277175362, 0.3988608285332576, -0.0798780289958677, -0.06337401421910765, -0.18555974367223702, -0.06651282530665208, -0.31518213984266985, -0.22972567460513182, 1.0301441930050723, -1.338966962249839, -1.7920893396550328, 0.018900664825589934, -0.807353018895272, -0.25895080834584844, 0.22384071384150347, 0.3599157287859054, 0.8525746132246221, 0.17151655491128168, 0.5518196718679709, 0.20388425065511204], [-0.9973306273652627, -1.827187471823004, -0.28561358883826754, 0.21805803478435687, 0.39123753242920833, -0.3108577215937892, 1.9332360424494563, -0.347852107874235, -0.3821009101731658, -0.2525973864763899, -1.2354729348822593, 1.0793644634291408, 0.01011569521369253, 0.7525663551431513, -0.9853178105404247, 0.4627934090966188, -0.07996087218462933, 1.8290626842452573, -0.6456490473951606, -0.20172830090478777, 0.16139930742665776, -0.09633580128743982, 0.47560734359712775, -0.5407260163909391, -0.09733002989020746, 0.8185203977537164, 0.5489122376365274, -0.47642024384987813, 0.8020645785259631, 0.8493623036182658, 2.5313341803754676, -1.8280930100164434, -0.003483559821889505, -0.6207236149502702, 0.4438929196518131, -0.9549504328156538, -0.08531065108775143, 1.5666907956059724, 1.1752290779081003, 2.537640526734557, 1.446069150193267, -0.8676221843415057, 0.1546408747280422, 1.1722639022354138, -0.7485322801644321, -0.015334520908500756, -1.7696024048830383, 0.35015464432391097, -0.8652756925757795, -1.2237190954731876, -2.9874990926324303, -0.07220497877856205, 0.2286134420610431, -1.8628818524360389, 0.4168327109133876, 0.3011494884207601, -1.6227828582813315, 0.23155002378248626, -0.3962634138089452, 0.5550652025285994, 1.1380837578262342, -0.49607261553203413, -2.1438082055346683, -0.27214525619482216], [-0.5633088364664024, -1.404346528743255, -0.47903554088958117, 0.033184186779174285, 0.15191774567186916, -0.019957191346613775, 0.8036072900370669, -0.025718426388471726, 0.05044795312003623, -0.28098092854672646, 0.1250151117425659, -0.36384077446165203, 0.35450326950656447, 1.8109497108607013, 0.1309077471488847, -0.6480018990509656, 0.213140441155325, 0.36629701951315746, -0.0070901025414272945, -0.7265352454076537, 0.26188547114597277, -0.8178683068749192, 0.31593358212052686, -0.6863657712809526, 0.5493679453051974, -0.9103439231140669, -0.12814531021005002, -0.27351053880888065, -0.08266535130011646, 1.69232197754601, 0.1318589946618815, -0.3156793737312462, 0.6374134980181403, 1.8938150205607427, -0.18356006547783352, 0.4443110492420614, -0.22367136059476955, 0.08140388819496482, 0.08666419383181162, 0.08293747950741913, -1.3107843007563993, 1.2143566522814768, 0.6662830707359525, 0.2648081455618368, -0.23367827259166485, 0.52152375144784, 2.331040588944922, -0.04542552406198052, 0.7747461526738704, -0.3466835488381718, 0.25067788916218786, -0.09221016303502085, 0.22789725435830546, 0.1349373044208252, -0.6774663190163307, 0.038667478908646705, 0.8378563508994694, 0.03012908528326173, -0.1509736358315754, 0.2556286371435524, -0.46602721427158605, 0.04892794545912417, 0.23686596491159834, 0.11882112206390615], [-0.6736361817221274, -0.7730458077745321, -0.0030365573322780454, -0.25871448276052367, -0.380339649887716, 0.10544448932048421, 1.0018539806841418, -0.19940981654688525, 0.16107269012385722, -0.16640185609339267, -0.05307493010373261, 0.07471302645638014, 0.0252670180511769, 0.3459787158723814, -0.0099297246118324, -0.510250264238996, -0.29914791205071123, 0.1953217273951591, -0.1390632039136556, 0.3647917052754814, 0.02560143408114724, 0.08154245388933487, -0.25878180183940364, -0.1687505063865717, 0.5473266730058919, 0.07230256638627942, 0.12418258920336347, -0.12975330255458284, 0.08557336281256799, -0.316427152548941, -0.2162767894203317, -0.1624328036676603, 0.19549820183192898, -0.18024845630501274, -0.08644083267638408, 0.6752444691839768, 0.17604582083432999, 0.1736897934311555, -0.0070946367259374565, -0.2364360759405429, 0.3679945306194311, 0.6750534531005445, -0.06393884593709734, 0.07491748268043533, 0.18332443978552024, 0.7619591721705633, 0.3354306383958567, 0.05159963768001552, -0.17234528820920914, -0.07980779589367819, -0.4791544019649487, 0.1760703686276912, 0.6909272512264101, -0.7303436456511575, -1.7222599858772505, 0.3757253380380056, 0.08087566996790373, -0.11114797656097157, 0.10928416245464635, 0.125492271495243, 0.46964092692337633, 0.08601484599333145, 1.5331003975757678, -0.15765589880247946], [0.6643054765987181, -0.9327240288272673, 0.5555417256534088, 0.3118815431355652, 0.4866649898059652, 0.1407717384225288, -0.15624756113775992, 0.32459629211805513, -0.0626289912937571, 0.15976905760743482, 1.5917253771511548, 0.3746479334238534, -0.17800906333583055, -0.42705791026357237, 0.2833959712120418, -1.587016816763858, -0.22487463445402536, 0.33729919955505017, 0.031034078888963604, -1.4529713881553465, -0.16205156003427262, -0.1628366875470351, 0.13942458970349145, -1.7398582332379298, 0.036497544738298866, -1.1397656774610692, -0.4270021337682855, -0.11929664673840809, -0.011602732898855895, 0.007818114228947194, 0.5623934614713405, 0.5783660261985615, -0.39325112055284395, 5.378757904522112, 0.08958264728541807, 0.39171631623949743, 0.12739826451536207, -1.5054320023814232, -0.35719789429713356, 0.5285460114495129, -1.2162488446034638, -0.10075548013490793, 0.10114482655586675, 0.6630362857575572, 0.1882682517319495, -1.1365966817074231, -0.1897069758747169, -0.04853491831479697, -0.384665008882498, -0.38922737094769005, 0.7893320524162983, 0.11616675102882985, -0.07916539568603251, 0.7333627415076245, 0.7979796717985176, -0.2825454914112252, -4.272846307659909, -0.09507364635631341, -0.6326891795020617, -0.16489459456479053, -0.03590346475661221, 0.3517037565397916, -3.566103626872484, -0.15668405497103538], [0.13150466139134992, -0.11742972169678631, -1.00099710325018, 1.0769330867475628, 0.16809794183417076, 0.548953157394277, 1.1042678099341343, -1.0947383052116864, 0.07433828766706581, 0.30396809944492054, 0.05512434431422424, 1.1515252698351253, 0.6964097242034266, 0.071494061965192, -0.007834918941072203, -0.5090915010374897, 0.5156869994358149, 0.8996749189319176, 0.07391402732355412, 0.21752152834139946, -0.25515835802894776, -0.4111054111110778, 1.1020244286116938, -0.8545547619773113, -0.16736352794245749, -1.8946162613939042, -0.3662332428768725, -0.1275542923392086, 0.189405851077971, 1.1619332692094642, 0.6690427609147358, 0.17147323634967515, 0.46161909562595116, 0.0878518597247594, -0.08583689907091056, -0.10777776788337487, -0.3008816148555472, 1.246633680218145, 0.5543129228375442, 1.605873939191422, -0.1576420994245071, -0.7138729689278275, 0.733236632594278, 1.4840489566158084, 0.13207880358928942, -0.7995995833820025, 0.2787860296583364, -0.21614687377719904, -0.24682716805911226, 0.05715287449290006, 0.8089249035253675, -0.612396223609748, -1.5926157421996736, -0.6824155213941111, -0.04765901824638501, -0.5890524099830795, -0.11002743834790361, 0.034108017364186345, 0.006121156340830494, 0.3440395668057285, -0.07012478259546853, -0.8341153463732116, -0.012710307082527132, 0.3142891855844011], [-0.4996680301785195, -0.29965943445786397, -0.17883991326004728, 0.06111075002154589, -0.13639681135665613, 0.3897171147878338, 0.1193860313562526, -0.6066272074745556, -0.22237571628615443, 0.03935568516683029, 0.1895680402040043, 0.3674483295353925, 0.9466137881540435, -0.061774182864171495, 0.3045270870995486, -0.0062076814798451225, -0.28690329291786965, -0.19866478554201958, -0.05467300070277878, 0.2412178138532035, -0.2614414972914675, 0.040965144619969696, -0.15617292156656462, -0.2302887072536628, 0.40146812899699263, 0.4629374143057339, 0.0647708683703947, 0.3085225539307397, 0.05040525399634604, -0.51538882850663, -0.43495763026036915, -0.1480853575586773, -0.05322590401951575, -0.07671437759706243, 0.21973622189356204, 0.3019191487792345, 0.044930042546593864, 0.3635538991915624, 0.1252822770412381, -0.38586942288309695, 0.26457223627849563, 0.31327255152755573, -0.6051605854798421, 0.24145968629187115, -0.31448792340673354, -0.6794399686773344, 0.3039003139674134, -0.005782460110930945, 0.09830657137646412, 0.07371184609054574, -0.23743125583945876, -0.20522844208362553, 0.7704000778392561, -0.7934240753094927, -0.34652064446009007, 0.31914857532198837, 0.18976115633828963, 0.4350132283090776, -0.2059512654303387, 0.03111994094024383, -0.2998526798370465, -0.5461540492043911, 1.7107446061539853, -0.3191951114744242], [0.7083483510237616, -0.7985515176008935, 1.4654019868135306, 0.47259896714365796, -1.3543294985964127, 0.6008220038080153, -0.9591999490876352, -0.0835055883963955, 0.15543788625988675, -0.37259447562922837, 0.42758651895361394, -0.9053178491290601, 0.35320352929238247, -1.6270611195893427, 0.1373043328219049, -0.9245076036128903, 0.347410048503161, -0.7873443228038616, 0.3399022124810597, 0.6193130296745059, 0.04944464131878012, -2.003602161017228, 0.24522202477567762, -0.5387657876214895, 1.7488181565457273, -1.2206133167237214, -1.2480573732458995, 1.0735814500043686, -0.7996567252466087, 1.16259169872201, -0.5760766103386272, 0.667882334333183, 0.4487658549350622, -0.6327275617334366, -0.41740085487616646, -1.2720428145162963, 0.23826759162931985, -0.011890755529855987, -0.43258561210578156, 0.06730458246885923, -0.9575183213581688, 0.8674505427804298, -0.10534604261869206, -0.4867527658003062, 0.2858877805476763, -0.09422616090838538, 1.5872511922381565, 0.19499039560648362, 0.6437325364924393, 1.92811655014764, 1.2961808152471896, -0.5732540630287832, -0.4201882161817304, 0.32052888326281614, 3.0637366084159208, -0.3157467246435343, -0.12885536680537943, 0.9123778370409339, -1.3397134317232944, 0.25517341310101466, -1.5671813708421591, 0.2043913024068651, -0.4429757967042909, 0.1852388133126171], [0.3339863727299138, 1.5406617404502816, 0.06678850602401666, 0.5509386756053857, 0.04804462702100694, -0.2740295252315582, -0.5998325510073772, 0.1457162403219787, -0.03715959330995604, -0.12122678906236833, -0.19057290976513083, 0.29324517409995343, 0.423197737056051, -0.6428706839475435, -0.3074208327232823, 0.45691675767299483, 0.0446522025268833, -0.4231421870561612, -0.14210848095974762, -0.2757385645300304, 0.36349254723317426, -0.8246899597123212, 0.29703466466523054, -0.131342860770846, -0.5390474881871047, -0.24398012609775593, 0.18658429848675348, 0.18106441682836447, 0.4070487591760791, -0.5300113865995255, 0.27032329244656533, 0.3843097394359372, -0.04257402844507279, -0.32306295872305774, -0.08674733387946597, -1.0685290809158734, 0.3811627120746255, -0.34718285426986445, 0.1680356283872465, 0.4308490535532743, -0.40032796332317094, -0.909574858137141, -0.15410744927034542, 0.054913124916408554, -0.548423701229938, -1.6946666289989676, -0.22029099871922694, -0.2589684610652781, -0.02830786358020655, 0.1970494846032015, 0.5456444782010423, -0.26301725886583677, -1.501472642754998, 0.1735061787350498, 1.8046878250378253, -0.19695152624722026, 0.655275052584287, 0.5266000590513169, 0.33098033368953456, -0.4780945836993966, -0.1901458840387997, -0.3226237252322815, 0.4213230593145328, -0.17816969765526183], [1.091597021639164, -0.4215846661868567, 0.22238034230706347, -0.40345737163892814, 0.1301945176398366, 0.2099435841710795, 0.32318030641701917, 0.10987906517501048, -0.14677894349852247, -0.025581498845755987, 0.09094436590002392, 0.2342005444406291, -0.6261329823370057, 0.5789019682698554, 0.01390127265773651, 0.05088349321872338, 0.04227605184701337, 0.6603116643122946, -0.2896060688280255, -0.06316834534738838, -0.40843114963542615, -0.5004638808705044, 0.1450533805025787, -0.21159363255572877, -0.420771156490596, -1.1496496428950762, -0.43482271483942286, 0.1530447330593473, -0.0414862190926307, 0.5737684768364272, 0.5083867268759256, 0.13326374206502403, 0.020745538173077678, -0.6405897956479776, 0.00935482273947372, -0.15376291062372757, -0.25012795514980224, 0.0658071668020898, 0.07760580150928331, 0.6185350463217044, -0.4422516534045025, -0.543836473938038, 0.057658554100953205, 0.03389274527205965, 0.786770245285036, 0.46818068770255244, -0.1910765170240919, 0.10009316740049232, -0.20663253239895138, -0.3141531034326568, 0.09967681560976822, 0.3317911360427519, -0.20001032518728987, 0.68636448584014, 1.6054302811119625, 0.27781096347709894, -0.6762290072275116, -0.3864653831570402, 0.1490342384851706, 0.11667055597708216, 0.09444551122397474, 0.29442213180043336, -1.8573281798257057, 0.2094626327557843], [-0.3656464828736695, 1.3229691502256558, 0.04469913125461553, 0.22346138646066335, -0.16433294784404676, -0.16581369508379934, -0.24503748066693, 0.12746487428363185, 0.20218263089486657, -0.03332089504810061, -0.3570689260918989, -0.21625812981653453, 0.5300775182654481, -0.10112370590441042, -0.4558858985570548, 1.5589478664020708, 0.06059935800856501, -0.12200285689861767, -0.0885351617343858, 0.4109573039024283, 0.14589640431974518, -0.41822473840344904, -0.038415763308378204, 0.6639068029887291, -0.5225162568142157, -0.20659505968117833, 0.18189758856885893, -0.0034193498883126135, 0.34171951274084433, -0.2709312585622725, 0.17023121649571696, 0.5161685619614141, -0.061100772408132574, -1.2192864413193316, 0.029432002012984237, -0.18316379150060436, 0.17399600364078258, -0.0912856608293561, 0.0017510407991227057, 0.1305591975243673, 0.11434324991996156, -0.3657502308669234, 0.39713380829061196, -0.2901290861744718, -0.4777670968382958, -0.11918726568739657, 0.45387503423401987, -0.30030985965509854, 0.2672029849788645, 0.3166358080217572, -0.14937571762058507, 0.14028102440046686, -0.901582582606898, 0.5755541342203027, -0.4524088450391689, -0.024243985524466258, 2.0884357940441274, 0.30286511548981904, 0.6011624714179276, -0.03988871287666438, 0.03987140166705533, -0.03469314650137201, 1.1044503183109986, 0.01314639946002785], [0.2831395461782193, -1.074566066558233, -0.10704501344028745, 0.4851557042939013, -1.4349990910394481, 0.13137336538959532, -0.20315451869579465, -0.03374030028839236, 0.0020394746198364403, -0.1821009574770338, 0.024178358088539968, -0.4714871085028353, 0.535695964952938, -0.4099161653326919, 0.251792301876666, -0.19314756140966544, 0.21867924462763297, -1.3088100873393025, 0.560467049681975, 0.5471526476331571, 0.17692760293933524, -0.5693274304515498, 0.043127986998566056, -0.005917297552622047, 1.9405623924203796, 0.18712575565887418, -0.10049372429038052, -0.003739618197781613, 0.08409481305159039, 0.46936387248282746, -0.11079937520628239, 0.2803285339494192, 0.36434274236829683, 0.6744915121585098, -0.12537654283500727, -0.15360520960483137, 0.18199175039211415, -0.1804714324517151, -0.0923482944666801, 0.2628592917523167, -0.05872975905324899, 0.6376061822847134, 0.0681440565728597, -0.2477904133221489, -0.2562110177899922, 0.5413842578233222, 0.9819282872246163, 0.0037552236986316528, 0.747666531381988, -0.27268260200621564, 0.18335286325426015, -0.5029921023035726, -0.0030253082727184073, 0.11675170352169612, -0.6124585559443609, -0.09966117285433096, 0.3930889714556052, 0.7456496705653376, -1.2515421879112236, 0.07618020041591689, -0.2914452081059872, -0.019861362352305813, 1.1122710365866133, 0.08644427239155704], [-0.4268282982285168, -0.4316608785834425, -0.14233734067057488, -0.3675170411267072, 0.30062065216559497, -0.15063579423806492, -1.0438054114873379, 0.013345274460548784, 0.29816462017366846, 0.17058619262763763, -0.11861286181681582, -0.03334382245958262, -0.028412188884182555, 1.0370810708120142, 0.389295299901586, 0.7938539543874273, 0.07924146555333646, -0.9962511421419307, 0.015785412469204813, -1.161709814018747, -0.13119854173444415, 0.3811893026651521, -0.31770794552862963, 0.5921022832972528, -0.5913477004887938, 0.4097910819218981, 0.5774795006622814, 0.20987497498458862, -0.12114558071576345, 0.470094749184115, -0.11159213598125019, -0.3984754331497558, 0.19994694945508243, 0.21401542202683393, 0.08708452388029396, 0.567200835341848, -0.23129235770536835, 0.25223274369992205, 0.16204761339564544, -0.5019043973591838, 0.28997518244701587, 0.1588347526399927, 0.2525249721178413, -0.06557214926559211, -0.09542767036590914, 0.8474108255327644, 0.8114203207024292, 0.05295534585900438, 0.6000075813387142, 0.18501958321928455, -0.6503488294973395, 0.3114165241576661, 0.7143287160832925, 0.6226080433226897, -0.6888195330972442, 0.02822724747509242, 1.0799216348824998, -0.20722051895036894, 0.4105451270101611, -0.33130440800395844, -0.10393388073029032, 0.04766473979333338, 0.798308822194264, 0.06058620857883882], [0.6144508024593869, 0.046502708695498565, 0.4363939303827244, 0.4186922413609617, 1.14809653856115, -0.29225172685427186, -2.664961410234663, -0.07581664040527697, -0.07220500972191908, 0.5042473262242918, -0.2634810262706449, 0.12195028580954174, 0.4496597961862533, -0.08835465444911553, 0.35018657792495156, 0.758290495087557, -0.28132361655632165, -2.936499814146473, -0.03448498084767419, -2.6896541297309238, 0.3928693789241333, 0.4087312562765132, 0.08600895371837855, 0.4664438807548323, -0.8065385595580032, 1.1691370480772252, 0.5282965061248316, -0.48580587480719095, -0.11628560195782955, -0.6450673683253185, 0.5140057543455392, 0.16098214442300463, -0.5258543669539695, 2.0646723299004925, 0.22401661162601727, 0.44072966814200715, -0.012515599169660697, -0.67867310723411, -0.2228972391595131, -0.5333502012965099, 0.7500393775311414, -0.7391601956904096, 0.15154798187746513, -0.1101094066638076, -0.5017351164253422, 0.3911816206956046, -1.5372959236686607, 0.17590650209721742, 0.7286403857238478, 0.09321569831571105, -0.37386748718126284, -0.3137415297001253, 0.5373408721418209, 1.2891899468051053, 0.5991509377100327, 0.013858012714469391, -0.17975842800977168, -0.20496384860655295, -0.3163567465206814, -0.8953455082954371, 1.1853291102026333, -0.2248405211774471, -0.7924694368057038, 0.11283244545440226], [0.35410771940149727, 0.3263319463305361, 0.6960942391352899, -0.5358499760559484, -0.16050942899670875, -0.26156867849225135, 0.21075328564335558, -0.531310638538946, 0.09046882177575286, 0.30875399616840876, -0.7698757945218958, -0.05156127532126854, -0.4721703920866934, 0.2595757775705198, -0.0924467845103858, -0.19852326474662366, -0.19557949522117016, -0.23744626187900286, -0.13920323098221046, 0.2707057678187776, -0.0563550633341603, -0.28721934193400095, -0.2980988731395449, 0.17821933563296308, 0.1351113169543375, -0.3738896086553829, 0.0691620229480539, 0.2555253599146599, -0.004306546777885089, -0.9356467682535622, -0.3689903878757301, 0.2690266488970857, -0.44595672754065535, -0.6413535211556339, -0.025410202276827637, 0.47196763613053777, 0.21763857066767725, -0.21901534087445482, -0.08979202121523014, -0.37553087946828884, 0.6670838331495508, 0.24001045461594, -1.120443550327681, -0.7772119496981325, 0.24633760600873664, 0.5602561369257077, -0.5310730176074229, -0.07312634679252007, -0.08591237699803717, 0.32268293839519696, -0.4388525253412142, 0.3434617214180483, 0.8748479243361441, -0.2584126820048792, 0.04249405961449441, 0.6876976871540876, -0.5766311216224502, -0.2107756916604986, 0.4976439992881802, 0.026684421878556255, 0.2580111580969853, 0.0938001580579032, 0.12103660642754031, -0.0978714260060165], [-0.27792203614994176, 0.5633598354178636, -0.1743361985754941, 0.22444876066850056, -0.3405338018957908, 0.08429092161927468, -0.03201880060364233, 0.18117233677234731, -0.31069856073742735, -0.09165806172540002, 0.019028244643455216, -0.3968665022996383, 0.796467071611698, 0.5403962559735507, 0.08223632619071575, -0.13372810169413718, 0.044212988799250355, -0.803423595259195, 0.1277678096917423, -0.4059038446129169, 0.14478207755626474, -0.22832385004358285, 0.12050516035147214, -0.056854072696398736, 0.3505242035637474, -0.5017840346810474, 0.2548706644397679, 0.19013337068416095, -0.04621129721740829, 0.26274987196653754, -0.014613262676440412, -0.017559999714712705, 0.2207450510131613, -0.2601620360819866, -0.09482667408203727, -0.47490461976809545, 0.4216240036184644, 0.36721126155210765, 0.009378844748212791, -0.2903335942229491, 0.5074731350008038, 0.24817177547010363, -0.3652813843661546, -0.09499815825118893, -0.7044392935380381, -0.8545052553285886, 0.5061592146933718, 0.030830245072808828, 0.36210198217216316, -0.1382613952284534, 0.10297294709497352, -0.27644115221486426, -0.36942298213680175, -0.401205789021745, 1.2754166712633612, 0.26956056129280764, 0.9644181887300546, 0.6806064640921449, -0.2532728384040993, 0.19608465170334247, -0.8989140284597359, -0.12591488846352422, 1.1089526164630215, -0.133129841693593], [-0.5703612965373157, 0.8627052959512447, -0.5655599845530987, 0.6220388179980549, -0.11186393512262488, -0.055631204078176684, -0.4139259519046541, 0.431856495294046, 0.1653290128898899, -0.06119027850334611, 0.34602624925021724, -0.1749414938705305, 0.42785388942293623, -0.698329615021971, -0.19648115736548596, 0.7054979893708762, 0.32097371775789146, -0.0828892871301609, -0.03314610790829259, -0.08331675893426088, 0.15257871564686354, 0.46704640333198816, 0.37481833485131233, 0.34502412651629955, -0.1724625361752837, 1.1478936299904337, 0.2007344265472751, -0.3213917972102089, 0.4423463557588317, -0.04435077436125842, -0.031791985712164676, -0.12252758979313022, 0.32227232325403316, -0.35400306448138574, -0.20298532788771909, -0.35605751227447746, -0.11269595224527292, 0.5263109118066459, -0.03979206329352871, -0.1589188609766225, -0.5973385158400415, -0.32324420558872047, 0.3236743250586755, 0.36969555886716354, -0.10441916865120131, -0.6816518393845157, 0.26939542364672936, -0.16870540539899956, 0.324437194417442, 0.011924880386856539, -0.10309548156508835, -0.14187577909232238, -0.6961239694014708, -0.13594777402320044, 0.010870457611912547, -0.39189820201727316, 0.6908847184626025, 0.23477003442011737, -0.04241160981240616, 0.008055139596639909, 0.01805361462938059, 0.5275733137858596, 1.246213275360735, 0.11162114737115428], [-0.3126185702611181, 0.05554848793958339, 0.1236460274441621, -0.09113959812539384, -0.3069345556239075, 0.2700458507736361, 0.1455675580118124, -0.23510468692364367, -0.4781673260291174, -0.05414455614457642, 0.07290777114553616, 0.3248568376123014, -0.483475898788552, -0.18685079191131612, -0.33922242991110424, -0.1954549758233954, 0.062250063608848355, 0.4635072486808007, -0.3584713475117714, 0.7332752872583487, -0.2518543115765283, 0.6926786903756356, -0.04378624299180931, 0.40967423325853836, 0.2438902195190347, 0.12764930776789504, 0.24742343056560526, 0.719970031711829, 0.07245803076086597, -0.9048709414610009, -0.024574832632583483, -0.21984436007336752, -0.1839464642608453, -1.8043907015842355, 0.6478345799954952, -0.5457029873126583, 0.42008877099096553, 0.44782132184528245, 0.24043142764866615, -0.5666785520915832, 5.56489224191858, -0.3978412615257021, -0.3947654693207998, -0.00988452634780573, -0.3062424727345841, -0.0027358323725087605, -1.4467031297160027, 0.07076159927967421, -1.1286101582010928, -0.08153719813906203, -0.645116125255223, 0.264174490838212, 0.6062427022900088, -1.658170399937568, 1.979913517384464, 0.5725934310963239, -0.8078173575015285, 0.21944614081097166, -0.08642190959422069, 0.8128110092276506, -0.009981229553994027, -0.04469949005655662, -0.9922417069655496, -0.3295522534029196], [0.33543808266844266, -0.8652063763871027, 0.4631339789408609, -0.22796057361318792, -1.0559180897705938, -0.04318717223138248, 0.09342578128399515, -0.05555043821077504, 0.004258512633322077, -0.32293416751319637, -0.9783777922994875, -0.30543344402121453, 0.06371213080425896, 0.09388618276279753, 0.3138033217531825, 1.1947921034581974, 0.20708907178433633, -1.0533299494554358, 0.36781382111095057, 1.3634306710454998, 0.23039677492966334, -0.0775240394465086, -0.20248087983622295, 1.4671709947947549, 0.5699885504880157, 1.412520809788905, -0.6000261873155026, 0.14660762111203657, -0.042572946740736764, -0.1243896995912191, 0.17615541463947382, -0.2062300833213852, -0.13312918305251345, -0.9985114120650678, -0.2513688327817935, 0.2905490609277006, -0.11952266766460012, -0.1419039343123387, 0.1381905661837924, -0.036882232422005945, 1.0991830485250689, -0.18661578630069592, -0.04934012612863407, 0.014418975197295375, 0.5322064863886627, 2.5900638705677794, -1.3346073071629017, 0.2598806058116959, 0.10058154121147107, 0.06424669187593593, -1.6190525086959393, -0.08773807715714532, 0.8164978273744269, -0.33405284987490347, -0.7150641083755912, 0.2786783871181936, -0.24909563588226796, 0.006817636560971005, -0.04729630355449902, -0.37549112020210734, 1.6509142190972548, 0.13116992002401087, -0.667926754706295, 0.3185346039486437], [-0.29345000000445265, -0.04403471000685929, -0.02569896668294366, 0.011311409051735737, -0.47081420567575677, 0.27035556304319575, -0.050697275013093554, -0.042460756747559635, 0.31114612911251127, 0.2572736630976738, -0.5462523775262956, -0.35871728401274827, 0.6683266208165755, 0.09918926352079283, 0.3055235189362259, -0.33246549487452115, -0.037280581572311136, -0.5587392252942696, 0.32073835746126267, 0.6227066558201475, 0.14960327000690876, 0.06948185612592114, 0.12597309531549078, 0.007391927256802682, 0.7643354582361225, 1.0902145366057854, 0.03867152530866774, -0.018296075904353143, -0.05549572367168704, -0.5995747098280794, 0.19272816149515606, 0.09795276477960937, -0.01032257216353567, 0.15360188811048403, -0.15517241525409925, 0.7371413517557556, 0.26509117571680946, 0.2882123390267082, -0.25386175294271224, -0.8064396044110109, 0.8628157325206607, 0.2842325848808097, -0.5832930823233087, 0.2726535160983396, 0.3512565137701182, 0.7449158409847524, -0.188978573608213, 0.2465037069571997, 0.3677589434806422, -0.3591801407865392, -0.48721884368714524, -0.2656455318558254, 1.3658736710371286, -0.9054974238338425, -1.2930165823965707, 0.24444584483862836, -0.22961198440663205, 0.05995362738824941, -0.16521125811760812, -0.007310275156485714, 0.8555908473163203, 0.3313731638979243, 1.9716059402564972, -0.11528507996772365], [0.8603277382644895, -0.8576190995370417, 0.33609857874054966, -0.23206270184815636, -0.36866036664684765, -0.05465823965022292, 0.19292938479572025, -0.18546668505969216, -0.09955003142639643, -0.19560091269683552, -0.2973229952156381, 0.17480633822808353, -0.5175510017745265, 0.48842882953185485, 0.3610640805141222, 0.4470356937019537, 0.014757315933868781, 0.3315009589475574, -0.3196689364420434, 0.7033428141111566, 0.018978187544306833, -0.4169976243624107, 0.08050187269281438, 0.4335078743272522, -0.1653121329877765, -1.075454715815949, -0.6793252379618533, 0.3279538530886293, -0.11476674907671765, 0.8846808637114691, -0.01431917331487643, 0.00984472049884936, 0.07481273943595025, -1.7511666301325584, 0.20148642910245787, -0.316983391303655, 0.17680533341676385, -0.16208322071804676, 0.16801630717556265, 0.758322449583361, 0.2653611574998377, -0.5317019095732287, 0.14650741175440488, -0.17010635462612161, 0.5703079144876068, 1.229136913580299, 0.254996655988289, -0.24614427154405458, -0.36130286539152145, 0.3167356780546905, -0.4211158188474478, 0.09612338399801484, -0.07123133453564673, 0.8843758965054338, 0.8036835067840052, 0.012809099212124227, -0.05175175988737257, -0.07073957312261045, 0.29791039777804235, -0.06799104686543006, 0.15333999799493286, -0.03302218524763514, -1.8012046589542907, 0.013704160689714901], [-0.12122885401341583, 1.2720560183099783, 0.20743618343896414, 0.1403537882903733, -0.19703898675776566, -0.2351640905117081, -1.2824281113064384, 0.20634627509747494, 0.13861011337365647, -0.31212411500454573, -0.6800580795833335, -0.061070986895005466, 0.46851127812635207, 0.013090133364120377, 0.0762390886527719, 1.7927129158626283, -0.035308560456163575, -1.2500525337675563, 0.5827769609624507, -0.543833594329984, -0.2783290253949927, 0.0851758448622163, 0.023234048576363183, 0.7629395736491335, 0.2751765575497985, 3.218666513091592, 0.8275787914582581, 0.1951728706711572, -0.20755265724836458, -0.4848179095006889, 0.5813258405802485, -0.3372872548350664, 0.09627075135526329, 0.6197691288878197, 0.0912409493497004, -0.24570332915086165, -0.28051140840427197, -0.012771284710461416, 0.2504939666767557, -1.2058136863576707, 0.6890052423468183, 0.1806384033344469, -0.027882999465304294, 0.0077380708633115365, -0.39555430252008056, 0.6160587078834746, -0.6114070855303532, 0.0233994908372364, 0.5541340911156156, -0.36931502252798676, -1.7061406148084584, -0.22130536878933402, 1.1770407835493695, -0.336532065695657, 0.4552252456212824, 0.05219898161280024, 0.9831683627829, 0.5011263073368368, -0.2001284512401524, -0.8661573696985968, 1.4766815552143784, -0.13116446078306557, 1.0463368321155069, -0.012123116512434712], [-0.35425460270852327, -0.8395406642766965, -0.07206706068675797, 0.23684884784865068, 0.2571289141292953, 0.1741380352240256, -1.0549424033950463, 0.18406606181706006, -0.2317102229096365, -0.1367511293124596, 0.1749949188938903, -0.12128285523392199, 0.012585608256879934, -0.36026534152449685, -0.05770305685431262, -0.1290136558246075, -0.19633958020784512, -0.5752686940880785, 0.17711815343189002, -0.7928550042953704, -0.21375558822593738, 1.6576046609499921, -0.2635648213776357, 0.06944769505409946, 0.8125226774978476, 1.1284249865219034, 0.8398963542965822, -0.5672642139203269, 0.2458899190824028, -0.04948513391962935, -0.04305224833928036, -0.20738394581937356, 0.0747277745842601, 0.8496119977614999, -0.0276227094937647, 0.16609873699229094, -0.2453754347555834, 0.1777156104887758, -0.2154762579715792, -0.337723442179903, 0.3844837043785301, 0.15164266470782387, 0.43347666985254296, 0.1683402923548973, -0.3138452591908559, 0.30073919828215706, 0.12365674859900497, 0.3354194040089, 0.4505098867944283, -0.18344134215345578, -0.07757974438999272, -0.3235580115075628, 0.5660462643228956, -0.445695559244683, -0.48738259763055913, 0.1440918166906174, -0.007957056657283548, 0.22324631313821058, -0.7468767755291305, 0.5676472830017887, -0.2917733011375807, -0.014905515690656132, 0.47577695039713874, 0.21666260335726165], [-0.8348479754436701, -0.7860754788286893, -0.3771674554016317, 0.002338745156400563, 1.1423771027445222, -0.1457702175307985, -0.8972187150060594, -0.11748527896435922, -0.14818335214038614, 0.00496089399336636, 0.2751067446844981, 0.04600879393153611, 0.19964455615557458, 0.4949972372187019, -0.08458155830094671, 1.2565249575320856, 0.1278091831887973, 0.010430902322205879, -0.24768682887462093, -1.3816618740418414, 0.356246922984294, 0.6429881732270247, -0.21899065653163385, 0.2652650395952838, -0.8784713091578263, 0.6607954813927253, 1.1149268001512145, -0.4851986112669053, -0.22241041055190386, 0.8084915888400166, -0.019245796920206892, -0.10777124932412184, 0.4163220992730975, 1.0858588107348373, 0.18183384838791775, 0.30169905115672474, -0.138098317150144, 0.33827547649055023, -0.11750563484051813, -0.30056370913390024, -0.39202850324017563, 0.0363795290272025, 0.9743042128887996, 0.361471283116333, -0.4866118286464521, 0.5459241731995327, 0.8590316090886172, -0.1202250637372026, 0.633876088226187, 0.7219393936299058, -1.0641096391792764, 0.1371683825752509, 0.2836055152601923, 0.8581997795685702, -0.8217821928855309, -0.35960069149068513, 1.3638740333248252, -0.3247682937430302, 0.06937323087946638, 0.22731258920860226, 0.2515274834327811, 0.14423050983268978, 0.12375341771336164, 0.19744243846389786], [0.24819635687859393, -2.4082388677996103, 0.6052529162331277, -0.6337663046927646, 0.07127445618023269, 0.04380998286691833, -0.35844042513982505, 0.03939611766788057, -0.1137943986224126, 0.08322127585471749, 0.05400450983066452, -0.4288582926101185, -1.0004749370407875, 0.916362301380904, 0.09031754932911008, 0.370293434668668, 0.1342530722573479, -0.10227795242647, -0.006202286902654481, -0.12917761962699584, -0.23354315131277273, -0.19742063763631176, -0.47811530729044416, 0.38214377630454194, 0.16462380346289568, -1.3293636396863733, -0.1632601503204372, -0.06752697285353118, -0.22226013611493692, 0.9804836845081433, -0.21483257675011752, -0.3660845814553069, -0.03320118553859465, -0.37398582059063434, 0.17790524644007397, 0.6155926418797475, -0.2817868996401719, 0.060833433554350114, -0.2680898889405651, -0.25873284357853743, 0.027820687801409026, 0.5158742410994042, 0.7305363191583215, -0.9635678478251537, 0.7885060017868789, 1.6910253539631386, 0.4057878922634782, 0.05904607132101656, 0.23713578477303693, 0.1762461115316694, -0.7779056352270318, 0.186902230152319, 1.7422061091921588, 1.212777809614155, -0.14250996464211516, 0.23774566065854247, 0.14046225022767495, -0.29626601965536115, 0.08244191030171893, 0.16151340793317542, 0.1003429379846919, 0.5022007363439512, -1.845404248776073, -0.16538760507356398], [-0.18311213084289257, 0.21851185270978513, 0.36950895997142874, 0.2423919582563892, -0.0800795427662312, -0.06521286148287239, 0.2503933807863647, 0.3257540918975466, -0.09208373578427305, -0.1202974926148961, 0.3079217865612593, -0.09696327238834046, 0.5483536196924839, -0.002516519534055818, -0.13556321827485798, -0.5123416178516234, 0.20092097372336223, -0.009998301494337567, -0.03743800684665917, -0.4438854650441889, 0.3720614061777172, -0.5717230411584064, 0.21739120858811917, -0.44491391873341546, 0.4968398944557492, -0.06875603997957619, 0.006988493662591451, -0.2741670874631797, 0.299710096657701, 0.261488248504718, 0.10586015972352558, 0.14861261482126525, 0.09139026877847414, 1.852618230271538, -0.36118819300256594, 0.13372029422678275, 0.21215438345438753, -0.3543440497024254, -0.08836116459816709, -0.15547888653897962, -0.9888639021558027, 0.5200998599577454, 0.030606369667266084, -0.03284970749480303, 0.3676083704942465, -0.5582463458886107, 0.7432695986036784, -0.06865439093223191, 0.43590062567622145, -0.2617724797148808, 0.4793408548414521, -0.2750005227759851, -0.08201016486171712, 0.35082646388783384, -1.0105277880589207, -0.015298395195498887, 0.012011009992308008, -0.21482076488916518, -0.35134270379527943, -0.2736986247730017, 0.10900871005956278, 0.20331405557550206, 0.4577563913430548, 0.22926150834889053], [0.2603690393156222, -1.5146230882123077, -0.8221936431771453, 0.5774037651357995, 0.7664043485243451, -0.1968463029690874, -0.28365715195414803, -0.07926549156249825, 0.1372603302905051, 0.12444999746855821, 0.39399691849523677, 0.44492515887766165, -0.24949818010581007, 0.2001611357132248, 0.13521660722926637, -0.3328197880705061, 0.08131215340345765, 0.32204458572039296, -0.14150200275671962, -1.1435390245732278, -0.15862579128976192, 0.3583992620217811, 0.25928179006200963, -0.42302574865854914, -0.4217354399891543, -0.38221392499351636, -0.10687581018841641, -0.41530550910970604, 0.26955220667119584, 0.7821348029361103, 0.4564200139094465, -0.28707152798854646, 0.16786158621167577, 2.6664806853596135, -0.18846894948842433, 0.23586184460982038, -0.05733988996115823, -0.05449488441913363, 0.3817756038975071, 0.14368069950070128, -0.49843335047741333, 0.08251241033168853, 2.7113655113778203, 0.7782410094553004, -0.12476915916702085, -0.22519064082641768, -0.0034340778666286202, -0.247324331389637, -0.1312589969034783, -0.24984688061720384, 0.1829873876335907, 0.00624513525488861, -0.5914484769755785, 0.8438501857989553, 0.54488371778994, -0.3728161820886217, -0.1663895076521507, 0.20874689069262514, -0.5381872681722476, 0.12571744122019227, -0.7108779521822775, 0.34402437059717716, -2.5287081542690397, 0.25758211775096124], [-1.7346781975085388, 2.1381031618275994, -0.508233890793352, -0.20995685223369723, -0.6089045771765652, 0.11668435270656444, 0.5646899066632086, -0.5332894222285741, 0.22487882316319208, 0.1797244781548188, -0.24849321316713857, 0.2701490344283578, 1.355456992873839, -0.2090162495114665, 0.04640211357277808, 0.02858778131596867, 0.1328790420134078, -0.21416100496438076, 0.02434395156485586, 0.37676217274188567, -0.1551052997832785, 0.7367055606595614, 0.015827410228747854, -0.04645336929559053, 0.6305463755996462, 2.3397215009808843, 0.9450176682079916, -0.11068960190591394, -0.41057551942618936, -1.2382311096146053, -0.6960471905499797, -0.7553365408782313, 0.34263437137637287, -2.452933571559485, -0.0967157570012991, -0.24078788578462634, 0.07082653067658029, 1.4017022175765024, 0.19474096257355386, -1.8911006568778692, 0.2645321907881556, 0.5640353640584946, -0.8062377171578973, 0.08352658804026465, -0.4990138905333453, -0.7530580253651249, 0.37703101627556707, -0.0141118081627488, 0.37445338835308123, 0.022631081092822383, -0.8490623425473683, -0.29217053654932873, 1.3798205202624192, -1.6139654309505265, -1.0908571862205747, 0.3417047986937684, 2.556525229148062, 0.09692520249841079, 0.381226559694077, -0.18386602680322256, 0.4302611082921883, -0.6235076636411649, 4.914375694173443, -0.05588091820841593], [-0.7225173964316577, 1.7567646762443958, -0.19234833677504581, 0.21756893713876313, 0.7430775381357367, -0.09414302369314466, -0.8989354996096521, -0.03612404464074034, -0.020295884228034057, 0.1199151863598234, -0.29611092249419085, 0.3101116491912863, 0.7812363270636058, -0.20749012891239507, -0.08797409686211863, 0.2513189526590538, 0.07062826126607813, -1.1801138867518848, -0.11830037858030511, -1.870362805516386, 0.24347337609491232, -0.672526061979246, -0.1128503996876613, -0.5471093602125129, -1.1203968964073432, 1.115049219164439, 1.3104320752471312, -0.6228991986533798, 0.07585679332645577, -1.1234187484781941, 0.6119503059698627, 0.03598606407939781, -0.17411964260455054, 2.993840995595141, 0.20152005517266855, -0.4464031239892682, 0.1477407394339271, -0.23620493107524276, -0.1858740892957818, -0.3455126836477355, 0.008557669207285849, -0.06849621082770965, -0.4487124475684965, 0.4382703646940059, -1.5703812802884634, -2.8673953238794563, -0.828301718583275, 0.008968950138167975, 0.3868099883103603, 0.8380050363010463, -0.2342665276196714, -0.20446544341023581, -0.8135280607611359, -1.2323784993322164, 0.7640363060063258, 0.1894319803954087, 0.6255670435212011, 0.1829246096471103, 0.03395684772716123, -1.1553472490214698, 1.1391505412429042, -0.5236008453929115, 1.1893205308791113, -0.04993104247146443], [0.2685594361033594, -0.057045324228332084, 1.3775223384114983, 0.8071448376432576, -0.3638022524986564, -0.24438990265070218, -0.42149530813896224, 0.3958835470331583, -0.1729922444937083, -0.3523349420565658, 0.17399927139453022, 0.15690657143291822, 0.5455148201961519, -0.6525238287258377, -0.015282750476667687, -0.21814754365175582, -0.16478577228920904, -0.3393425597616923, -0.009596630684340895, -0.5714282754860932, 0.1654513835299667, -0.6135748066056192, 0.0025916918468868923, -0.4767010118812756, 0.3088834577462917, 1.952333069926772, -0.17928986680038259, 0.017336906019579438, 0.22916245084531828, -1.2235404576112647, 0.06854946299117139, 0.8331339733224248, -0.23441882281515694, 2.949219061601953, 0.03462149155170206, -1.3312531179547982, 0.3445869607897386, -2.2797016875051885, -0.461736636107303, 0.448093209020593, -0.186366581455142, 0.30347881027140167, -2.0178970945127666, -0.3621710101922967, -0.2913746922153754, -0.7281660443211624, -0.9733659355338058, 0.2405022984751025, -0.019399315534996756, -0.06136406016954258, -0.11884150779521516, 0.17565250270549743, 0.062085630232345694, 0.06080702432357064, 1.2781508731013287, 0.04416003656242849, -3.063353024499081, 0.3120479315797288, -1.2582318722892156, -0.5063533536434353, 0.15866258524965013, 0.17718079392673258, -1.6809334088394607, -0.2866744167200995], [0.07156575891497949, -2.300465218176905, 0.23728296177846492, -0.10660806987815723, -0.24832801645601726, 0.21575063719136955, 0.07821342544586869, 0.1051052053920038, -0.0958005541664592, -0.04368333743203247, 0.07224837260490247, 0.08984570717152432, -0.8569698124330024, -0.06726055262187346, -0.14755959941864855, -0.38624970871643066, 0.026312634669187946, 0.7483472288274093, -0.22812534903455267, -0.2990219057017846, -0.491431020734267, 0.12407246343141994, 0.21505146522483073, -0.3570233395152428, 0.6058479467310139, 0.2260639000149473, -0.18284257677635618, -0.044104009706840634, 0.29049647002160345, 0.6352424594491399, 0.38831992990076186, -0.3457394397856465, -0.2456017069729847, 0.2383138936365732, 0.060324466891554275, 0.09295487479419823, -0.41380782459395365, -0.2623372346672652, 0.21692314169547175, 0.06081691095429782, 0.09916257682992054, 0.11918479432812253, 0.2700328400037571, -0.15925749106861004, 0.39315984797302705, 0.6174962825074526, -0.6059807868677553, 0.23287532705143774, -0.5202730163323916, -0.5698241685907551, -0.31476414213768933, -0.02304423202654155, 0.35689137214384425, 0.29114794791286863, 1.25546581897707, 0.11272454055554595, -0.9487337591427818, -0.01174835287086551, -0.7370950255916874, 0.2128519677481079, -0.27364111035777905, 0.22315577783114263, -2.0786833326768743, -0.062231432826893175], [-0.3256205397468972, 0.8862406303857484, -0.1788622820328651, -0.6442159338826877, 0.5965061574555146, -0.05535109548511779, 0.5738474084764802, 0.2269908548578211, 0.21750505477442453, 0.10902518702951139, -0.22751315963133512, 0.06530124714643525, -0.46703248175044043, 0.16328946797290905, 0.19570748987233563, 0.3310692754974421, 0.11776864650405006, 0.9990131700076226, -0.08941018390796485, 1.0770707336675045, -0.34693562305482883, 0.2571977702729266, -0.11183642691388573, 0.29399320423604036, -0.8790852959131127, -0.6182686890454786, -0.38725977336464174, 0.13560421892941266, -0.2665278916357384, -0.6259524729133837, 0.20857255384601223, -0.21102924028641146, -0.07687532716724566, -1.1211796409614212, -0.22474299834721057, 0.6963028324000852, 0.06862271675295614, 0.14184495188937482, -0.06009125556832549, -0.42373496608409406, -0.21115460430391586, -0.5117585663522919, -0.0020911706022688544, 0.23039881294167974, 1.160300125533384, 0.3438027145943521, 0.9238583356614916, -0.18255423669799523, -0.3671370539904716, -0.06617554358750355, 0.21141866033599716, -0.055238234338310654, 0.37761098723578745, -0.060309830817522656, -1.9019469683851447, 0.29408369081200175, 0.4514777200140291, -0.6488193707294051, 0.8470515355666018, -0.1190672183426335, 0.5822478975919818, 0.3137118593545221, 0.48709965612217665, 0.18400362178420335], [-0.18775284749170865, 0.5572620287817042, 0.1283129977871902, -0.6015753778653883, 0.5550202478200845, 0.030539186589940048, -0.33265848987029617, 0.21186871320234937, 0.20744292344896828, 0.2270199110251013, 0.1514106956626413, 0.04362706744943767, -0.6689515796420054, 0.169184100121649, 0.2998802835904313, -0.3196417716792609, 0.03565020627606862, 0.43980736332342557, -0.1452212309103775, 0.028521191380328197, -0.23456841543259424, 0.7618197103260748, -0.3448248111231072, 0.02174240867733258, -0.22495927615757288, 0.6286880780510363, 0.20528557242952747, -0.04254710218979316, -0.3890935295668733, -0.9220888249402556, 0.10299614485858644, -0.27175542358223237, -0.24214749030780244, -0.401438084233876, -0.06654852492225426, 0.590067415016661, -0.19366617784752127, 0.2020577174788144, 0.09458089599856666, -0.7896108069786031, 0.10562435893518841, -0.6282948915744269, -0.33060508899598956, 0.22814486333280012, 0.8144041914365728, 0.18535710158605562, -0.13691845381623294, 0.0608960564411445, -0.36831883182431135, -0.4779383569310447, -0.2090480259135485, 0.17003573875179623, 0.7857143980615353, -0.48492504607227827, -0.3580509285323067, 0.04343526503934417, -0.5173780943997763, -0.6560394621143582, 0.6376966720666116, 0.2960128438900732, 0.5868432617560213, 0.3620939027195697, -0.125807474894639, 0.2034293641463265], [-0.1876885500228488, -0.20598370994287316, 