{"layers": [{"act": "tanh", "type": "gcn", "W": [[-0.15220701718422033, 0.37778965556824545, 0.5425743118629487, -0.31246912527462084], [0.05206909491992185, 0.0033554172919004997, 0.2290231437309495, -1.2368919388204342], [0.05825005073058048, -0.010098337528772613, 0.23755063333988016, 0.6288000307821043], [-0.09747330884767749, 0.4757789872731006, -0.23355671595597224, 0.37920797239941567], [0.1661249189886297, 0.061068316027048306, -0.587479276088111, 0.5165219044441884], [0.07924932924582803, -0.6083601507449354, 0.04560991771957395, 0.42821149708001865], [-0.032185181708237545, 0.04333743356295292, -0.08592750359377678, -0.4619711647836496], [-0.001291389793087575, 0.8867837901195161, -0.7271717747423654, 0.01039391753296365], [-0.004805751237810949, -0.6530106534880936, 0.3286505593503214, 0.6498616433782193], [-0.1576044778272216, -0.4818917881097825, -0.1629136007448816, 0.837763375500923], [-0.46805062132778086, -1.1527207654025067, 0.046757492137091065, -0.7607419081935531], [-0.09671616446289168, 0.8292774707011142, -0.3105839964986204, 0.6098051507253587], [-0.27224785886693936, -0.0906337828348593, 0.7904025870718415, 0.41979306977510134], [-0.23990498050178807, 0.191564025645199, 0.9651490790230239, -0.14396152808332197], [-0.2087641023074431, 0.21444342632426522, 0.7304510616509103, 0.5747029515792847], [-0.015100148554668798, -0.5261574423729602, 1.0606367253792923, -0.5100506315522724], [0.08260975444480634, -0.5587281036088456, 0.4624671684868024, -0.9825401619699518], [-0.09403928792595188, 0.5870766609697016, -0.05732401444483853, 0.21291929609935023], [-0.46960112957746186, -3.281247700592461, 1.0338657184063245, -2.7309647740588723], [-0.2538788382787843, -0.8147330895770558, 1.0052839300728391, 0.19425973071438085], [-0.26382675020964275, -0.3805311519190461, 1.0129373225079714, 0.20912736668434684], [0.19613906531231054, -0.43231353959617974, -0.2515009501047104, -0.36081725685319094], [-0.37739915745782, -0.6760847052029226, 0.10269708387085791, -0.44503859781231764], [-0.4578046300398775, -1.8526282827504457, -0.1712754959271558, 1.0629413384165627], [-0.3560552016244085, -1.0262678579280728, -0.8427474880757401, 1.507287119173425], [-0.21868678793936047, 0.06464638939185602, 0.6368124214360215, 0.06592005336771485], [0.09036306891798646, -0.6290452037478466, 0.22939719628833366, -0.45392791891685175], [0.12073754387730039, -0.2931676757794079, -0.5157950383667823, 1.1140257862150944], [-0.3145445588516206, -1.0859481818165422, -0.11989892184223687, 1.8892990525014497], [-0.3241828567381787, -1.0590643678594793, 0.010631930201205463, 0.9987616183343503], [-0.03320672985480168, -0.3557346639713739, 0.9812113256667087, 0.0370841272540667], [0.15243276348460721, 1.0188104128857192, -0.7163637138887358, 0.17560214639891894]], "b": [0.2044366779967178, -0.14448977396048787, -0.11088414984301201, 0.2167937839398817, -0.5003767518211482, -0.21576301801212222, 0.09225686135512766, -0.0971675638294292, 0.11246395413960973, 0.2600255698315927, -0.06825769436188088, 0.27032755856744356, 0.21341924369983134, 0.4711346398009883, 0.235314834865368, 0.20112538918265774, -0.24657610903961236, 0.1641164950291691, 0.42833590637071517, 0.5557425501849431, 0.39682634866023997, -0.5849579164205835, 0.09246916316814942, 0.25510540530434805, 0.2618524367609483, 0.4631596658668664, -0.22411285331481007, -0.1619126468584745, 0.29531412753131503, 0.1247097370225326, 0.18355146148573762, -0.31525151634163456]}, {"act": "tanh", "type": "gcn", "W": [[-0.3220465026703991, -0.3095431419465113, -0.015666439044652147, -0.12972726415029529, 0.27595790399558984, 0.13732620890885414, -0.16346890726089097, 0.2983090781924644, -0.0652372641499645, 0.19137742621459794, -0.19267377303344127, 0.21673742730161696, 0.2986833567119219, -0.03069873188999088, 0.31309086803308356, -0.8049670689751707, -0.32935774004543583, 0.37232387266853434, -0.24026894712981872, 0.04261733718152495, 0.32039951784792176, -0.11229112806183188, 0.02992361017537536, -0.10583098221784493, 0.011530044997971693, -0.24109378392762387, -0.3439231571359951, 0.10535626166303066, 0.2727637133738005, -0.00859361479992473, -0.2307977300721326, -0.24769609385410038], [-0.2180535370006496, 0.11994543758909627, 0.21847580117607207, 0.020798821681704653, 0.26195186078813953, 0.004475969505052761, 0.026723629417495467, -0.6070568517624703, 0.1540220126834966, 0.10541941766515896, 0.08538059191399275, -0.13046568091354033, 0.13630067239355334, -0.07852912852626864, 0.07008571507990402, 0.5001262228868039, 0.11393700538751426, -0.3682536142918707, -0.047420139183935506, -0.3765290245581209, -0.2538741617368705, 0.2780291063307857, 0.23928266594506767, 0.18897646775314597, 0.22769855073804246, 0.1339051529109919, -0.10798477445320857, -0.09900351549890264, 0.22256322249399332, 0.21533687953567643, 0.42318745418571235, 0.11086334071995531], [0.5037664051044556, -0.09986628817241516, 0.18010165125688438, 0.054553213905073984, -0.326641742419802, 0.03215475834360807, -0.28401074200122634, -0.3761677694452945, 0.22109102768061784, -0.01317623924914912, -0.3097666894801301, -0.15504841713160714, -0.03195227704249061, 0.03823505999909406, 0.17221294742283397, 0.5019575991160369, -0.1525142916450734, 0.38921048989798734, 0.15581811736663373, -0.22088831468272177, -0.2662055432477726, -0.33408109622391785, -0.2941911731081823, -0.2672051762425385, -0.005552566238253884, 0.16180207878445763, -0.3877277176401461, -0.27936722347656406, -0.2870042737473243, -0.254030010589086, 0.18378031482977908, 0.19316950279929196], [-0.25709727548255107, -0.12337571192116503, 0.30808430439125667, -0.3132182575981264, 0.089406822570295, 0.16827892366708272, -0.3339119572644771, -0.415616556922953, 0.2586056748960395, 0.17959588745187874, -0.08321126180164784, -0.5385469868497973, -0.15279019296212493, 0.0009486519195191639, 0.01972423331234823, -0.07551142360759172, 0.4638705605102909, -0.23934777201021673, -0.13245381141431997, 0.18580769874112157, -0.20499326351710337, 0.432329935242361, 0.09019468598689373, -0.04403910430401867, 0.053769493935905396, -0.12736325001732818, 0.2895143866410498, 0.20475566446274204, -0.27576802481840795, -0.20134355557995814, 0.09120684350465147, 0.09770567905488521], [-0.5315821104963305, 0.05660281489832829, 0.03326257360420083, 0.15172010720450105, 0.09883763141064096, 0.2981921801616213, -0.16638451029352572, 0.23301883378055893, 0.11631997415708892, 0.15146644585594968, 0.30866018976592685, 0.2461026077796156, 0.26888396916941015, 0.07859770826553114, -0.26018487264854745, -0.7036075810072517, -0.2730936625571729, -0.08231924013658647, 0.11200491420536093, 0.11225572712357579, 0.017756930820979913, 0.3573434406577985, 0.07356728923961878, 0.3468530382711224, -0.05486991689500278, -0.09559455784894173, 0.08756742254827891, 0.46367957497399787, 0.24455044686210003, 0.29142818315835145, -0.4053536219440421, 0.21986116086421717], [-0.3820428580661085, -0.19855255164262858, 0.08821625223225077, -0.29941276762847807, 0.11753813178929223, 0.19340634132402482, 0.10500735743750955, -0.4667919642431574, 0.48535509024435103, -0.12444988961032519, 0.11585246030219518, -0.2473405051381709, -0.13889926540851696, 0.08510566707208196, -0.21924420860551616, 0.03687290125386014, -0.07701476235825264, -0.21680383601398442, 0.38554205315710494, -0.20604353841799777, -0.04117667486365472, 0.060486224126715636, 0.2916643924620308, -0.087664906687006, 0.1138751768516352, -0.2538409203261471, 0.21803148433657182, 0.5678943722150555, 0.16548595117489384, 0.1614494243994807, 0.18525860270160008, -0.14540479547574342], [0.39660385418569355, -0.04356996154341043, -0.09694270578038351, 0.2824967418302214, 0.22503649275076446, -0.3918070819223242, 0.24519298651663773, -0.035910079241591064, -0.003876028732230551, -0.25803533945377133, -0.04240280350967538, -0.16914168114840514, -0.0020682388804272524, -0.36756899936166837, -0.10307345720981469, 0.15258850501202265, -0.2817597403205097, 0.47135658574652484, 0.17049122906826264, -0.1482777658864124, -0.02915157337061656, 0.046891681491743914, -0.261545964874179, 0.0767035250896998, -0.1695164552153431, -0.23158162884045252, -0.36991587578270785, 0.022637504530182866, 0.19267635291406454, 0.09007159081572427, 0.21201692895757693, -0.23261551202439065], [-0.01479394287601276, -0.039075886658233944, 0.3682170093477445, 0.23019946975538197, 0.023490709310049908, 0.3037752993002105, -0.06270538359901037, -0.4114896200294585, 0.31932119478326987, 0.14688257460462276, -0.09472561447774584, 0.3747135062133968, 0.335447818545119, -0.05711066182793603, -0.14391777958011143, -0.23917011053327167, -0.4061625162740405, 0.016180935353857784, -0.36693319788357054, -0.36167097243921625, 0.22900768537316626, -0.33626001522403004, -0.056608462254793504, 0.0711217052690569, -0.3294871046242679, 0.2788172853600434, -0.28155599104857615, 0.2580127384063446, 0.22104079872867202, 0.17534540162807508, -0.28051027060754874, 0.22621833898112392], [0.061448491801556794, 0.26999229665353225, 0.23863603737541733, -0.08925703535923515, -0.2534070208225925, 0.25197306202804776, 0.1153544894613058, 0.17528457097359862, -0.26653578190321964, -0.1671093719248479, -0.008827311410766866, -0.05068848707098956, -0.07881619092093556, 0.41361500146505953, -0.08948625882846371, -0.1979782463227791, 0.07808618780897242, -0.430672173309047, -0.09748823601866174, 0.25053913970670727, 0.40639020683005433, -0.19378530914884204, -0.287944316432905, -0.31832391765861695, -0.40492490330611236, 0.35810812780031076, 0.22981424169632328, -0.06964149142968759, 0.10818797043398962, -0.0038488173692896154, 0.1282319215997961, -0.3361712028188606], [-0.35091468458307923, 0.0889813381761876, 0.1625308788674594, 0.14152439398552094, 0.23542326115010348, 0.2286171630822736, 0.10183274163456237, -0.4503631674751887, 0.2695467098166107, -0.004585990821953596, 0.3649075639177631, -0.12361893409952451, 0.171452000618154, -0.23145506742884728, 0.2141845846120482, -0.05513260658725834, 0.25982501045365486, -0.018924186491186015, 0.06536175406893212, -0.16836022980464094, -0.2254072871962284, 0.41501158169151975, 0.11836463800690038, 0.0784292413596099, -0.06445966913053669, -0.03830712657650625, 0.3860054990967037, 0.17260811599817416, 0.16873311291913226, 0.05613144975010417, 0.08471114215575154, -0.0330664494579706], [0.12063886327432385, 0.2811534869704837, 0.3707069639732697, -0.27153194351291143, 0.29515339274304664, 0.34126516705670673, -0.34008453483953366, -0.3911087912205067, 0.03892629319732227, 0.1604139943273952, 0.12211344250081654, -0.3535107251343907, 0.24832907551261663, 0.29590192343178123, -0.21349236650845835, 0.17327637677572394, 0.3511162867045595, -0.20880362526497537, -0.24597195637039873, -0.06914263890073886, 0.189593196707403, -0.12368090586285825, -0.10608874884710497, -0.13583700028736553, -0.1919116584013864, -0.23671238007736978, 0.058663048936596296, -0.04455629533295533, -0.31501728139906415, 0.018710152116102222, 0.05469769725303878, -0.2009475090354443], [0.4137503848370829, 0.1050435990616081, -0.0984332254851583, -0.15407647242735834, -0.1526112469652373, 0.0029112493191914093, 0.011650080016385986, -0.5734255965440852, 0.2197018540922944, -0.26144402860447624, -0.02367282554201307, 0.13559141382353143, 0.06707863952245029, 0.026468830741443284, -0.2150473258238292, 1.2690593571435262, -0.09141750829351683, 0.013048880602224247, -0.283959424507481, 0.04194886175668426, -0.1026095019356087, -0.330266203888551, -0.23319342339050983, 0.08789480973991334, -0.10871620749538734, -0.026729069708125695, -0.003964276151947958, -0.3630801043681119, -0.04048078110307969, -0.1373262332952867, 0.45034542311593095, 0.14563980894673326], [-0.09338931325185315, 0.052866204177383656, -0.16083624301941934, 0.002670195417940052, 0.0712370499090437, -0.23473407729698126, 0.17088641772180857, 0.8938076610127027, -0.38913201101205175, 0.02374071388106236, -0.006437884701465166, 0.06544716143617031, 0.22139916247297486, -0.25207868572007847, -0.33885130852595735, -0.5430919777483841, 0.06354044024272586, -0.01524895945205584, -0.29144452443468183, -0.20526926235884266, -0.08886394185669724, 0.27187633102685255, 0.07372402049457603, 0.12184303226995781, 0.1453724566062374, -0.2951382621530807, -0.27980930697360856, -0.3147070135026901, -0.1705168913169298, 0.15258638034051708, -0.1380522180597927, 0.29993095107974826], [-0.16182975124272783, 0.5399761534378019, 0.18821767270947598, -0.40812132615112223, 0.15032389998962006, 0.016973876202263344, -0.116906291771991, 0.02742043917048419, -0.5066436980865691, -0.2946593780281941, 0.28167064889328863, -0.10038734651570354, -0.27093265576402115, -0.24613337024989987, -0.4396164785760966, 0.07713646997780253, 0.5812959768815945, -0.42911441183020266, 0.25797777026892826, -0.013210811454371836, 0.11383338845922082, 0.6723615467808124, -0.1791208795782043, -0.24051173310558577, 0.19490508022534714, -0.18140255474198094, 0.19543772365337053, -0.1322688256651026, -0.024782200497450727, 0.2064028238359343, -0.3973309504427778, 0.060691587362184295], [0.10300579205358254, -0.4088996855152011, 0.134443673547229, 0.2539799814935252, -0.2600413978733047, -0.18584283070653776, 0.024768149947183297, 0.5309297508825416, 0.24272085511899896, -0.02822956322707051, 0.10103521748782804, 0.4582549261214558, 0.26280500371042, 0.0917871917194825, -0.20155983004764005, -0.9015541682208559, -0.4903666581229714, 0.27416998429559714, -0.03284809152300754, -0.025194921455637478, 0.25313240012868105, -0.07862760023219144, -0.15382821921273582, 0.26759089357776517, 0.35038175232606883, -0.0316408357280199, -0.41199204134859474, 0.29723382365796336, -0.17481097581267108, 0.3831776098863498, -0.5385568537504135, 0.12235404772064533], [0.22128709602084912, -0.12884574296339396, -0.12415019775759156, 0.24258351510453746, -0.2042774635259865, -0.3034291971759585, -0.31169814093398346, -0.14889690822304086, -0.03664039567864304, 0.2534485847825392, 0.004250029432392519, 0.12617676530696612, -0.25940032819905107, -0.03645124623489976, -0.23833601221672296, 0.6105774000214342, -0.2137847011107373, 0.08894724710119674, 0.029995219724899505, -0.1166924498183695, -0.3219822177450611, 0.14994561838991222, -0.1566815934046395, -0.21835602816622407, 0.3256973093869238, -0.05005248013317341, -0.32999200634206416, -0.025207805772787504, 0.22902959488484279, 0.051659769391846154, 0.2138662094559278, 0.11816137503034388], [-1.683029021972308, 0.26456806305160974, 0.28691235174569046, -0.03709807027019823, 1.2545690546386268, 0.13945696070951805, -0.11950188744356495, 0.6643826110047949, -0.6291897137260181, -0.2988125928690325, -0.35660178176733176, 0.04774355379372189, -0.5220679222884329, -2.064529975977154, -0.47613201996347104, -0.145754138440222, 0.10959188628707064, -0.22156802323092767, -0.19965172705505713, -1.7031293637198954, -2.829732717004448, 0.6242225702195405, -0.10468629238876706, -0.20603521683256482, -0.26284086549616753, -1.1603364756312693, 0.09342442703891808, 1.1725104429587232, -0.4188177115160349, -0.40568704634657965, -0.6062232133088722, 1.8341412332906843], [-0.2533213081808117, 0.44803735409448064, 0.09479590958124527, -0.3751392936619232, 0.3595016292694108, 0.1274243836071138, -0.06572763342591137, -0.3940903443335051, -0.37467201523690696, 0.006496958426297846, 0.008855873904196567, -0.0030355083537482535, 0.36260900423397596, 0.10475729100529559, -0.2048603949240875, 0.2700900305541548, -0.09732761475384673, -0.5695491218315869, 0.1415496615423298, 0.22734183353445964, 0.3547443915950654, 0.47870492140925996, 0.3017686784917751, 0.1569712798876144, 0.4022077321289609, 0.2956531324048358, 0.37335479714169006, 0.3671945780033223, 0.2824724785107086, 0.2337676582034626, -0.032986908214879505, 0.16471231977801448], [0.7853819253958652, 0.1453714713617033, -0.07873177761435299, 0.3484217111111379, -0.37713729555502146, 0.01514654891137154, -0.11948915000870433, -0.29726287576797883, 0.2931999740991637, -0.09657988221184098, -0.3432172941257528, 0.08835471511219216, 0.21531648316229096, 0.19426244277640806, 0.4015694051485629, 0.781691937802542, 0.1709004466527182, -0.05715979067427844, -0.2869424454086551, 0.2311404958643183, 0.28089693117733805, 0.10122173171243432, -0.04144929709459124, -0.09568184407718656, -0.20639809835331052, 0.4437478358881333, -0.19570934787237954, -0.6168790396674071, 0.32914525472889716, 0.14704505427011208, 0.12929172169488531, -0.19014137600052824], [-0.26446808448168424, 0.15912380044040866, 0.08608055783001421, -0.023502215763543655, 0.024817374860014434, -0.3090410460225924, -0.006564699367250233, 0.624603804787721, -0.3946252813147167, -0.011129023431449727, -0.09028955030000198, -0.4177339828670176, 0.200240661577322, -0.2109755018940976, 0.051422720319396424, -0.6548573587671317, 0.07702344998452729, -0.18832938925154985, 0.3208515277304268, 0.038249666816650346, 0.3088088355899522, 0.11000080201762348, 0.27795725778385155, -0.22584299146408324, 0.19266879467147754, 0.16542403031952355, -0.028821504076586933, 0.22160867909748885, -0.2669526570475927, -0.1864299629474078, -0.5748803843176458, -0.07995509349192975], [0.26556784872447464, 0.23701672069379975, 0.058669449093949166, 0.15127944111527594, -0.039650234482560144, -0.17412371758326403, 0.30569164858004577, -0.430299533624789, -0.19178378314780392, -0.20066289420095487, 0.2960981429568715, -0.03583060957302669, 0.17693295903699682, -0.14699900111024036, -0.03327933371875282, 0.19844202638210717, 0.15855291502453803, 0.31021495796441506, -0.12493714064740202, -0.1446356780266262, -0.20183214520773973, 0.22573724859019698, 0.19011126932465075, -0.27342634623422984, 0.27749845178782767, 0.0967073510304421, -0.10191466588183781, -0.6615535458015775, 0.08629735359451911, -0.25103118145704895, -0.0003224633082311235, 0.27331927290413877], [-0.19549572208897514, 0.30336160574119075, 0.18199176936249048, 0.051473649975885376, 0.2787195482864521, -0.08484504790921249, -0.09090048020699396, -0.06950833497088615, 0.13670770122980216, -0.23066103973852584, -0.34677856827834347, 0.07682510922147961, 0.07705273626125309, 0.259590242070576, -0.024829557593361456, -0.5361510080005737, -0.10516737655944045, -0.1873981560170126, -0.33689380212314857, 0.06927927427856553, -0.2035614064303033, -0.23802072441321728, -0.3499950308768988, -0.26101175051058206, 0.1573282168236834, -0.06154896049799228, -0.25598402345660237, 0.25699769636616554, 0.019255956217636604, -0.23376704388177455, -0.104428767391665, 0.09706868082685474], [-0.2749595906499292, 0.1210319810679837, -0.3208461354469429, -0.23027091636089356, 0.1126120392518185, -0.03466479007792681, 0.2218405912120775, -0.5828639347194126, -0.014239863048168502, -0.24702712457011078, -0.1391906320051842, 0.21596054387363703, -0.3115402700644891, -0.1358050717041752, -0.3128967132349905, 0.4448965500789067, -0.040356811446337335, 0.16303206684093902, 0.3099751646323674, -0.07711485220192593, -0.018683164072024697, 0.2475572428194665, -0.0550833443587939, 0.37466004799013847, -0.12786794200029494, -0.1455550017336469, -0.03990680079512132, -0.370270259168066, 0.30838472783750337, 0.25571293893605473, 0.48553457295430436, -0.03344020032799139], [-0.1367731097586512, -0.02749725697106266, 0.3938233204272954, 0.007980932092427347, -0.25566727317124205, 0.3273524461358425, -0.2916194768633986, -0.15234311580564056, 0.3655580034112006, 0.0845546001204115, -0.017586259549753045, -0.3500669470136608, -0.0805234922240293, -0.246125685838095, 0.14257986576585113, -0.24572943633495345, 0.2938857036633903, -0.10378290250609322, -0.08845624821799171, 0.4114820371746797, 0.1380324254267851, -0.12364187308799765, -0.16860028012890715, -0.22156604604361194, 0.0425588469358798, 0.16116553323801186, 0.4753153860389027, 0.509696428563492, 0.4005386275148142, 0.17758851974528084, -0.23377513193785118, -0.21496471919042545], [-0.47902308556041806, -0.21279705926830836, 0.08534490597407142, -0.32420087878699233, 0.37248505320793135, 0.4578065683512888, -0.13729392764555629, -0.1334572147986621, 0.011703292866510779, -0.11606839930418648, 0.16954947298061532, -0.17725290502390936, 0.04940877356301248, -0.09010636503183944, -0.011438023036981283, -0.08968654268555253, 0.29817079002243935, -0.3729871972887446, 0.26365895477060264, -0.14378040804289252, -0.2670527883812115, 0.22576493335454045, 0.19129258651749106, 0.17115439331862348, 0.037028431987011994, -0.1644897278038156, 0.39758200636307345, 0.2987288091837409, 0.18477455964234746, 0.1088304330399949, 0.12911246065139198, -0.10513944602906274], [0.12722630203802612, -0.09563189649210174, -0.005619761430784969, 0.11519629634603698, 0.4555163682803752, -0.025881386363321567, 0.08728638609971101, 1.137753997381779, -0.5712906427670307, -0.16362922295005178, 0.18105662909489856, -0.04391976082382672, -0.42963428159476436, -0.35318024476875487, -0.00031911195952610393, -0.5559008682241767, -0.06601380528354993, 0.11577196651102427, 0.10275134676376034, -0.3261547674448496, -0.41467138933489445, -0.16403254344381837, -0.035852617254876706, 0.24875319704116275, 0.20678530610281728, 0.028926816362427558, -0.11044509728654549, 0.1274680016901966, 0.19066223240840327, 0.07206910619458172, -0.4049850480978579, 0.5037022338295156], [0.2112881592809559, 0.1532621064067018, -0.23910986485425972, -0.19822007639076947, -0.24593726135961483, -0.05779676114610309, 0.28528293441656627, -0.024091932534698872, 0.13032237001728697, 0.006630706502265323, 0.0987632306444122, -0.37048350247563944, -0.2857948145185482, 0.12086494918092333, 0.2226599228647161, 0.9733269211972764, 0.057697342746393473, 0.1848117754822786, 0.06620500853109057, 0.11529069672974172, -0.37015247041467153, -0.31557514356312544, -0.2880956263450908, 0.13534903733291834, -0.09178207880273104, -0.20046956210518715, 0.2179309012104339, -0.31098361659252494, -0.2687728692624991, 0.05867104054345993, 0.07614569311731229, 0.1670748320919196], [-0.26840534979552466, 0.17847423116877895, 0.22171767546083732, -0.2874606802579045, 0.17211748322850987, 0.11260828072499572, -0.03001013397864895, -0.3463689913838164, 0.33602193406513037, -0.18452135002615086, 0.38983967948453574, -0.4203404416877197, 0.11080978322727114, -0.24276197417510917, -0.33900600249866936, 0.05894066638694638, 0.017675168645511503, -0.21972209521941935, 0.47816860556430485, -0.2503950134277481, 0.06064988528003522, 0.23692113834001496, 0.01898504846455572, 0.3002188199064044, 0.27195484704026013, -0.4185835011710066, -0.012166868000281375, 0.20451571538506844, -0.0983308116304077, 0.15613971966048446, 0.12639621275631707, -0.2559556624377059], [-0.014082195830694514, 0.31187552196189494, 0.1980599588297137, -0.20238557433791302, 0.18661450038014232, 0.4437764829023859, -0.33914557734242434, -0.2951287774386722, -0.19974614010651986, 0.213635879459468, 0.023054843577628503, -0.29491641983275724, 0.13150113435470825, -0.13845552077834208, 0.30652887597790773, -0.2963632965998348, -0.033246218073132675, -0.5064039243862137, 0.23483588523277496, 0.2760374149502392, 0.2762474140920894, -0.11950640726709065, 0.1618182242116775, -0.16761945524083052, -0.20920775384960058, 0.14836442754561335, 0.3818310598194655, 0.3416727971827708, 0.3334889277029384, 0.0678769540602827, -0.17290139845035873, 0.20018497006029254], [-0.5411423030601529, 0.27210743112540337, 0.09172739505112398, -0.022731847580856415, 0.37650606421095756, -0.0995998863660063, 0.07386030115992306, 1.4839313331201947, -0.5438070776374344, 0.14478493550723845, 0.008383809580214577, 0.04733116555199054, -0.23101306831174245, -0.06873514375028056, -0.24283951533297213, -0.9841556055954388, 0.03526677343349744, -0.039098246050275204, -0.08943922716304786, 0.34455705140321125, 0.22843483171570178, 0.1904985489859099, 0.02124159848802596, 0.16877401971493658, -0.005960634341844348, -0.13560437242481496, -0.061629525705475544, 0.21008463503250932, 0.27208423461450043, 0.1713646278225117, -0.9212532017062854, 0.07051572874850537], [-0.3938200204036828, 0.24222941946436638, 0.09722655461710185, -0.29111480448519844, -0.04254554223379893, -0.24890887742628354, -0.2557092595814304, 0.4257077806641033, -0.11182748625766135, -0.12683148596623223, 0.11000313164112553, -0.262999762601452, 0.23276473182732021, 0.1665579006435099, 0.30359058638335423, -0.5431204695318731, 0.34148893313653195, 0.058486676598667256, -0.19594391348486162, -0.13436776760684527, 0.29181185385289105, 0.04042518945486922, 0.1263045871400917, 0.08057413407903212, -0.20998821644816018, 0.3075885026428, 0.20541011019394845, 0.2882822691174323, -0.2225289029045346, 0.17526071736874851, -0.20124516144911553, -0.18279605159748258], [-0.3360767026452083, 0.3277269485127958, 0.2510429669140528, 0.09903803757691232, -0.26690959670557685, 0.32352028702373065, -0.2222373586824057, -0.3182506892402719, 0.3626714638663083, 0.14610477260730562, 0.07262256641833136, -0.4989678568794384, -0.1904218071622037, 0.016043810581615223, 0.20647711078600364, 0.29803203267057987, 0.4398146069145481, -0.03914006145591809, 0.2354800520940538, -0.09705195206244993, -0.3077065144455336, 0.2549769484648257, -0.10141041409936634, 0.024269899584452154, -0.3308932447566147, 0.22834127947886365, 0.5821392846899149, 0.1283317751439553, -0.002641300740755823, 0.2563188650679225, 0.507723964506208, 0.0698721909385124]], "b": [-0.021167274278959595, 0.020407628930237495, 0.05469555057980391, -0.006772774999898136, -0.05193528648412841, -0.020892918524890395, -0.04517541658404668, 0.0545156549915967, 0.1091326234464324, -0.03970955481761725, 0.07747042191026943, 0.12771182166746575, -0.05482872266526084, -0.037571643541607025, -0.08866328220650845, -0.05125295491156656, 0.036050831568969745, 0.00890275706895975, 0.17495002451185943, -0.013357776509926393, -0.036103707476547564, 0.04120332639921277, -0.08101584424024508, 0.02495281511474003, 0.006947069690314072, 0.032111284640867946, 0.04223929885602135, -0.1728699916151472, 0.0918636761911161, -0.038588191587286116, 0.04365738782704098, 0.02728485562124093]}, {"act": "tanh", "type": "gcn", "W": [[0.00552199828762606, 0.1028579454177476, 0.6361718448182804, 0.2710600757374317, -0.6828105612853076, -0.12287811768793346, 0.31071637148611886, 0.1462521206036684, 0.6389185600039747, 0.1914126739820262, 0.17720345655610806, 0.8288028551628664, -0.41436114852982253, 0.15266725541605305, -0.5032107870389113, 0.36657629471230535, 0.36048101126519405, -0.12316098572741763, 0.14924929523064298, -0.3773736094461591, 0.10096300935444373, -0.08454102571396163, 0.06199692946516724, -0.05661957733026061, 0.23921831702284302, -0.14928904991754208, 0.4033217187349435, -0.5419325665600383, -0.20115850628323187, 0.02774956766265004, -0.17956199489498803, 0.3604434674388237], [-0.23916993546864, 0.41337961357032, -0.09376674944005275, 0.10423126702668828, 0.09843380725736992, -0.5429701948971427, 0.31668128016015473, -0.455140655501623, 0.1613107110105393, -0.23953990338724354, -0.23559603982601465, -0.017715072356390717, -0.3194845467323726, -0.26302469623736957, 0.32399907315679033, 0.58015414478261, -0.05428339688598016, -0.19641867135653415, 0.04241313505895474, -0.4148133751455489, 0.2405553092442813, -0.33935805710460853, 0.19237525838203687, -0.13676106354652137, -0.6235827328276865, -0.08598029012683794, -0.12023637123499535, -0.2727401383646985, -0.5574868862567652, -0.4387238285468784, -0.38784610047513846, -0.14581973014783411], [-0.024177472523349033, -0.11028979517534651, -0.17592583568560421, 0.054007871120193195, -0.29178872989932525, -0.12813538598483698, 0.2453250622394535, -0.29853149687591457, 0.22594294544229643, 0.11135931109564541, -0.1510089439806019, 0.2609566767576985, 0.12288359047679127, -0.23295153124604642, 0.1797843731243188, 0.12066589886071792, -0.44830328625888394, -0.17753663518000937, -0.1310669303350927, 0.3287793058541087, -0.19749911587099592, -0.28476263286028336, 0.34043904665387836, 0.020824991308899213, 0.21023532024883806, -0.2570566992839082, 0.2022185171748005, -0.17997955393000925, -0.4245192200186475, 0.2488811410434969, -0.04995252614316169, 0.334673274137431], [-0.2202016547431524, 0.010235675316518962, 0.7025196830534935, 0.13981256233257755, -0.25569718442850636, -0.5157021002824633, 0.05641622462919159, 0.44755498637807556, 0.412761499166694, 0.09162220331869413, 0.07099006040419294, -0.17394793171335832, -0.1521743121823883, 0.41952826095815937, -0.2806300597810263, -0.03763174487497765, 0.36659975731227784, 0.14139622868457707, 0.14701258096410977, 0.204753163053979, -0.2547822389219127, 0.39521762818267964, -0.5618088742690273, -0.06776929828125981, -0.41566839711359066, -0.307343715634774, -0.12242820711902251, -0.5123050023984669, 0.22058822485644763, -0.07680718621587188, 0.07023418022932593, 0.34627522163913665], [0.07460727340695344, 0.3168398639375599, 0.05522074545237853, 0.16038188488317953, 0.43546973630427793, 0.6613648029238978, -0.056124287652264196, 0.507895491925467, -0.2600098596601294, 0.38725169664548365, 0.20575123895613442, -0.13682816434835487, -0.15331690658721983, -0.11566670925407353, 0.30829199724435213, -0.13279480610191335, -0.2045198368055944, 0.10675270271249572, -0.4072821107813067, 0.002196133104326513, -0.2684993985298422, -0.06412799745684594, 0.09218173280652513, 0.5231985090069275, 0.45459677266143533, -0.15839468946584262, -0.3704844090543556, 0.0675480246208594, 0.35323281718750005, -0.022377115769063843, -0.3481154820728952, 0.37523452719646605], [0.050703257175135165, 0.20449678657891182, 0.09431487351030748, 0.035434707327453456, -0.1789823506500857, 0.20588158934936326, -0.3229857192333244, -0.3053964336916968, -0.5845948055010403, 0.24960443886789793, 0.19312397411070903, 0.19770772156492147, -0.04307361136111325, 0.221882309863724, -0.1736154081819271, 0.07250808710359315, -0.6661760583141014, 0.43823729455343613, -0.23324571114968704, -0.07033476053749627, -0.11699537242331592, -0.3792491473780482, -0.20173911543544445, 0.024233859057657695, 0.5746364392606795, 0.07397840068653676, 0.1861784372713038, 0.5345079159702203, 0.4104306484672723, -0.13585514617660466, 0.046841432045862934, 0.03445147423510857], [-0.14972100853298587, -0.6690803157276528, -0.1246874544147054, 0.2387157277714957, 0.0031386108417718033, -0.2908508827622009, -0.16613506110767917, -0.6143269925032522, 0.4193125712694548, -0.1008918269606788, 0.269201882485875, -0.3336279470103187, 0.16840748696517827, 0.44999765614539505, -0.4158628235864656, -0.8297680408317731, 0.12161153257452695, -0.3170744742695785, -0.6612556906699676, 1.02970862391333, -0.1205190061822611, 0.08468943206908136, -0.22667782385450885, -0.1589563776414432, 0.2937600555504902, 0.7080969809383546, -0.16399080739821317, -0.13504327234038502, 0.355465087802199, 0.8798784254344703, 0.8609847432522661, 0.6488898603276166], [0.8730460571451018, -0.1391830587355388, -0.6701536742073516, -0.22789887735008318, 1.0107413311808295, -0.18694989155945999, 0.3939003618323163, 0.08215268909987336, -0.28490787116860017, 0.11919154984758172, -0.4020997078589327, -1.0808893574679461, -0.1960075472270506, -0.2832228378906139, 0.745006144064009, 0.13137019560167132, -0.3069428253066376, 0.05176138415949038, -0.025355106200434494, 0.5144457420720654, 0.009506470862204174, -0.01746010112376778, -0.1353411266077421, -0.016224332226741963, -0.08095484343438196, -0.11896192585412886, -0.5328621942899258, 0.09771076576294492, -0.20743645136571087, 0.17067085902970927, 0.054880064178972676, -0.7009084111356926], [0.10728566107018285, -0.04665285878623488, 0.3013043785954101, -0.11908225129813549, 0.15044642593891389, -0.16158923978798675, 0.34968719239722795, 0.06871585833635943, 0.6614268008800848, -0.3402619282075954, -0.2918213023522582, -0.11983336163637562, -0.03794782412666827, 0.2932640548628661, -0.11033717045709313, -0.12694518797512241, 0.17832461028983437, -0.28408219510921046, 0.28119784072749565, -0.2703973533824168, -0.09896936071393918, 0.17545663191849423, -0.3442475391460011, -0.07446403207739109, -0.026790944121127494, -0.40109327484205326, -0.09352019021803955, -0.5127951880937404, -0.30147002634930253, 0.2660839012160777, -0.2870919447592911, 0.03134735444124143], [-0.31857741323202743, 0.975093271236396, 0.014240390874567225, 0.561446484355509, -0.20802553121504144, 0.647256840539104, 0.1334082424023934, -0.19335302307675353, -0.362190202538862, 0.44694444020137053, 0.3215857576197494, 0.7510628898484129, -0.2705454404260588, 0.1408593345737226, -0.06553909254606985, 0.2171668118150571, -0.12239234758678784, 0.3676506090486906, 0.007867936986347916, -0.7350086949969786, -0.20909934693099616, -0.00307253179498943, 0.971158067879884, 0.6620951168461068, 0.3734069595667752, -0.5110467589589677, 0.5500788779285484, -0.0007931369662913666, 0.25506079579255025, -0.4850347005693383, -0.5405516478922374, 0.2859060561255661], [-0.0720779930852581, -0.3713811285914632, -0.048818300974478535, -0.278035908031801, -0.19102964628194394, -0.42605894833650215, -0.2654795961546872, 0.19962619026296693, 0.1783552339938232, -0.37285049861542485, -0.09465567170845726, 0.2273103917356403, 0.077227148091216, 0.017498407059565787, 0.018171828514313405, 0.016109262299288832, 0.4049364870631236, 0.12607207968523973, 0.4607410654422456, 0.1478673401006398, 0.4372765170409761, -0.06242687150664917, 0.15895186177875525, -0.12248253061779064, -0.523429851140756, -0.1504896400704868, 0.22093237677124591, 0.03952492347392779, -0.030887999849870597, 0.07513952909654105, 0.21081705266472373, -0.06116898152903304], [0.01305849741070254, -0.12763617606221733, 0.07126978276003272, 0.008539583952835458, 0.14577950963672498, -0.09183348201695973, 0.5559499058549159, 0.26460113323413276, -0.4698094781112016, -0.1232438390337891, -0.23084078239210343, 0.23359964919687665, 0.5693856789551943, -0.17406061067517173, 0.11080954853659963, 0.4517177457147223, -0.07464750975692047, -0.363485099186159, -0.30126158255902014, 0.2819743506476924, -0.10204284212542468, -0.034302068144651934, -0.19445220782215952, -0.47382773619093876, -0.13541423808629596, 0.7867779561966447, 0.04767979908990778, -0.25592377718643516, -0.7092459498592389, -0.022345795163732394, 0.009383674647829337, -0.08129217552750796], [0.022103370226931495, -0.5385101854648164, 0.07540070349282625, -0.13434105898799029, 0.27218458525568845, 0.06581764007782859, 0.02689894397515272, 0.9745726217893376, 0.1615912829446791, -0.3274984624726367, -0.4007149343209185, -0.3329957677366944, 0.21453638084297844, -0.3605424508132241, 0.2344977514639557, -0.2611058463831625, 0.44357849745774847, -0.25048698718407625, -0.3404118184111915, 0.08900070771590782, -0.22897582846755513, -0.06819742404185872, -0.8604812140088633, 0.29044336945577287, -0.05250852434193727, 0.6219602908285569, -0.22204864787761885, -0.3495131146436419, 0.1339024027420975, -0.04004449109838866, 0.35016282490912853, -0.12298641779820188], [0.19128621436717017, -0.19338690468514183, 0.4107057728354944, -0.2050746459746181, -0.15042376943107705, 0.26676985073337817, 0.26131535571117137, 0.2629050113081478, -0.1285572726892476, 0.3236895072176075, 0.19154137169019314, -0.01022324134482623, 0.022189373622277367, -0.285108185935489, -0.013163708576974995, 0.6638146139562986, -0.2887418710340672, -0.2358497298568939, -0.2891425806371544, -0.4435456277346523, 0.0607856590979814, -0.05408803510761375, 0.19234847527433244, -0.017664806383847296, -0.028560352456402496, 0.08652254382378088, 0.0331997660051858, 0.27744124458546726, -0.12678657769341692, 0.3571037101540058, -0.5123862560659784, -0.024557057734359684], [-0.09016683894231149, 0.3063710304714391, -0.2218405931537815, 0.2117755789923884, 0.1548767836105218, 0.3404954488852247, -0.2744125761884898, -0.4510676876761846, -0.13390306866378257, 0.04102105159499468, 0.0794225232892524, -0.13865696754205944, -0.0049656767851560405, -0.13024955417190517, 0.014604649501113051, -0.505207689504365, -0.45691736156417667, -0.034725062035347656, 0.1693678052037448, 0.13978434029308442, 0.048757466577957785, -0.24516989490935562, 0.3292804038631866, 0.3300289399851651, 0.21707163792193704, 0.2983162073162006, -0.3212300297635743, 0.4372808509956915, 0.5810542339433917, -0.31398314698869845, 0.04356355486682627, 0.36993226773081994], [0.2744657398040609, 0.35428849072670904, 0.04478588163303379, 0.21936725055052442, -0.13628998709984322, -0.0656935106479454, 0.3069258440637418, -0.369594818833339, -0.03005448041207239, 0.1883690598360025, 0.07699501469715485, 0.221855676640995, -0.023451776442351517, -0.33146179523870367, 0.3175935616487051, 0.0450690899592749, 0.0035937547612922903, 0.09130396776348905, -0.02600622191781682, 0.16993659537054917, 0.4089610616700862, -0.1828750622678538, 0.6569112184477095, 0.07316840744704986, -0.2100668000727212, -0.36477677416773213, -0.12103948610274286, 0.4305269454600284, 0.015124624200857415, 0.43051086521310583, -0.11507920582438039, -0.10687589776207272], [7.144151555139384e-05, -0.183665824348651, 0.5883480497729557, 0.22012217820459917, -0.3854592033232993, 0.05221807232264059, -0.3040638120842526, 0.4507386029465426, 0.7454721895302381, 0.12452162688342032, 0.008797409937500044, 0.24080794074711773, -0.32119747193341214, 0.3924833933002645, -0.3510868904516419, -0.2131200425801776, 0.06230575358278869, -0.3409805102005996, 0.18982718105194094, -0.43301011076160284, -0.20170176358839167, 0.4541256105288304, 0.15380543284335998, 0.21322086968192122, -0.26213962709603916, -0.2590016106121732, -0.0428349785012513, -0.33409144753696973, 0.39418061342971544, -0.40571179251352113, -0.11258673869058149, -0.15649052346748302], [-0.26128809239815703, 0.7711757013722232, 0.258518869519992, -0.0724376677779257, -0.11163703843201529, 0.22010677284061578, 0.10256664076912018, 0.2498546343483184, -0.4764526139351866, -0.3482355396215638, 0.022950586498166173, 0.3722445798623354, -0.16913617412326512, 0.07383064696623903, 0.3527699595065388, 0.8670240275614779, 0.035725017569452726, 0.0301517382081259, -0.12509874637345628, -0.6098773617447826, 0.3196140977176829, -0.37291144114069597, 0.5341515701590221, 0.10294771352682129, -0.5698685253459841, -0.02997836067922414, 0.2830032383577057, 0.07597445767052681, -0.23543206250404322, -0.6394945672442532, -0.7960499953787801, -0.07297969252097565], [0.09853720490600087, 0.0017388275466409015, -0.2732799333021954, 0.17148581942871713, 0.3562460506075498, 0.25986049506068026, 0.47871752515004035, 0.60286107477197, -0.736172840852865, -0.291818291900009, -0.055115648136193046, 0.032354107296719364, 0.3167109221944258, -0.2300191332828202, -0.054726223800289596, 0.3402686825280079, -0.12681769967712728, 0.07069067595708463, 0.09493626013202779, -0.0594763502535543, -0.016162096689464264, -0.05519020268423885, 0.6526085751332783, 0.03564172912328214, 0.01559843751777294, -0.069987204657738, 0.09672611312420239, 0.3961363176648606, -0.42540276735497523, 0.5258140208168042, -0.8221185934347125, 0.45411852979470574], [0.061431087442938966, -0.34935664689126544, 0.22301353923617936, -0.1667618875743199, 0.17038865928234392, -0.18959358335028983, -0.1730213906721592, 0.10769184215709517, 0.5823581830829372, -0.14704235988385886, -0.3026355764639485, -0.20566447415600697, -0.34866787639915187, -0.4123536055596038, -0.1903078130906149, 0.06014985192781407, 0.4313017712471475, 0.20581080725192888, 0.2428060803039182, -0.16463290634949213, -0.22113096140497437, 0.18437596833889303, -0.2600429293128378, 0.12565156892135965, -0.06595770604713161, -0.09667674468707457, -0.22685658949319729, -0.33309808306031286, 0.127961712684412, 0.1957537574963016, 0.302302372171972, -0.33033171376488063], [-0.14451572337349777, 0.03575705745117033, -0.05898131611209101, -0.2249897113088033, 0.06508584363112825, -0.5642940662557939, 0.37833270303089783, -0.06312576621741933, -0.7679626757202046, -0.1704692424642718, -0.07100347007308426, 0.22151702036705653, 0.3346044055025572, 0.19220375213826105, -0.31579119466540845, 0.3794201058150122, -0.11600106823940559, -0.46173693643519964, -0.28179190256542697, -0.1113604611914563, 0.38572077567443, -0.31002955701784657, 0.3314967279254133, -0.7414316803815572, -0.04094381249005081, 0.45274682184442094, 0.4050432960963799, -0.1457141415092843, -0.9799400289943546, -0.23648704415356456, -0.8461871167870817, 0.03309794262752324], [-0.19624316316915016, 0.38974790907689916, -0.32190098788046195, -0.1794138058417861, -0.04928991244249869, 0.05366805825661276, -0.27984991933639525, 0.1263764760214831, -0.10546849803163331, -0.025329883119600393, 0.3091315188073761, -0.08557531230081944, 0.35477654687820515, 0.016841124453156064, 0.17864857065267475, 0.35414218747407283, 0.8588295828141693, 0.16928646273813816, -0.11328567963085209, 0.150459403407277, 0.23430583853439632, 0.34176024104176844, 0.1559183704531942, 0.08108817418440277, 0.10814621948154163, 0.2957336630380741, 0.1108367935542155, -0.24162282293695558, 0.06648839828489438, 0.14005780135356666, 0.3348716171029139, -0.12538401646941527], [0.09437200772344238, 0.005166161124908423, 0.2052423223965549, 0.15954899208846232, 0.1814029914814537, 0.26049131064428904, 0.06611029641429042, 0.08789485550436091, -0.7901513607367049, 0.23110154532573016, -0.0021517587551496413, -0.37580067773993026, 0.5785888562574841, -0.04779305413979305, -0.1460837615679786, -0.13567197195936684, -0.16689281997150346, -0.2733956287396509, -0.627103932380789, 0.14004725362085038, -0.2278903183263019, -0.2729078567145397, -0.4634676386159163, -0.377850137385501, 0.06701506269914981, 0.3870490562973137, 0.1706842648501801, 0.16006582541188766, -0.07381487340493606, -0.14031101402765062, 0.28423874250286796, -0.03141444510712606], [-0.6213214826678255, 0.0032012711981790933, -0.027681248856966337, 0.06293536162372251, -0.7114107262538816, -0.2911703346565786, -0.03449510520271891, -0.26608426942530594, 0.5972435652132736, 0.06914552748409934, 0.38622210171258425, 0.3671655422530932, -0.273778320783621, 0.27223420607295346, -0.48204659100252206, -0.07027991083800178, 0.2961180907113762, 0.2351599365700186, -0.03767949124797913, -0.0972099534923734, -0.046688953540246374, -0.08218298447083919, 0.28881657550946405, 0.3335347571779448, -0.05048803636513775, -0.06639840709714187, 0.3129030557092693, -0.15464932119189478, 0.15266501802558746, -0.12922405858782524, -0.07588068776441492, 0.545545755704952], [0.4862238260377309, -0.5093534385119314, 0.1811524461617331, 0.10674413995890314, 0.09655175317376556, -0.24617723366582928, 0.04924663381542791, 0.4121519185921074, 0.4994886171385743, -0.6166689811859822, 0.14606921107923318, -0.4511825084607139, -0.18990921317197756, -0.3575407725140111, -0.08001959092174499, -0.2320166666705893, -0.02068941044160942, -0.054964284656633514, 0.260308650571715, 0.1351238082314097, -0.27011161251663557, 0.22839947614507752, -0.06905999962559789, -0.3890127559004537, -0.3676193391695691, 0.08152808638716069, -0.33794546169957085, -0.5433902941805946, -0.32502875911051976, 0.04694933881509139, -0.23654219201577453, -0.6139477388095258], [-0.24627988021841046, -0.03738267265641236, 0.0603460693874077, 0.20481945876090316, -0.07025439650530026, 0.46014765081757886, 0.45783450973377215, -0.0677349801588268, -0.06324407763895275, -0.1543677768212408, -0.24219760350835884, -0.08563153534130963, 0.031178443104119047, 0.3180543291328309, 0.15762915223758434, -0.045409131911845216, -0.4422520806607169, -0.2901471202770048, -0.27063434654656876, 0.2603771529295075, 0.0621745928622368, 0.1411263634236353, 0.04113752703734605, 0.07869108883432895, 0.05936184889519838, 0.09938720976762806, -0.13610263644482065, 0.24226106175219253, -0.5485218854573236, 0.523111585628242, -0.3951878317215839, 0.03206351021963987], [0.2895839531373312, -0.11001982744208122, 0.12910347337972228, -0.15948546556673487, -0.04535353554617451, -0.7799773818462653, 0.09213603009528495, 0.36299494570583885, 0.10900150123719873, -0.5102853946123806, 0.1719429328517979, 0.12509751006344894, 0.23654197621446013, 0.08358616615694937, -0.06731445842966978, 0.20220508298595696, 0.7324488766078908, -0.5850364533936179, 0.013765344130891574, 0.006879425567554223, 0.14274672073273348, -0.06110896533763797, -0.3836711881008061, -0.29746319153833783, -0.5337640478601032, -0.03620583371195916, -0.1797494338424747, -0.3598321530604408, -0.7401580891236083, -0.23888240978248124, 0.03320010916253529, -0.17242406248293907], [0.4876813389381679, -0.21889956258653295, 0.07141392410079667, 0.06084332026483496, -0.027434460642930886, -0.002535865148214296, 0.08282532806693872, 0.23223049601677095, 0.40873854260090425, -0.27457324718636855, 0.2964293032307211, -0.5497471256006295, -0.14795179202268208, -0.2550076776406208, 0.3126350488566659, -0.26109240564683966, 0.5698042397460751, 0.15434742225754486, 0.23341811184048075, -0.06440392827966059, -0.28426404436911107, 0.13199869483894053, -0.29221942229557063, 0.1358512226040334, -0.3360511011478771, -0.18504051657024065, -0.0781815711261182, -0.41577803884755526, 0.22136063819552035, -0.24956302813592762, 0.2604835799796671, -0.12022888840125244], [0.19715667656349029, 0.4380160615211017, 0.015417935086070615, -0.007155889987753452, 0.3569914595232102, 0.20814828060543442, 0.04755275113080127, 0.1904927308383105, -0.5463942906548083, 0.11610238590181732, -0.16655414521168146, 0.05833950966093225, -0.19723387426695627, 0.1454602203782223, 0.007528806915539823, 0.036399865608332596, -0.1090493760935349, 0.4198348156822337, -0.3147972001383951, 0.12324729386489164, -0.1824467529162042, 0.15979945682527108, 0.2863535848257354, -0.09621298378197891, 0.516377915429761, 0.3468773560521733, -0.24871579218856468, 0.5577690520785384, 0.37772545333877144, 0.03484171934313346, -0.001868698997927076, -0.1898913208213109], [0.031370111232625016, -0.518423181236501, -0.23324707663985295, -0.1412220535390666, -0.3022542048603729, -0.10760983095891619, 0.03175887690252501, -0.013445624577990296, 0.029577169779039552, -0.3734994266200087, 0.24546822030839155, 0.2765210264982715, 0.08221539194355602, -0.05185915351379263, -0.18923682071140108, -0.21940351768234118, -0.5014063121932583, -0.36741119041060444, -0.10677355164400652, 0.3584878484658828, -0.35640655173963987, -0.20153886984546135, -0.4292459260172727, 0.2068584827745257, 0.3672933481671435, 0.31232974095741295, -0.07601052784267902, -0.25802169872741254, 0.01945822692340913, -0.18496704647632828, 0.11297307276243657, 0.1020432940544535], [-0.039867475947044456, 0.49721320245013023, -0.38706152038200803, -0.21713441374069645, 0.37117227999336433, 0.5536370157971547, -0.3169886449170715, 0.1949152342126181, -0.5416804034539376, 0.368534052101883, -0.18119351214946772, -0.14302981038541027, -0.23186289084942216, -0.28299365267629295, -0.04738532902692831, 0.08720915166733342, 0.16174826359155892, 0.5117278225323988, 0.0619815412293896, 0.0012638127826304646, -0.02833820917929914, -0.3125662450497251, 0.08497157665100911, 0.4230306045009218, 0.6346759399844777, 0.33225015351749987, -0.07377966562536972, 0.2819829126254388, 1.0654489479129274, -0.12591820033201234, -0.01800751512422334, 0.3189563927321275], [-0.24303291487886974, -0.05636760389727983, 0.12230900704300646, 0.28433393364302, 0.16590191643249258, -0.34414797195097524, 0.1149318654288561, -0.3335744223430075, 0.5220095369163809, -0.1960456947537519, 0.26089662940304564, -0.12527376582565394, -0.08467516106385428, 0.09859716155133277, 0.20944336116265735, -0.07999337685915037, 0.043521336483035244, 0.28669189805678336, 0.4185391573920291, 0.22115591521549535, 0.3040696823245419, -0.15756295068266365, 0.2987585909910489, -0.443280852965579, -0.39652207263643924, -0.8253605447413644, 0.38445334845357554, -0.07409163212872899, 0.06188212345728221, -0.24190770010212068, 0.016259582168284995, 0.06021960358520322]], "b": [-0.02921242877803258, 0.04450826539314166, -0.14123216583039847, 0.557036933390481, -0.003941315070639862, -0.006960507116706504, -0.038688470163460956, -0.10691863046553823, -0.07987837936429427, -0.0791269020098676, -0.16211390894303931, -0.038732434043222144, 0.23767564993241538, -0.19638822914612825, 0.032864539773346954, -0.1667048463853444, 0.05876711141445555, -0.046587678650663364, -0.029596069579145432, -0.04768625069727385, -0.06504085609755554, 0.1662796839226602, 0.054055409039935054, -0.007003720564396607, -0.07234659744213293, -0.08915669301349614, 0.0805003339210193, -0.01381819441046855, 0.0325954216308926, 0.0399715428113205, 0.023725379213695667, -0.05311976051365609]}, {"act": "tanh", "type": "lin", "W": [[-0.21871901851039233, 0.36173608777516386, 0.0894169638832461, -0.05080748145475528, -0.33507045562890686, -0.43880835030058546, -0.5166288275039728, 0.5469596706259989, 0.3216009747636891, -0.09065205852727516, 0.33723282782694297, 0.06850448829594576, -0.07351211277378375, -0.1987800288086046, 0.08367740437516803, -0.01976761250997191, -0.36832228436660613, 0.004357972696070982, 0.060696511472860745, -0.016761529208698306, -0.023108605871687993, -0.15923018922951845, -0.07793347425942097, -0.1106669555118603, 0.4275534723734282, 0.10450935121703553, 0.18351590701092851, 0.4305219382876897, 0.10908785692955125, 0.1844832952946902, -0.3108497819892672, 0.12754056426962768], [-0.09031564960210263, 0.1988229057519291, 0.05417302116477948, 0.016512137860666253, 0.25247100522712224, 0.1124842397042735, -0.0421472966103088, 0.06402627520117511, 0.14309145448749416, 0.15471914864159408, -0.23929355938688698, -0.23021187779880475, 0.07510557248055136, 0.20530530688761983, 0.39890469141927404, -0.16365111775401645, -0.1335680325635025, -0.0645017218921091, -0.03295251660023548, 0.25583380887951457, -0.5774551153251547, -0.2608111882477029, 0.023513438691280114, -0.3112323642875254, 0.2588711937951008, -0.03470593886706637, -0.22044310539309742, 0.36188720404433966, -0.22698714222475716, 0.8390759934422389, 0.26068842760531463, -0.25251425820511053], [0.012859257488187267, -0.08955268454841868, 0.2144876369283076, 0.1244955237567126, -0.18069981508357308, 0.36841326178509154, -0.19073878904623964, -0.06811484244031285, -0.14740460390531943, -0.3417993542952972, -0.19971630148351927, 0.17895396584204434, -0.003739844047080371, 0.18119234954996732, 0.07138450712595504, -0.16270713848697438, -0.14047541916713888, 0.4259909639609799, -0.16077988382533634, 0.026295599214759432, 0.6013355381746628, -0.24905585040551084, 0.21045528121713916, -0.049348133047086414, -0.23854730013044165, 0.540553020217787, -0.10152370825388585, -0.25312252209339636, -0.17523175646880626, 0.46167473233395534, -0.3146291617533463, 0.144779482255881], [0.18518882897801378, 0.022423745238081366, 0.19068044410006782, -0.15683840070807184, 0.12086803208031631, -0.060290128943145255, 0.29651198052889405, 0.09704017940808857, -0.1271553053898365, 0.21271837018082404, 0.11082346044970386, 0.01623809370916813, -0.20927276132830633, 0.028075303064712794, -0.18435523364099482, 0.1344527916715284, -0.11203583068979278, -0.30300089522459467, 0.18017217253814496, 0.040345667797053564, -0.2749687074039926, -0.177299295561806, -0.1423963971883244, 0.0181332558627288, 0.2096171268944131, -0.1048571450761828, -0.08410535120641066, 0.2424393976807558, 0.1551273339352258, 0.000563020705185121, 0.20645854545219855, 0.12641343718330816], [0.4559136875398096, -0.09575385626869498, -0.03790392134510952, 0.10683255126303584, -0.15079902632765604, 0.22202918412805006, 0.01962466055947953, -0.6934980523937887, -0.25343891745730535, 0.6066536940081296, -0.17377514134000208, 0.36199952014621845, -0.07827051909617033, -0.045755786608934146, 0.039348427573368656, -0.03732425296906928, 0.5627774381870936, 0.17000693851114299, 0.061801946987796154, -0.4776042011935769, -0.18123145551655773, 0.0027487814471780407, 0.12801504387466706, 0.7828077863439188, -0.12962077013612788, -0.13416035883692712, 0.11014053392596751, -0.23417350244706653, 0.24570956448135028, -0.35999017970491715, 0.13713393210297023, -0.07395325376741636], [-0.18539186362718907, 0.26197698064987546, 0.20925540622272257, 0.023785805028497923, 0.33446496340058124, 0.08329683314260652, -0.09484635642696428, 0.6757052757784189, 0.09918951236697733, -0.24844188131596764, 0.11030570667739108, 0.1533763251659162, 0.01786614624236628, 0.3793907533160635, -0.19178209330909227, 0.12485199634958154, -0.5008432989789999, -0.00840879557861871, 0.11632241715042371, 0.44111898504262914, 0.5008123823013235, -0.004258221679753328, 0.14062969189299515, -0.6497402091176123, 0.004009735421398331, 0.4001906279293326, -0.09055452524199457, 0.23687260877052857, 0.1559131394269999, 0.06291739907930431, -0.04371882414521574, -0.23089600184416842], [-0.12116245640235751, 0.24601756256614324, 0.22084442410978478, 0.039819102566669554, -0.08149270437122604, 0.1545946409711865, -0.38275744524326505, -0.07687121724640358, -0.1953488694232289, -0.28845782241069173, -0.024332105700126092, 0.28146616957780163, 0.052961489601560004, 0.28342317079468643, -0.06115817205726061, -0.08778702417460434, -0.007651250010743971, 0.23061450069582828, -0.03835210342601262, -0.12458360516941853, 0.5837545824385787, -0.05015466507753196, 0.04110866649224624, 0.01401556852119257, -0.06076183557376714, 0.21683991899530644, -0.0061405452013142394, -0.11562019377507399, 0.17129959290597996, 0.11082077549822644, 0.037103730204458805, -0.1846312065138117], [-0.2657488773760525, 0.0349711896416771, -0.20238295645072762, 0.29851305691014307, 0.20640891456245147, -0.21179428111593132, -0.3368097415406976, 0.07503919142920878, -0.22117599424812212, -0.2316460414835996, 0.1491154653619988, 0.22538569301491038, 0.20914022539391114, -0.27036966269170776, 0.0255247915031545, -0.21858690764854383, 0.07601472023627104, 0.1223882669527397, 0.14844509633091302, 0.06642991659134591, 0.11440141818382, 0.32361914457881436, -0.000944769044653041, 0.10982176746602111, 0.09004753921491569, -0.2591450045507739, 0.02485204606989892, 0.08190343354712822, 0.2458889823368578, -0.19433518827785554, 0.07918203525675535, -0.09492502927394943], [0.027435067064232873, -0.065427102291349, -0.11312623401873775, -0.07679773650982633, -0.19932113391410325, 0.25372078347160937, 0.28573329621809673, -0.1427953044480147, 0.09180037049484265, 0.023051430292590307, -0.20709762951919922, 0.1816638385856152, 0.12549439856997227, -0.10566460693182829, 0.01693654978958418, 0.05616866265178368, -0.16509338504200025, -0.01502362685848558, -0.06025513066119759, -0.03159421952988283, 0.49024543484111766, -0.10214896177076228, 0.2974602672515125, -0.16003706894432204, -0.18273855342160322, 0.5021284920367606, -0.14234801277346298, -0.3608748556068076, -0.14940847459026732, 0.0084177260038869, -0.39779863777598307, -0.127734066252306], [0.1587976935428687, 0.02788544131211825, 0.12340117183181383, -0.22789357809099253, 0.04228223776747769, 0.13382306971955546, 0.1541458215154227, -0.049540412711556195, 0.057934330377777656, 0.08600273332874317, -0.23447451770955227, -0.0060988399330211985, -0.09715300478199916, 0.24424043556915545, -0.05033999005180054, 0.12600418993798637, 0.22130682897576234, -0.3263657770539597, 0.12415099611833623, 0.17133935504952205, -0.1096531696261426, 0.001868067169035796, -0.12064336713375223, 0.017424292114546745, 0.10105323893390125, 0.1266962762789124, 0.06934909597485946, 0.1500426748744602, -0.26205417283975535, 0.09757000590405525, -0.06438088726349588, -0.08854928360283393], [-0.3833214285409546, 0.06006627999752097, 0.05252002880740855, -0.18023291475100772, -0.17721652746463787, -0.7962159831185338, -0.4542569157766047, 0.5729380916748226, 0.4582560714340947, -0.1722557409587969, 0.7270912410260038, -0.2625390104184059, -0.15141116143290897, 0.26149965250215707, -0.5012058329208596, 0.09603157787912686, -0.003585424539252656, -0.2136565503192066, -0.06270114444128708, 0.3936226624230889, -0.3514869434796661, -0.37134461848950684, -0.6159081832574133, -0.10065038180208241, 0.41658569619285335, -0.44287918035034674, 0.553995809413982, 0.8480952268012075, -0.1663134624775504, -0.012449495250573036, -0.06576092823487639, 0.28622396837771374], [0.00773219086012782, -0.10403659741594692, -0.24228134756616515, 0.2621751255175304, -0.12376518112596213, -0.1813871620284011, 0.2604603660393971, -0.17901636269816085, 0.6962255960431312, 0.0650018833065968, 0.15602537936067265, 0.0024749634819673915, 0.086144922526459, 0.2822541160842289, -0.5014436090136176, -0.047080579963261086, 0.5166745857245831, -0.16170849653254565, -0.08401983219588348, 0.178609075084667, -0.3468622020834317, 0.22895981023491171, -0.1467736427325178, 0.2086473429387338, 0.14520165958941983, -0.2778545303039655, 0.7429490738487234, 0.18863677705279647, -0.3330204165782217, -0.018913400500915462, -0.29486511493923717, 0.26267739933734763], [-0.2544590000182043, -0.03208156429740528, -0.1706251707450908, 0.10765773281582654, -0.09851601667728757, -0.16413807017194176, -0.5021657150743501, 0.4659538893879879, 0.06010041635978599, -0.07378190433294382, 0.10512770624715274, -0.07268377741144166, 0.0030181951924162986, -0.19722852733065413, 0.2331078447630386, -0.0057238816871659996, -0.07816681913935228, 0.009608095146761697, 0.023860286819624092, 0.19540123506234008, -0.10885250665911705, 0.15242659794102256, -0.20190689606205067, -0.07450646350087355, 0.20530486598071016, -0.3057254136715233, 0.1375589970361335, 0.3410327739109361, 0.08823996499476737, 0.055001852728685754, -0.08245101067332675, 0.22410378341397047], [0.4889322043439102, 0.18827733612974928, 0.15471996998362364, 0.03653278511634748, -0.9561522726739449, -0.05389447066844125, 0.38172560799704613, -0.5154193955347136, 0.8224321878945751, 0.38483079125618586, 0.6165903092756704, 0.13768898355098566, -0.21643557812425454, 0.08657918975367963, -0.4902527753528531, -0.2656771927752245, 0.14257974148372513, 0.0326044328234661, -0.06176044104425115, -0.11102692385911014, -0.134388472287105, 0.08435304670128818, -0.15931370606702436, 0.45050863745166414, 0.0072485435418541844, -0.05691856274039088, 0.28417942763170534, 0.1873628168409944, -0.7054176994310638, 0.06680719427495041, -0.6355626945423001, 0.47343983735167994], [0.1388281810326586, -0.0938393500901231, 0.06207411360376998, -0.06026397475153799, 0.03632669634521724, 0.7367034715630179, -0.15592697618403334, -0.29184562322565605, -0.4713035000751798, 0.3493096996197223, -0.7242767142127806, -0.5925220517028591, -0.43076068984943877, 0.037573567241507747, 0.6795300730819542, 0.11976772831361565, -0.03186489454609309, 0.5294832685190322, 0.2830179557974741, -0.6829308118842778, 0.3614945320296034, 0.046742005513216646, -0.07307050758071994, 0.2592778525400483, -0.8178590149754141, 0.1498198828852407, -0.49517774039689455, -0.9326229629491893, 0.02864861324124075, -0.4914872547561256, 0.41686588165709554, -0.2061077017845058], [0.04085946075147042, 0.5292262663214694, 3.9123960665686335e-05, 0.13882810967185094, -0.5242687464285826, -0.028530125650071094, -1.075016031833931, 0.041115542962677505, 0.39888603614077833, 0.18341447279509898, 0.04315927019059198, 0.08486994036607991, -0.2400110370026442, 0.404141998129474, -0.2434101124690509, -0.1429585122099548, 0.1157507339008067, 1.314766486591236, -0.28581668085438433, 0.08269136120003247, 0.08317927714197675, -0.21992693083144124, -0.3207408559873441, -0.07891220651363198, -0.12005665769401339, -0.6761201547171505, 0.5842800990452112, 0.005648380871597343, -0.7928666444384481, -0.2730431796676399, -0.41001536672856465, 0.5332516369925979], [0.23983088153440438, 0.12279825536906691, 0.08018747546819384, -0.016846658541679185, -0.852759041949381, 0.021936418156399386, 0.24249559130275078, -0.4946284942501704, 0.6038744173530562, 0.30452108804685635, 0.1479850078076952, -0.039911964613676174, 0.07721532077006527, 0.19229388742945303, -0.5925251165722923, 0.017463384232940343, 0.18958548838096895, 0.19241659479614445, -0.14875648829446353, 0.10862635979141551, -0.02047393555487939, 0.14423850441529693, -0.1808776979525125, 0.36114396884031935, 0.03159581144569914, 0.05066211286941478, 0.4836527202580641, 0.0030597076198240186, -0.6084699328409358, 0.0742940007587902, -0.7147274244912132, 0.24072305284595386], [0.283169210358789, -0.0482354256085281, 0.06847610771419847, -0.298519288898734, -0.06523022231116203, 0.02161851753319035, 0.4067482945815498, -0.04032995125522356, -0.04710699215131533, 0.12946302295084666, 0.2002460874191807, -0.06613030358253164, 0.08444506034956334, -0.029947752361346437, -0.16321689388232064, 0.33352055217167204, -0.030018515412569353, -0.316611914755013, 0.2329975934019952, 0.016337291963750708, -0.24574892640972562, -0.18239709036698643, -0.302648997870159, -0.13946328077836415, -0.10087476998072897, 0.08448833496000675, -0.1137101408479827, -0.06449060829396601, -0.14816118204573303, -0.09930789043853072, -0.04882449005364307, -0.11069010985157889], [-0.24128048282672804, -0.16525468083057954, 0.07864425767066144, 0.09375080177164768, 0.1872824998824251, 0.23927220875443242, -0.2837747925134527, 0.5877562418998005, -0.5227354919452345, -0.30223040760790676, 0.047821156402430065, -0.1673266955683944, 0.17650766915633304, 0.06319993865491741, -0.19014419651208636, -0.19111130401983384, -0.35470857976989667, 0.03809385905287949, 0.0868163189217354, 0.12275028430556863, 0.387323507158306, 0.05954612334680879, 0.2533739440124735, -0.09966433362943666, -0.10235354433328388, 0.36561062566413693, -0.35472688978334127, -0.32164684085898715, 0.04426745183923023, -0.13619101683312673, 0.0025151127392555846, -0.2717857078474623], [0.06876931382054537, -0.07405437891166362, 0.07544885473526251, -0.05247941670454715, -0.05730087788906479, -0.1269096973433495, 0.4254244487002495, 0.11147157535770094, 0.21393770237443252, -0.0802178084272252, -0.3517771593224946, -0.2791633705563749, 0.01688509726417462, 0.07956009266853221, -0.14962402513640602, 0.12096656371873325, -0.12950667191029916, 0.02007195059198274, 0.025108893793841437, 0.05969183954634541, -0.32319097463576807, -0.4014499261462423, 0.09250750106756499, -0.247024232060276, 0.3609122420462458, 0.15790794475515085, 0.059414466353881916, 0.2085548347870806, -0.1668710691020094, 0.46958960962754803, 0.04315939433724303, -0.05292731381854814], [0.1681345208823914, -0.010341425628787405, 0.1731424236309158, -0.1725168034234561, -0.08853149105669997, -0.02278277909827917, 0.3596516179275544, -0.1552405200589265, -0.054076336021062925, 0.4184863560648549, 0.12363893935826892, 0.5384864066933229, -0.22814833029230833, 0.10703615785012222, -0.12141150000593953, -0.045011290838619024, 0.1785418103582317, 0.08992638394893744, 0.6375869267636571, -0.46550336287886407, 0.15744569435498426, -0.04670940832977447, -0.11074124599193169, 0.3524876721457106, -0.1977553487694044, -0.08972927853655129, 0.31401596057309855, -0.2690210423045277, -0.14542080598966245, -0.39744419608663106, 0.031721169853578035, 0.24688198886594487], [-0.38246891088323814, 0.9672651437199088, 0.5155355305728054, -0.5302695908557371, -1.1319260904323558, -0.15932645985458804, -1.0806343299832109, 0.07256863389654579, 0.9030049447333448, 0.30633715519916777, 1.1281998888445226, -1.1772081317365606, -1.8803161513600763, 0.29133256234389043, 0.20864857962398306, 0.7020333014584151, -0.17505605806711372, 0.5998380680797623, 0.21710318188331112, -0.28132673699366156, -0.6348973466887871, -0.6776411849798815, -1.5583000573122296, 0.1412740780692894, -0.07997467819600461, -0.37506175946038767, -0.3459877753345102, -0.40164761788103814, -0.8042440157379848, -1.2283104493463644, -0.0847494804748977, 3.0241496021699654], [0.0959953060759651, -0.12583341996478223, 0.11009514071931427, -0.23543725766502513, 0.042533136502845445, -0.035552194464682524, 0.6280998673549301, 0.12270833065458334, 0.20755387185297153, 0.09152162131125036, -0.07615262695432876, -0.07731259088240378, -0.1812159926344701, 0.2994769943651674, -0.19677617564087757, -0.11302671118513674, 0.06477276863422833, -0.1896170618363805, 0.14872133103085505, -0.07488725828853231, 0.06348341536141576, 0.2674508771750788, 0.29780033162235275, -0.03963931674274679, -0.0741532961468569, 0.7345800272967654, -0.023012311399196246, -0.14442100750240552, 0.17909172119146974, 0.23967382868423676, -0.23503114162147914, -0.13339501379763655], [0.21615624352476415, 0.01297967609639475, 0.009598647515490149, -0.05196245810141862, -0.18257791474421145, -0.3456290264165352, 0.32764450795516814, -0.13125099422975128, -0.06128129871543941, 0.10649974808124758, -0.07865837813022512, 0.10193406994106766, -0.1221768240119846, 0.18649470070406893, -0.29751203855860836, -0.061867475301726677, 0.39712911626575814, -0.4824992089577567, 0.25596686509410954, -0.13305319106526486, -0.04165979340293702, 0.15762926808039343, -0.07467650104399999, -0.05206415362658649, 0.20497373753532855, -0.18863765295260898, 0.30823124106468824, 0.2906555111397822, -0.17190811650096002, -0.3014955640105722, 0.044169729746371206, 0.17054774514151763], [0.03311590753818696, 0.03959428196072252, 0.2949409481211613, -0.2884150001225182, 0.06777465129972934, -0.0018762407687900357, 0.3325012966235645, -0.10257768328075062, 0.13713119948339894, -0.008549516689693478, 0.17141387580833126, 0.045251798271480695, -0.10448608625712044, 0.04764440593263131, -0.05058232936642907, 0.27216509632538805, 0.046782448666574376, -0.3424523891990286, 0.14216052810799149, -0.027960461024634106, -0.24940859056324252, -0.07465462741240693, -0.09739284575493819, -0.08458799465809921, 0.01779307759055738, 0.16324981411148373, -0.14276638597077465, -0.04673237645400979, -0.11489882208118778, -0.24181425228769046, 0.20270847338092998, 0.13204889928968883], [0.173325453047611, 0.027769436587930674, -0.0863948267310597, -0.2629012942583985, -0.16957136174111134, 0.21251525834671345, 0.4482337883264245, -0.38775464483752803, 0.25034749919945926, -0.004815710869490146, 0.005085943841223585, 0.07729564227839252, -0.1027156176520757, 0.20915652039125113, -0.0831553769108997, 0.064132389190722, 0.06816165733810947, -0.2076214269015665, 0.1069777712520579, 0.10545629648777724, -0.18682286559085273, -0.2123575367843919, 0.06300577253206267, -0.0354784109094037, -0.11763162533820662, 0.2724293978860058, -0.14797022020320527, -0.09797240667177022, -0.11693244015252896, 0.03700319759595288, -0.10476719150124462, 0.11468645254642047], [-0.004214614709954135, 0.3516159642609838, 0.2109232936570752, -0.023286288883143554, -0.1687372728290715, 0.33109074676055156, -0.2217250146813439, 0.012997566639741475, -0.13932320337631626, -0.2719036852530945, 0.06200148737677016, 0.7228854834491917, 0.06439461205878799, 0.6245350547554942, -0.06862115232654699, 0.21168779012455152, -0.13144376904866345, 0.29150308720858265, 0.5656379630047704, -0.20641252991115416, 1.152906405440134, -0.2067652942422275, 0.08336625676704625, 0.01980047247977613, -0.12520752454228024, 0.5699776332626502, 0.015877768933768195, -0.5796607305081385, -0.002924679193293425, 0.22610752517492927, -0.3424345426075736, -0.07831832167219359], [0.41176884283234266, -0.009682512622308171, -0.01741364585282095, 0.05552295979584355, -0.7187082700242328, -0.17305018243539935, 0.45384340964764136, -0.6040004966880864, 0.3390297532914405, 0.4077711108888603, 0.5088185559915863, -0.0580947148997332, 0.007029281943946255, -0.6426885741977281, -0.10353738395947226, 0.023482030688101365, 0.572027298870402, -0.025309860230615752, -0.2988879675966984, 0.09156611395254165, -0.388732017379053, 0.06904522506820951, -0.24845610097751744, 0.09208645897632342, 0.193679925377275, -0.3507807249141391, 0.6271431480536491, 0.29731870750445705, -0.5659816031262268, 0.3636830165495811, -0.4441858054732489, 0.5659109042092814], [0.15399086548516636, -0.403723216641695, -0.0016456469702231314, 0.0942639835298156, 0.2927663027785858, 0.18296027219738917, 0.659128997845285, -0.32817896337126706, -0.4006812728109281, 0.0836107518493077, -0.2807462076106134, 0.0031616058052739036, -0.20680614301394415, 0.2867447280150237, -0.04333304356057889, -0.16917861601381856, 0.22196624812359347, -0.12236451526564372, -0.02881465045533245, -0.34450310448537885, 0.1770148288336405, 0.32105294268485135, 0.4209350765896491, 0.2280070338158399, -0.3235671614354148, 0.38117230531186963, -0.193081916291854, -0.6181107546823991, -0.008917711561249632, 0.24057731641119826, -0.059145509187302374, -0.24774248657545475], [0.30741367511590983, -0.311774733259095, -0.08376722660811198, -0.027311959476736414, 0.40809229283842013, 0.7680417824108635, 0.2552023557651138, -0.47387013545831114, -0.49889369396214206, -0.00010032712641889466, -1.0194247454709247, -0.03645068280030445, 0.12077994722813569, -0.433053778032108, 0.3430528360359149, -0.2139218581457069, -0.06629653426578572, 0.28555986463632077, -0.1829516166965477, -0.3221530722138632, 0.2924406472033039, -0.1394489493397599, 0.5294912016106481, 0.2917044510278442, -0.45352245289852366, 0.3547293585628012, -0.2537020856485378, -0.8312893255849879, 0.2376559244089612, 0.2576058103837386, -0.021269663663691155, -0.2952019385197767], [0.31367576562341004, -0.12734110731092713, 0.04293464506348718, -0.2387357129722691, 0.0738139792161468, 0.028459691204045942, 0.49268315940368257, -0.23172077282209824, 0.1714260694016978, 0.2707482321693034, 0.12484528087527043, 0.10710014878535004, -0.15849032297064872, 0.227729888809974, 0.0025985877907047225, 0.1063034812721799, 0.06780591231933562, -0.3086042733628085, 0.1503320494310221, 0.02953365235444024, -0.1969663068687501, -0.16924076314379305, -0.07052017365597384, -0.0019344956272277448, -0.130342428881241, 0.26060911748825016, 0.1621757029449631, 0.05985185834445512, -0.11274827709621271, 0.19616323070224154, -0.23876369400743563, -0.20360709472375235], [0.16608797969197775, 0.037993485872466384, 0.20687957523750367, -0.06576022089836375, 0.27203262817583845, 0.7013411281490769, -0.5043924373971163, -0.31625634661191265, -0.37412113793116786, 0.16672414220953657, -0.45999607508121576, 0.04287989781115882, -0.062300023226887165, 0.11243898562396981, 0.7906315791638759, -0.022916308156729074, -0.060418773897079496, 0.48178637209789477, 0.23475747040451145, -0.18201893436868202, 0.05563494595428512, -0.37715692857980426, 0.13258967004595776, 0.07688732155663791, -0.47842201645189864, 0.08057302116280858, -0.7168814823980961, -0.2197075625260629, 0.23721931388651726, 0.17005600278259858, 0.3747565668472625, -0.2822137150539011]], "b": [0.08250310899310143, -0.2291648931308614, 0.043890387817930206, -0.312480103207938, 0.17399645028005928, -0.17560304417167297, -0.07343593029031173, 0.23484473148290844, -0.06248383514207244, -0.09742778969408593, 0.05034538217985795, -0.07618573688609713, 0.28371542976129044, -0.04388249350850945, 0.16960294796931416, 0.20608047250071973, -0.02732524874353398, -0.10596758374099892, -0.004247657866016023, -0.10230707973759053, -0.14944596036431904, -0.37966071839583543, -0.004065706691075524, 0.13173871627553502, -0.22252478568376058, -0.25866746601529694, -0.24236738034939667, 0.05448551122243611, -0.09498147039713363, 0.05897336683167528, -0.4010256946961079, 0.03881120521598826]}, {"act": "tanh", "type": "lin", "W": [[-0.17471510653713243, -0.1509710091953431, -0.20168896539433168, 0.30150460251745675, 0.10541726974064891, 0.04144259780286851, -0.0752359408882826, -0.2240185017924793, -0.2640431348568578, -0.07516140922242283, 0.17581763671882358, 0.17430544110579538, 0.13171971654984868, 0.24957619437070414, -0.08621143679077499, -0.6830048378457863, 0.07991568469125133, 0.21957946675836434, -0.24485347912008767, -0.0715263908992789, 0.27002218380151816, -0.6876928074966665, -0.18352943691330134, 0.06768422252822244, 0.3006544577463442, -0.03661411260837632, -0.5353785602256252, 0.34252819645414656, -0.12174822585610004, -0.35216814458231327, 0.13738744587606838, -0.21716181388721625], [0.8538310649137217, -0.2519213717067046, -0.08456327559160268, -0.23841363964274123, 0.1440341946000427, -0.07749871639788035, 0.3251667498289711, 0.8589046242632336, -0.061793161474037954, -0.3749830234905404, 0.547921889579838, -0.31275627351078183, 0.3532282430147833, -0.4244281002842839, 0.5363701833757225, 0.2796881830422498, -0.6047469441101704, -0.2750784503749582, 0.1476014363435403, -0.16735505119839666, -0.011177003914747624, -0.571910755532777, -0.23909201582627368, -0.19996736863118683, -0.55289219361661, -0.9106395857086463, 0.2878632560340205, -0.17080241637352644, -0.44145621934768986, -0.18729087051699628, -0.7484337824059177, 0.3785521893448111], [-0.10322631301274351, -0.08383656291728848, -0.33941500453528745, 0.5768964279804142, 0.3063657087078692, 0.013424491989064934, -0.04631223249399183, -0.16805818123699034, -0.22590711504568262, -0.12101688877440467, 0.16694955283632065, 0.39956340927492423, -0.07031696849748668, 0.1341827294063579, -0.23987387475772948, -0.6299109038866283, -0.08705779902495425, 0.49620965490045116, -0.019551320250750497, -0.22069591601133934, 0.3922638809536266, -0.9912144690635007, -0.22276081140024806, 0.21821780039453972, 0.4075389319708621, 0.01326522546781849, -0.5101451726480905, 0.44295345147338916, -0.010583636886547522, -0.23559307295319093, 0.0755649687214942, -0.5607558586044231], [0.2366968533685233, -0.13122518207650954, 0.1398190853403227, -0.22026173216217854, -0.25341263724480895, 0.13720222920009867, -0.07033729228448733, 0.09696453419272774, 0.18343346207287806, 0.13302306513418163, -0.08928769188670421, -0.04502645712068804, -0.19837764719003295, -0.295770856367983, 0.3091475636037539, 0.5913798341752453, -0.03344983995111858, -0.29407153742734876, -0.0622356235816773, 0.06476030539314526, 0.022166987721201972, 0.4831583910249269, 0.31897822674026804, -0.21026338020222818, -0.25622005540598514, -0.11427179642055635, 0.547008028268835, -0.03501884063226787, 0.08919994651735301, 0.05523481896080065, 0.07706610603988281, 0.47015167638037025], [0.5909066644887396, 0.3574445224740942, -0.40710846946128587, 0.1892190305249892, -0.06997515380753004, 0.2152369252343545, 0.06655323684217326, 0.17473558052901014, -0.5640750900526178, 0.11676553995183236, 0.7186213178483566, -0.04670489273342695, 1.0499098741867587, -0.2582959600368404, -0.21609339844583347, 0.3217823321106941, -0.16929481795154533, -0.22340955649913202, 0.24699987696481868, 0.06562313570985286, 0.07461588169121054, 0.307812694621688, -0.4538160440065291, 0.21617792037152533, 0.0693096027903938, -0.7104244289926346, -0.19018715484284368, -0.3672483173841739, -1.1432700570098713, -0.7456326205185331, -0.7017659781440961, -0.20333611173321745], [0.4455644188890334, -0.3321722205045116, 0.023743492360214277, -0.17431529363771064, 0.06267290787894882, -0.038189004628971165, 0.23999239421063037, 0.3773737575528468, -0.1604348400350292, 0.03798645461966105, 0.4658085465826113, -0.47450933784823407, 0.10071883055429161, -0.563974140323687, 0.38483039342958847, 0.20798735746677027, -0.2914904694707412, -0.2549534555228481, 0.18347440443467067, -0.34281415021413664, 0.23138759842042414, -0.5167441902582808, -0.12671715487720756, -0.0426434650465123, -0.19924308696747683, -0.30103605694797797, 0.24980301522658419, -0.14379213600409874, -0.43965049449002835, -0.31632787869512485, -0.38591462720767333, 0.18577667061527944], [0.2564028738885916, -0.05050346518852625, 0.16710516784002177, -0.029282600012723627, -0.204596594833737, 0.35548850734206494, 0.1592882973850159, 0.0745028597177218, -0.06761573644868567, -0.18489921163442974, -0.054468015335638394, -0.45818570104365886, 0.06583395813399667, -0.7855195907414809, 0.13643805294301486, 0.190962798083703, -0.672004829881467, -0.32166379122282013, 0.27301630860566845, 0.021761645006313137, -0.22878235074717007, -0.17279638180602533, -0.10371320308853361, -0.4466557495451311, -0.026377966548844164, -0.13618174607771935, 0.0016417351886922075, -0.6617048979822826, 0.14244433395934167, 0.061318880847986236, -0.29246609920390865, -0.03535544363746728], [0.3432361623185907, 0.04276200123367803, 0.10400730555371576, -0.1504489963716718, -0.20559842715269377, 0.22811811520044728, 0.2636738161005889, 0.17717765170991012, 0.2983548386927603, 0.06734915627754685, 0.08113290665682035, -0.18566793553554908, 0.19435899361658232, -0.5400273012954093, 0.3962900085961888, 0.12046674633609379, -0.2740635180976933, -0.013422586477211194, 0.2614615285424977, -0.129991878841155, -0.14461801517302797, -0.2556157704795638, -0.032598416719556565, -0.34941131792084423, 0.06978573772121761, -0.12525683120972306, 0.4541045049989754, -0.1604835433251792, -0.08916656345413825, -0.24236372089069766, -0.13725178323965131, 0.39986785598807717], [0.04338205978974007, 0.24502143974737503, 0.39409685472471795, -0.5877280708310274, -0.2666673305738297, 0.24034361362769588, 0.4330986831789315, 0.0280947305671464, 0.24557047559339285, 0.23125981297434967, -0.2529628405236871, -0.3828145721628547, 0.17554827828048944, -0.1117154354955798, 0.6915417413809218, 0.8080163073740846, 0.056278430520465855, -0.5132663772506858, 0.15373306328639214, 0.006668151993590055, -0.26535738245410473, 0.8713670863398479, 0.002599800367700104, -0.3798430619221125, -0.22071717406440527, -0.1605325033462159, 0.44641175115909665, -0.2678275983292778, -0.07086546496570417, 0.24113837627061813, -0.459689119190054, 0.8976289580638425], [0.4055320497280811, -0.3006270274693374, 0.16553468487838094, -0.14690227600059627, 0.15496285787799818, 0.07293696552383407, 0.08675025726676351, 0.33390784410496294, 0.0646487930816966, 0.008235679878439374, 0.4656529195416517, -0.2778924765161077, 0.2889271942612208, -0.44607132060812155, 0.3787333308337177, 0.10170636467298205, -0.24714404486115, -0.341470043066757, 0.07394412275251984, -0.1310590718534915, 0.012042898872484584, -0.42904400568835144, -0.2468707921422632, -0.16568825895171482, -0.36116390900448203, -0.35189590070067156, 0.2840683312076127, -0.24232972040214537, -0.5465893724053443, -0.2788010004837736, -0.5476365903368017, 0.3137955238117808], [-0.13489687848977386, 0.5729629617635749, 0.5301207089561442, -0.2104808032428862, -0.048826511166249295, 0.10403802305864537, 0.3589980991486379, -0.18442430509500904, -0.06216191204446621, -0.013477529164415412, -0.11082576925086973, -0.47173307614478815, 0.024242058602706198, -0.19283678574594676, 0.8402128049004736, 0.6592698704005615, -0.19472271425246157, -0.3490690898259253, 0.1780182084172251, -0.1455013768912854, -0.06783368938935601, 1.0757027862960693, -0.16024388944171905, -0.3058065322095638, 0.03770462419812156, -0.0035846316377756452, 0.519938482857833, 0.10072580626804718, -0.035061695640631066, 0.4445106808876899, -0.15140285604872739, 0.6878704495637983], [0.2894933184941558, -0.2873386751430451, -0.015867290084719373, -0.186968717769315, 0.029045805296727976, -0.17012506542818928, 0.0028874198314801066, 0.2227236254448549, 0.14233657825984422, -0.02517176652922347, 0.5527144274126609, -0.3288467009836729, 0.0883397086308471, -0.28157869412631537, 0.3558281940491034, 0.10885158494454271, -0.1047143582952687, -0.08972180575889366, 0.17738256321589507, -0.35410061390644454, 0.19396209091403233, -0.4187794538715655, -0.2194320271099877, -0.005987276210772178, -0.08124662112429008, -0.33572975312943865, 0.3747225184133652, -0.22287819336254241, -0.5653655842003102, -0.09941701514174249, -0.5629073272206331, 0.4279398223796136], [0.05166003339071166, -0.18400277348595642, 0.19430738734811331, 0.05285030549398788, -0.11648159824938079, 0.2653231534041873, 0.2532859456506871, 0.13022601785832114, -0.027220662196544072, -0.21144196384281175, 0.1906047539549205, -0.5409912317008605, 0.02822248863652396, -0.7036946254396823, 0.06875507696010001, 0.15103746647256722, -0.5494604449990947, -0.033999269870456206, 0.3169905213514343, 0.019776088548912756, -0.2420631916412229, 0.08047158765347086, -0.16368340807600598, -0.23829033573277658, -0.037035163623602436, -0.3756887825800601, 0.4333794065300737, -0.5686916828071366, 0.08143300933598187, 0.08318289648387898, -0.1286991575887499, 0.07141916103523886], [0.6242802335785074, -0.020002787944831322, 0.07448745857632229, -0.3669125266612305, 0.21475647098908174, 0.07850926884287732, 0.049200013788283516, 0.6154639823702003, -0.22837334214135385, -0.17159947833820635, 0.495769833807721, -0.39821215443490254, 0.5470330465501153, -0.5361216469008773, 0.47874212344930284, -0.0005655134879185419, -0.4528531979908754, -0.30067843993254817, 0.19570250377348097, -0.29012548853341413, 0.11059301822731245, -0.3692514084423811, -0.11454426657493436, -0.03473916010647564, -0.42716392929457975, -0.5990265836268394, 0.46807965301788496, -0.16384271860368255, -0.6359491404951444, -0.5292569084441969, -0.859692814307827, 0.4581011816746082], [0.38188051094771636, -0.1318168578772076, 0.12905256166611279, -0.262821246507967, 0.22596583174309964, 0.14256899972062015, 0.06974845604840905, 0.7051208806209901, -0.004568182903518581, -0.36693016365039605, 0.30094860658215694, -0.303230415818899, 0.49466925587890737, -0.28537891947017197, 0.395482856663607, 0.1832476115082513, -0.3366957186916846, -0.20874947754335585, 0.126348819383408, -0.31569518613196945, -0.07758527422261191, -0.49476656422365245, -0.1297390974990058, 0.11366518155112043, -0.4499760417977301, -0.5462508970600205, 0.40768467962321325, -0.1833001961030262, -0.5438943645148127, -0.5179144273734633, -0.9705850797764546, 0.6298925530966832], [-0.023515767076098287, -0.02266389021856653, 0.0009672178879630777, -0.5228814476916713, 0.0923425953276759, -0.22023548279181435, 0.50626320233882, -0.041374260482540934, -0.1530523777285733, 0.12214156369405188, -0.13687782588513228, -0.3285393697069476, 0.20987576796229826, -0.16240127831770068, -0.0331366613225443, 1.4868232040641414, 0.11551261317906225, -0.5921881714452591, -0.16399630755589248, -0.25515875110793806, 0.0076135223531525065, 0.8815244294766871, -0.26427427384928526, -0.0909823124673017, -0.4438652106459095, -0.0007515572335445931, 0.39058241615008676, 0.19962822825659207, -0.5920629508498447, -0.22070752134087693, -0.3474101419871231, 0.17476027184108328], [0.05793349899822793, 0.04745925555936099, 0.392987130818827, -0.4796014846894676, -0.21064473189762065, 0.14450399282506798, 0.11667495391965794, 0.0865780457059341, 0.009988425655771299, -0.12958747940972412, -0.05112147495633541, -0.20572825302136494, -0.2302247318144372, -0.2470622038329601, 0.4017127197044997, 0.7706292957469238, -0.02894346430527428, -0.6516475962153184, 0.21834977954377355, 0.1738389654058549, -0.2514166422080397, 0.8949874547742428, -0.010269554350907859, -0.33076280510602696, -0.42080145427745413, -0.08500142109111349, 0.65742669001015, -0.22851357579975343, 0.22506679206762972, 0.23232711078648413, -0.07832274674261556, 0.3815405485119874], [0.3046676741038514, -0.15271300725109194, 0.06275460879350535, -0.2694978662902221, 0.19301498452608754, 0.0646940687355695, 0.18329718723762917, 0.34429840290997205, 0.08573504027159116, 0.09964039410295045, 0.5085011768808443, -0.3583239179007467, 0.18200243483204961, -0.5218137083086348, 0.46042551537761395, 0.18584531879774768, -0.264649175469728, -0.3454332950789706, 0.23821888688769624, -0.34891429042426064, 0.03281909208378762, -0.3922362814894141, 0.026625874382862794, 0.003648094819042724, -0.10409443294712875, -0.42442007378408364, 0.23764819943238608, -0.04861387038120834, -0.4475252929789155, -0.1838947833562276, -0.5968819989009259, 0.1150796050017024], [0.8089881748574679, 0.3745297475906052, -0.1996144758189882, 0.09174526719018135, -0.16734674859990828, -0.07387931182213028, -0.19618675721480686, 0.5946487195560318, -0.38638943235021883, -0.08721202887711034, 0.7201134471055407, 0.10157748173960729, 1.2453580023534752, -0.4719674714951725, -0.09058425798167084, 0.24217298453344116, -0.360647062837488, -0.19533801074141457, 0.09957790453955345, 0.14287722543503956, -0.12718496693719755, 0.09254603807356943, -0.3817360553469489, 0.11296031221524107, -0.32033970270023426, -1.2040097532280984, -0.12360818081473353, -0.4461314342167565, -0.8764882749523416, -0.7125999374906111, -1.0800322564782165, -0.19577141319895663], [0.10160612262983702, 0.35948601592382085, 0.6071640650128008, -0.4053571312718351, -0.05627343841684965, 0.05660460474155867, 0.296197142949529, -0.1083000892341171, -0.06475275315827957, -0.14355649860043626, -0.32419734556903756, -0.6091181279207941, 0.22361371618267875, -0.17551379818913188, 0.8001359375415532, 0.735734102166232, -0.1082198704233657, -0.37511138328479415, 0.016481915661367474, 0.11053871238363111, -0.20780974635429023, 0.8874436364287206, -0.2161758508164051, -0.4683381072801069, -0.3063791539142338, -0.1532102970323392, 0.6130773288868472, 0.019362635577539183, -0.1137400334626753, 0.6093655756249, -0.34738075690639975, 0.7244936858639697], [-0.43057834126492134, 0.3677164519583371, -0.04319577568818655, 0.021612447886165793, -0.21192993140398486, -0.18687494488445985, -0.2830183706094454, -0.6482165868370421, 0.015900061071402155, 0.2019517566832358, -0.34444316334597735, 0.29693448817618684, -0.3129679110203126, 0.5817568796085358, -0.23029650110618946, -0.2115888614804179, 0.5186490841494322, 0.05602042268475206, -0.3124021869015135, 0.41013935489207703, -0.1496242168910042, 0.4723857320167906, 0.23163758660483236, 0.04626697333440964, 0.5090303360300436, 0.5265396849906522, -0.4588012685624069, 0.16780844836406908, 0.4545684379310214, 0.31711329237618396, 0.7444657731300457, -0.1351303896391865], [-0.4148711683979385, 0.20358945348372046, -0.020988008904784472, 0.29238270210042855, 0.03221367417174933, 0.01463215010492646, -0.032496113451110295, -0.530526192579497, 0.06288127908851127, 0.20429879007156077, -0.31843947315071025, 0.16083209279457247, -0.40887284235947896, 0.46518743833013154, -0.3987883191712052, -0.2824054077532233, 0.1099754852693235, 0.18602721941575692, -0.19891936042232494, 0.369361066789311, -0.07528450845371366, 0.41391714847623606, 0.032920638385018436, 0.2429116092038133, 0.28823996820457143, 0.5496626957057656, -0.4679352971815987, 0.36091426413030353, 0.7102381915558676, 0.25385751289749336, 0.7082248196168962, -0.34948513257275904], [-0.382753183478502, 0.1304894977416009, -0.16149605974361422, 0.2121303232048623, -0.1641104169509236, 0.07770037415760499, -0.02719032962094966, -0.32979348175567347, -0.0037081406756777732, -0.036413323692990586, -0.4379324714735252, 0.20370903812557684, -0.1508029197991176, 0.25722907541305706, -0.49418631346072395, -0.010844883386185082, 0.13291755450957826, 0.33942850411289, -0.23397621727956716, 0.21279462948172925, 0.001682835798580299, 0.36068753147491656, 0.18946144678497576, 0.11152219491957795, 0.08753379761900545, 0.513861782220443, -0.5229978490543453, 0.13958748396543347, 0.28260482597691056, 0.3129237153030663, 0.5099257989661931, -0.41255104829129813], [0.30578077623931316, -0.12965728326231732, 0.29722929324812825, 0.023354671522065138, -0.06190490860033091, 0.26032801074553374, 0.14724013792097154, 0.12449652497170488, 0.22395336910455407, 0.02832030200964367, 0.15761443522294374, -0.39539972507511134, -0.04033100667050058, -0.4158268858245909, 0.275971046560562, 0.17131159781464975, -0.33203624820270583, -0.13543143302612762, 0.030336281546917927, 0.10719529187505725, -0.05916057216792437, -0.010408437881138807, 0.15695806363694562, -0.3082709723166433, -0.09614422708663331, -0.06609957051158856, 0.46846211760502765, -0.39935540209932224, -0.20658816020074686, -0.043293642463058946, -0.23834698066270935, 0.2313808415160486], [-0.06753885397321492, -0.17821839534400713, -0.2676276769356518, 0.5105539002778297, 0.2838993117121353, -0.14228165911687632, -0.14163307747364826, -0.28552010017774404, -0.20554541063379345, -0.10290256957773775, 0.21379031971473064, 0.3139589502296933, -0.22554196559758652, 0.2710855731215185, -0.4185375785121451, -0.7376689551294174, -0.024657579280714135, 0.4611680110396011, -0.29543836096008735, -0.2727033264442434, 0.1399587965157903, -0.9072503291983294, -0.20289551556439495, 0.24976223172108705, 0.23117440259127625, 0.0750645940773432, -0.5220947133228288, 0.16480088400103843, 0.05532185216277789, -0.3276576373947897, 0.061126263985774316, -0.6331561520095887], [-0.00012437948883612147, 0.1789637164935761, 0.3130109857344245, -0.26134618255915476, -0.20666901100634213, -0.06764804481804391, -0.07764487034907723, 0.130929853875831, 0.21478945804395053, 0.03959666933474178, -0.21992676031711156, -0.33040808935345495, 0.12462927270941951, -0.1305531718377703, 0.6347031207009592, 0.5893036402326632, 0.053578577010102026, -0.045855295257142444, 0.14861891060651478, 0.2237137620288135, -0.1057891395228432, 0.5027455169089939, 0.05166053938120006, -0.1693385430359624, 0.006555036671537324, -0.06771166567457435, 0.40200016458664584, -0.12728588917164477, 0.01610404033257307, 0.16011188789323008, -0.2519753061035008, 0.48459891130330135], [0.8873580554756538, 0.4467001553277848, -1.3439409458608118, 0.8353826583872359, -0.10702924026639446, 0.06598967976247236, -0.16696508803275717, -0.16099327587430537, -0.7044899231134841, 0.024481183163499756, 0.6823701922163138, -0.05418535656606293, 1.1608163749487455, -0.048708861963724495, -0.5468732885070271, -0.44896828416281154, -0.3327352957703864, 0.4119377760347356, 0.010300623699086157, 0.11966361059180727, 0.07849054766226486, -0.010894688835979603, -0.36085252172791826, 0.21070296865371738, 0.6561451150751911, 0.10351318186874615, -0.3899511725223572, -0.10629919930179989, -1.3136976643182434, -0.7122701032449327, -0.19246901755357826, -0.37066585987367934], [0.15486211683732176, -0.2753471960882496, 0.16072338517210025, -0.2629473326897944, -0.1859207406329921, -0.06249737111474523, 0.0309479868412939, 0.12447907585018016, 0.32364789189892784, 0.21763527283474665, -0.11316827240321786, -0.06211537048282049, 0.07926532824460779, 0.038664502950923905, 0.6485592844463733, 0.37807868955978086, 0.03964285460520788, -0.19737132802266977, 0.19907551370094848, -0.03762234550344217, -0.0357574095944396, 0.30221490837025655, -0.06027501949269778, -0.022370133989437577, -0.09266035362746514, 0.0777438539458486, 0.6572205843813349, -0.14818511935909537, -0.085957080946234, 0.021402642639096463, -0.3423387051658452, 0.2747822944144829], [0.7798034711765456, 0.4170637422121476, -0.4219158110669248, -0.035353368696366454, -0.2182193349076677, 0.09414099541731472, -0.1763401349779507, 0.5986492130998413, -0.4529515314537608, -0.032692960271531166, 0.6312480007906288, -0.0894975575134857, 1.0593637584793558, -0.3288817791981033, -0.08324151060496104, 0.22278392512571857, -0.358045550383265, -0.503121276861234, 0.30552672109882895, -0.0483462652479719, -0.23706431667903752, 0.33485286505906164, -0.21125556573990936, 0.07793826035194756, -0.2779072528463874, -0.8966378603303748, -0.2423772903456007, -0.25903381969844913, -0.7968266780003599, -0.5962798710673712, -0.6058578070434251, -0.1455886828337654], [0.23342816913249229, -0.2904039126731799, -0.14745974352939736, -0.20901162185573105, -0.011317128620481901, -0.03900108325647639, -0.055851794939799915, 0.43591194730025107, 0.16381560899499956, -0.18680432977494948, 0.3423736373154251, -0.3552788396640537, 0.1530910957599988, -0.5457184638034567, 0.25068987167500784, 0.35287189538804786, -0.4134449183466256, -0.3310510893183679, -0.09974486671077845, -0.16693526924240396, 0.06960397786293827, -0.521330834606406, -0.12157793809857464, 0.04084049642204615, -0.05742980308776388, -0.28618874915408116, 0.204745301629939, -0.35909303305398976, -0.3467639476275519, -0.06654184682238092, -0.490588063878283, 0.002401004940719749], [-0.020426544991803495, -0.22647730896924823, -0.4163050517329642, 0.3872079504701448, 0.08589697496751723, -0.15689810164061913, -0.05807518224608665, -0.19259124392824242, -0.2644843395765131, 0.14817769717128354, 0.07705944794783527, 0.09689192403582741, 0.03059095455074164, -0.07553198565297875, -0.5678940001227402, -0.47125058861590197, -0.037607323334044235, 0.3458647427141193, -0.1656150366852595, -0.23824650159044056, 0.11867273361281191, -0.6810220640879642, -0.10889805081022963, 0.1627634885443764, 0.43234738808339146, 0.161645022342643, -0.730591574935438, 0.1051649344876494, 0.02157515462918568, -0.19622205416654165, 0.09338512492907226, -0.5253363687259612], [0.8960470616670557, 0.2403546171373821, -0.2419455871830636, -0.0324072611281149, -0.15023384644372526, -0.03555521906774458, -0.21949260540866727, 0.46929974933553026, -0.18472666404186322, -0.20723555256268109, 0.5335986925409868, -0.1422865806083338, 0.6799200935563915, -0.27383064051654743, -0.03566362840513764, 0.04442035312346654, -0.3387652915964919, -0.26024893977251257, 0.23169893210470388, -0.1956789772447963, -0.09417821165155704, 0.005557382499256492, -0.2933938680392693, -0.054786600926946545, -0.219764638222049, -1.0009638641607406, -0.09745204989076937, -0.028005066927786967, -0.8517236185943085, -0.44805310727819664, -0.8549810102580977, -0.024175529078358564]], "b": [0.03168218370309706, 0.1565362115233443, -0.07506729866088593, 0.02416797353965244, -0.12670234377313436, 0.22816973889381725, 0.011240787023922783, -0.03575763376133158, 0.11099025902679203, 0.2275519501660987, -0.18788531092141558, 0.2670465170131027, 0.0058996355045008815, 0.41455055497977916, 0.11021597851782527, -0.09506662219432502, 0.13082946530306522, 0.16180298188661693, -0.016184570159019918, -0.10906539761097354, -0.3603898519771312, -0.3393947135035351, -0.08146494888676944, -0.02076682389877071, -0.20800309600359318, -0.09329736726794625, -0.4224947233189098, 0.28395115540467303, 0.2508012382676387, 0.2192710820857146, 0.0040604083275292335, 0.3182249401402299]}, {"act": "tanh", "type": "lin", "W": [[0.13303255609103729, -1.1262976108533291, 0.14816679848950254, -0.4537475758712189, -0.759787330216304, -1.5890270572393792, -0.46758309465313486, -0.4267195377042741, -0.5015533740882627, -1.0537469763486809, -0.31162535518282597, -1.1156711848120193, -0.4766670659965003, -0.9921292427604013, -0.5159479854498281, -0.15933096662491825, -0.14838100239604984, -1.2909312312783807, -0.9264605551005147, -0.5170236228580396, 1.3197035053278894, 1.025138956727668, 0.976742094827091, -0.46501809697050533, 0.34950192816060516, -0.4566165321906802, -0.27362110665082323, -0.6941735553503284, -0.9160265385058229, -1.544483684005531, 0.21411047635240202, -0.9166862750801563], [-0.7115895569454573, 0.4446815216793858, -1.633288641583649, 0.7887010954380715, 0.27617125037489815, 0.063609387719014, 0.32212628759849976, 0.24440539463740704, 1.1982280012285111, 0.43407981518281036, 0.9406511117526953, 0.13148248100269075, 0.39015639485840076, 0.6553844530319335, 0.36979263592775746, 0.7188564872605346, 1.1708734721911656, 0.10797568368762842, 0.4918566649877719, 1.4218632022834978, -0.14189652729991298, -0.5983252050964287, -0.17519695658312184, 0.2968684393682527, -2.1522096743782893, 0.6679578938331406, -0.6727875238142409, 0.5355932823112319, 0.6244913700197194, -0.015278328990264337, -0.6125329035995848, 0.5605841707634697]], "b": [-0.24581586047664922, 0.15680812374760722]}, {"act": "", "type": "global_mean_pool", "W": [], "b": []}]}
